solver_type L1R_LR
nr_class 2
label 0 1
nr_feature 49999
bias 0.000000000000000
w
1.995556125417284 
0.2592926248052950 
1.169574553184682 
-0.1436831832806692 
-0.9606209037441417 
0.3798797046519133 
1.580735454115894 
-0.2349407136955241 
1.051197422550563 
-0.3536959089687862 
1.504444163278719 
-1.572970859571820 
1.308867117758738 
0.9239093130266428 
0.3735222637771467 
2.511500354851744 
-3.296813018244371 
0.03402048853489245 
0.5512981030664855 
1.002122379528770 
1.327709241072764 
-1.475721951871449 
-0.2578687153581877 
4.046592508613866 
-0.2992096963163834 
-0.3471987609761221 
1.785009129597465 
-0.5079563905053582 
-0.6142661027148375 
4.429718360901370 
0 
-3.978818272942012 
-1.247188152644205 
-1.239069299845464 
0 
0.05968934752284161 
1.892934841272501 
-0.09803444911128184 
0 
2.969896352498513 
3.630922247221078 
-1.208186300350919 
0 
-1.137291864583658 
0 
-0.2500732371246965 
1.111675251814882 
1.561081330681069 
-0.1431071190705233 
-0.2998867141128190 
2.142128717500694 
1.761640601346929 
1.088731227249498 
2.446250343994236 
4.849328750985182 
0 
-2.859264020682273 
0.1057942766931705 
0.4204374004263529 
-1.555598369257942 
-0.4700294826324921 
1.324765137878084 
2.037453440646448 
6.779166953066535 
0 
0.5356350542207710 
1.285664778784603 
0.02132070809007747 
4.846619705171044 
7.111478122598325 
10.45059431971098 
0.8929843557182442 
1.075949067014599 
0.5066344454689048 
-0.05190372660959941 
-1.373886567865710 
-1.587152963492861 
1.529492942577294 
-0.5144612963216391 
-1.511501131637592 
0 
5.891212267622117 
-0.8192957643210380 
-0.5484438110142577 
-2.163065594607906 
2.987795917495447 
-0.1516724659958681 
4.333626640410056 
0.1356898258217685 
0.01400901747322066 
3.174509424527797 
2.030811440680781 
-1.546433419684528 
0.3020916061001851 
4.931640591374670 
1.587876142143576 
1.588143549256527 
0.2473443011997450 
0 
2.268505940822316 
-0.2612483880596277 
-2.401062645703328 
0.07111967649677488 
0.5653990337694603 
-1.239344299037716 
-0.4290390909031191 
0.03608519590644566 
0.2884990473313125 
0.2635078424054292 
-0.7966184969880041 
0 
0.5281891436263093 
-1.531464653824497 
4.552684528517855 
0 
1.396677027558300 
-1.041717513352442 
-0.9391223324015895 
-4.357257963454397 
-2.270175634713540 
-0.7966310934219842 
-2.658247589480280 
0 
0.8019026997551380 
-1.458452514259222 
5.517173963608768 
2.004316306913535 
0.4687332496234795 
-6.119375719939958 
0 
-2.078573307957111 
-0.9269511592654736 
0.2506157067052504 
0.2386164085560886 
0 
0.009515777967724626 
-0.7094995618200254 
-1.434255381214695 
1.533056253755506 
0.1765337840607132 
-1.204386935305289 
-1.597360696313319 
-4.822593978326527 
-5.479875482741244 
-0.8048400509646441 
9.156798239732446 
-1.299033709062583 
1.415534057862790 
2.400406985008726 
-0.4756554534251146 
-0.3050564800877396 
-0.4942663318837360 
0 
0 
3.874679749891178 
3.194585031643172 
0.02487311538583770 
0.7734370397365561 
0.8136642915327617 
2.080006341497501 
2.274318026487046 
0.6809545424080594 
-0.04526433521131783 
2.117972510710145 
3.417203207196863 
0 
-0.04191009207882129 
0.04368639034415325 
-2.074352795698619 
0 
6.775088544564884 
-1.483191861608196 
0.4082773998299022 
0.3330182881008778 
-0.5839364217456688 
8.821193929827743 
1.480650414514873 
-0.1388387688743579 
6.295506967390483 
-0.6210154279517484 
-1.817786895747279 
1.060334188545216 
-1.059085942275933 
2.936987893753634 
-3.057039843555555 
-4.928021627177737 
0.8060078195248288 
-2.628543274234729 
0.2773853043248296 
0.5063039285665185 
0 
0 
-3.846179108388200 
2.129912390981099 
-1.080486549946124 
2.421267909788086 
0.2611239046803912 
-0.8952324341962548 
-0.8754589985416930 
-0.2495385476703483 
-1.476619066537365 
1.833319615369637 
-0.1700933964911101 
0.5363080885800192 
-0.4552355813354141 
-1.241694207621251 
0.2906305363116196 
1.155152653761054 
1.375716066837890 
0 
2.093461837133174 
-1.270973995346476 
5.788878933705491 
0.1727262543994928 
10.23512919234415 
-0.4725853655954363 
0.4761367146451510 
9.979385126921128 
-2.013807995915580 
2.810285511279910 
0.2704126016456215 
8.811743599124384 
0.2025803724018189 
0.7594506159356298 
0 
0.6478624621788098 
1.075691805018083 
-1.815370080000625 
0.8093387346141693 
0 
-1.041194628680152 
3.486973765789842 
1.872134432397641 
0.9906885444420022 
0.9266479334405877 
0 
-13.22230786751038 
-4.450479201297609 
-0.2179931300666760 
1.928671072912331 
5.424826523284034 
-0.7480262445553066 
1.005658232457000 
2.819077924217086 
-2.901115685571656 
-4.041372508063263 
1.225919403875245 
-0.6874677067040641 
-0.02015316388408708 
3.354071645537891 
2.068982754435932 
-0.6400950918564872 
2.318432108112929 
1.715293182856005 
-0.08241232835444912 
0.5800568881130133 
-5.839854762563460 
0 
0 
-3.519620080411085 
-0.6514436602979718 
1.337093544213607 
9.588679244025500 
-0.2523545325780068 
0.8195918824544384 
-0.5979961972579887 
-1.063599159967742 
3.740038821126032 
-0.09718233684116671 
-1.070886872373819 
-1.307250653086962 
0 
-0.09600146505679064 
-1.246788064705115 
0 
0 
-0.4434307625281997 
0.6523211300180366 
0.2735084137874009 
-0.7107670633446236 
3.553645747658878 
0.7057590751090507 
0 
0.09311543310544357 
0.5493346360058455 
0 
0.5652795245076676 
0.7923564767763807 
-1.583536883886381 
-0.4388551424367003 
-0.4478179693611184 
0 
2.740540232129312 
-0.6519284874435634 
0.1800739185481513 
0.06994285394288949 
2.522462522658818 
0.3903054654792303 
0.6977284504579060 
1.567359624176859 
1.096169253373893 
2.246804853925264 
0.06350804240241159 
-5.042284304647632 
-1.845156116054103 
2.349960525191651 
-7.183460449744932 
3.439165317786937 
5.202250808664841 
0.0004361097733482505 
0 
-0.2547056838045407 
0.1193431499591238 
-0.7081062895895285 
-0.7605538024646818 
-0.6044900041649581 
-2.313432776857041 
-2.340260883426300 
0.5791026194824274 
1.086263964800427 
-1.601087664498377 
0 
-1.521379838916517 
1.734897334350063 
1.115479909897332 
0.04099559774077036 
1.388296000417945 
-4.643187192379966 
-0.5167729232938285 
1.312043993276387 
-3.194204429006514 
0.4709118995898391 
0.4377919004688974 
0.3149161484060570 
1.113793399817347 
-0.3376564058460673 
0 
0 
3.425488516893759 
0.7333953392761227 
-1.733852459424002 
5.431260231468091 
0 
0 
-2.830415315562773 
3.806491180348632 
4.004807028103155 
-0.6271956636368611 
0.7295034584296707 
0 
1.407774094753649 
-0.5538366192447526 
-0.7530847304008594 
-0.9612403882556386 
-1.117837631866594 
0 
0 
4.174012087689798 
2.698120730825468 
-1.389540105184630 
7.774018037978807 
1.327604215754077 
1.271484758623453 
0 
0.1160943991482646 
0 
3.158140366120890 
1.257669856947640 
-0.5960629505774678 
0.9467469691647489 
1.489368170641706 
-0.4969194954750392 
1.160861664554610 
1.684470083030892 
-1.166808888197608 
3.000790941608909 
-7.409982310931975 
-0.02051192101762805 
0.7195853332960765 
-0.4962985017478729 
1.451030336273359 
-0.8194742220385721 
0.2953013205860677 
0.7420955838635526 
3.883920066819852 
0.8186679943777205 
-3.180291669202435 
-1.167320187237458 
11.59319183991387 
-0.4114050760164073 
0.07183530060686426 
-1.527377548684755 
-0.003203506614264242 
0 
2.976272338483869 
3.897010471453950 
0 
-2.804429739077210 
1.633668570373028 
0 
-2.170470239240041 
0 
0.8796475826307893 
0.1027883485817941 
2.265848291580036 
3.956776115080561 
0 
-1.426307316554075 
-2.510631561235372 
9.197729773447659 
-0.7321542017701863 
0 
0 
-0.2477132815506112 
1.359257419944610 
0 
-1.362204543484293 
-2.555095188849565 
-2.063919704385993 
-0.7532650374386956 
-1.831494882427809 
-1.537473668941870 
-1.627981459754648 
-0.9192189027384268 
-2.358923428185776 
-0.2310776634705709 
-5.352785513241745 
0 
3.331453328782521 
-0.1220778438407617 
-1.009400120326695 
0 
0 
0 
-2.590370143404652 
-1.242338080778809 
5.499252811864134 
2.170321727439482 
-2.090915215535304 
0 
2.758291586363493 
0.2668357846958538 
-2.712440920762103 
-0.02059334529718931 
-0.5924124862653590 
0.9894142779256594 
-1.427538254537836 
0.5534244178068599 
0 
-0.6591516503710534 
1.449089878349140 
1.161875008854915 
2.282062935719156 
-2.425408985929774 
3.149971726025217 
-0.9885639486521997 
0.5412128414085943 
0.9142321697689977 
-0.6218660340565002 
2.196510023628397 
6.056975830847444 
-1.154709288425025 
0 
-1.792402276852303 
-0.6090478008193076 
2.083368327911531 
-0.02482074890095333 
1.411558984097550 
1.702932651495434 
2.947043937603666 
1.775667601967287 
-0.9736799985421563 
0 
0 
2.231765869071796 
-2.012180828601465 
-0.3893112537205288 
1.816439999946431 
0 
1.700899367399640 
-1.816601350276372 
2.963466001101725 
-0.2750268203731005 
1.421686383200477 
0.8638770821822683 
-0.7879551902283618 
1.065725750518702 
-0.8013785362781760 
0.7287927691220584 
1.043765330107503 
-1.524197288653169 
-2.362692480034400 
-0.3828428817682604 
-6.308065365440879 
6.095187998359099 
-1.783674374022140 
-0.9141579528166366 
3.624786694204229 
-0.1847793027458204 
0 
-2.796240123330830 
0.8847476014938656 
1.042749254464653 
-1.965325718596916 
-5.926860455658628 
1.131523864267124 
-0.4245288433981536 
-1.866223690500864 
0.6694290212837490 
1.776223559653037 
0 
6.042863154702245 
-0.1357568470654809 
6.945109744123426 
-3.081441030864689 
-5.527380929110109 
-0.2685400173025366 
1.482746260745588 
0.8497654726715147 
0 
0 
0 
1.022226700486667 
2.487609739468855 
3.597389855082569 
0.9310127993054172 
1.942926027201873 
0.6100190737018997 
9.112493710898200 
6.641033499151453 
-2.322501838866006 
-1.064373961342202 
1.859751076247329 
2.012301132887534 
1.083240828795888 
-0.3244114119713357 
-1.249092348475364 
8.496297842088834 
3.376701193068491 
0 
-2.770620166648340 
-3.590433453613941 
0 
0 
-0.6061406078350687 
-1.277700018804413 
2.300697916449924 
0 
8.717020630218338 
10.71149182638023 
4.384755652363841 
1.933136991408438 
-0.1744182895181721 
0.7421947947855645 
2.749233083827077 
-0.1079600196407241 
-0.2013830670615957 
-1.273283314992398 
5.485863043278557 
-2.028224780335210 
-1.730405734239606 
-1.340062474012424 
0.6795843437043372 
-0.9878326501040745 
-5.583019063882196 
4.481828724524013 
0.7417663351370594 
0 
0 
5.846318962291687 
0.3168840834507559 
0 
-0.6582038856556399 
2.594348804688013 
2.680648093075889 
-0.6709147709501345 
-3.762515831297082 
0.5672922725214861 
0 
6.199694010766848 
0.003798020214445118 
0.5319008959435404 
-0.06663357422422456 
5.236267444061697 
-1.464181826034998 
-5.101172201863444 
7.800018348785806 
-1.658187378255641 
0.02287818269161277 
2.569142785629252 
-7.195275266484478 
0 
3.056885158511208 
-0.3714131538409362 
-1.125062638428833 
6.119252330317038 
-1.075650362484400 
0.6681586781604019 
2.253533066852473 
-0.3266157843642338 
-0.5497891206827289 
0 
0.6046950711575441 
-1.096558563080833 
0 
-0.2864970337913111 
2.634042494842888 
1.453938730101218 
0 
0.2260028553615143 
-0.4454001706977625 
2.972433469049555 
0 
1.499366426616992 
-0.4104594025656665 
-1.061630389793193 
-1.469851084084860 
-0.3657337509587306 
0.2987596088161980 
0.8752779465034302 
-0.2363205664783297 
0.4534406076157194 
-0.06285997404140048 
0 
2.725485002334541 
16.73925812212018 
7.777002454041225 
2.614917901774133 
9.589797405962900 
-1.302869281211825 
0.8084002484893765 
1.597373352454139 
0 
1.923561461125794 
0.1592105188820647 
0 
0 
-0.06529796661921376 
2.056924173671241 
1.905027913858386 
2.115471165521051 
-0.1369241022636371 
1.505494594522498 
-7.012200385824439 
-0.05760822983405953 
0 
0 
-1.218515412536624 
2.620187469861973 
0 
1.257677001276403 
0.5036156202460961 
0 
-2.937843841723478 
0.7643428000348595 
-0.02363850234823204 
2.151920597327989 
8.092976253526452 
0.5387558915744517 
-0.7509913773792434 
0.01214728137675304 
-0.02875091173792654 
-0.5683501000086240 
-0.6694054604986618 
0.2587962025151576 
1.389784721960798 
1.330535845128905 
4.870898709560358 
-2.108369088021873 
-1.837423496092104 
-0.7158368862586502 
6.685274647271998 
-4.097327232507597 
4.159687743315748 
0 
3.350023957782840 
0 
0 
0.2253025661492495 
0.7173234682581767 
1.183968161203503 
0 
-1.949119587695020 
0 
-3.350889040840086 
0.06956352785445295 
-0.4436316307853521 
0.4004442684559190 
0.3914097847645542 
-1.464251084773500 
-0.6302631018663654 
0 
-0.3617844138368682 
-0.6712887431352417 
0.8767476158861038 
-1.062204887034013 
-0.7630075241031868 
-1.307699999385449 
1.295338569134412 
-0.04706677651240875 
0 
1.783845285017986 
6.881314633682150 
-2.888102319155853 
0.4430385643925198 
4.510600687233496 
0.3868335203997820 
2.051564996152951 
-0.04528666524410785 
3.635310343318763 
0.2206396287489015 
2.041176512991781 
1.298044048464846 
1.163132723058031 
0.9360706451667288 
1.936864822382307 
-1.288456671421879 
0 
-0.9835275092447980 
1.449591000545980 
1.858684635085432 
-0.9837603662235784 
6.241098204280712 
-3.443020462847800 
-1.087869764033558 
0 
0.9229776124467413 
-1.054553072660889 
0 
2.281878743647433 
2.228764974448520 
-0.9059891929861047 
-1.833537919360068 
2.495928598145553 
5.390086469497231 
-3.906789380876384 
-2.743521719018973 
0 
2.731456595786375 
0 
0.2417176923481519 
3.890747761049382 
5.163967768018146 
-2.704016635507485 
1.419637283867184 
-0.6496083116580238 
-0.1152541771866868 
2.610261962766286 
-1.144363651776065 
0.2982836412270096 
-1.754635482092630 
0.9256846797117347 
-0.3579675705201155 
0.2102110365902220 
-0.8435106121157598 
-1.755974179856715 
-1.657624797129947 
1.039832489355826 
-0.3010353938716189 
8.684046752317853 
1.050622225348357 
0.5913835252439382 
1.369883052587534 
0.4629032297853595 
0 
2.802724918526521 
3.404836765871819 
0.5414998205038938 
2.477873094535127 
-0.4535581441558751 
0.3601684374379142 
-0.6344897508276283 
-6.985874592830574 
1.011187228126481 
0.4301593334247121 
-2.197051044002927 
-0.6017585559489327 
0 
5.283252264015070 
1.738951311961116 
-0.4014900837362834 
0 
1.908195356216306 
-3.417212050898173 
-0.8748026938019838 
0.09147313696267449 
-0.7554845506515484 
0 
-0.4602666534406583 
-1.018131392801870 
0.6067399791756989 
0.4335686737595331 
0 
-2.530703375271931 
7.349864583038375 
-1.628584264438587 
1.266820314265823 
-1.037978818346003 
-0.8744942208252511 
-2.043958681532875 
-0.8951637938532930 
0.007109866699249678 
-0.04314781569021620 
0 
0.5525295242261990 
1.930405111322131 
-0.3459174868294113 
0 
0 
0 
-0.5251207300971474 
7.112669069474251 
0.2724429425682922 
-2.275939695033374 
-6.957514033353520 
-2.493517632968888 
0.9374460631217211 
2.411256439408025 
-0.03282295906117244 
0 
2.014081108372798 
3.029482471527430 
-4.202299292569830 
0.1017194405300620 
0 
3.818199606852446 
0.9053138415826381 
2.465411060839800 
0 
-3.657002897487058 
0.4042346143107388 
-4.108830582179482 
-3.073055232707607 
-0.5272491916197056 
0.8492797152027293 
1.204526296592279 
-0.3521432450980749 
1.542943155927576 
0 
0 
-0.4321248544848557 
1.013567613227370 
0.2118910651856317 
0 
0 
0.4933530632965744 
-2.460999842483746 
1.782731813900449 
7.985668559449437 
-0.03566224322756037 
0.6467713273411482 
-0.03685448927956725 
-0.5172430008154011 
-0.003181117129434608 
-0.2361414161104717 
0.8304964802166293 
3.115033235122662 
1.449663959290833 
0 
-0.7844869345327422 
3.212801891644951 
7.879433073722616 
0.6477869948428630 
-1.235444127769720 
-3.688239636717296 
0 
0.1785220878097411 
3.453043854121747 
-0.1446251731689352 
1.548688923816691 
-0.8334032707588961 
0.6633347590486189 
0.2136744878977691 
-0.2925415005770157 
1.249264126847375 
0.1060447569904628 
8.608047652529219 
-0.7714669070569866 
0 
0 
0 
0 
1.812980124496621 
0 
6.329671389797944 
0.5231213589165440 
-0.02778905471064364 
0 
1.571061509548055 
1.698801772077096 
-0.7878595720294377 
-1.751978073352254 
0 
0.1654412736633555 
0 
-0.9140827637097817 
-0.3483983401246085 
0.9757104076998601 
0.6937912946113284 
1.843053350092245 
0.9671878998552862 
-1.475103509275975 
0 
0 
1.862179849680190 
0.3275344921435063 
-3.997045694722801 
2.146398089185940 
0 
-1.105268881301561 
-1.668488207909538 
0.1053289778478560 
1.073527330269574 
0.5799406616607441 
3.591538521685873 
1.573185064792805 
2.367130219426916 
0 
2.863036931289799 
0 
-1.268387327177442 
1.167258440523827 
1.570362776150304 
-0.02433391861539298 
-1.097661492832566 
-1.274315534793970 
8.956964581109798 
-0.2846085965551372 
-0.9401412309147918 
1.707636414950533 
-1.414048118904036 
1.591619244796051 
0.8754205369408812 
1.022437281308900 
-0.4485768125391220 
-1.263050846745476 
3.134559508362276 
0 
0.7061842515516495 
10.48267251488549 
-1.448059807853890 
-2.206411705352878 
0.5817692096941165 
0.2166724293491107 
0 
-0.1694075671120026 
0.6617962096268948 
0 
-3.455093867726623 
2.563768038792249 
-0.7125072823282209 
-0.3866615408175742 
1.683135007673807 
0.5219839516484763 
-1.172698683497600 
-1.730499140097571 
-0.4174317396648513 
-0.9371330911328846 
0.1214455558622145 
-0.6574972240450484 
0.09348467435254315 
3.646379545827089 
0.2987943631254409 
-2.617677118322192 
3.205082553062232 
-0.6351345770766734 
-0.02217069072994272 
0.2693690177095044 
0.8184216636541571 
2.128469871620300 
1.648725451734046 
2.203911825478630 
0.6419465967567559 
-1.064662718314387 
-0.4318971673474646 
0 
-0.1913449384144581 
0.7281840468442026 
0 
0.6843567502914233 
-0.2890064799350938 
0.08341720840003986 
0.2771639512142528 
0.5114859234692729 
0 
-0.7572848388824029 
-0.1912231958818925 
-1.089104272984256 
-0.6479591147738195 
0.9863586117347161 
-2.195127836698520 
7.996367453676823 
0 
0 
3.442635727628574 
0 
-2.263943033050953 
-0.8319648937876849 
3.078086968719247 
0.004906248845189803 
0 
2.135752563078867 
0 
0 
-2.626756081001246 
0.7105378536205170 
-0.2041256560103895 
-1.932135636657968 
-0.09622047561439333 
-0.5698242088984480 
-1.053601571603003 
2.053165322734463 
7.783336891839623 
3.747763911708146 
1.767862201858029 
0 
0.4607547402113724 
0.4648566334198122 
-0.1380965450554622 
1.749841592272271 
0.2457489688841802 
-1.689056343847493 
-0.01286426189085488 
-0.7698505010176642 
0 
0.6647338627272247 
0 
3.240131224821329 
-0.02788635164399339 
1.335305516670518 
-1.484888229872602 
-0.04242847700508820 
-0.9339514957563733 
1.210716047488018 
3.952552348302747 
0 
0.1633526205525707 
1.439703357139069 
0.7318377385614083 
0.9986256713210789 
-0.04467318679596784 
0.4130085436078342 
-0.4992362235553857 
0 
0 
7.615066935365260 
-1.738479277468129 
1.414853292498402 
-0.5394696349067214 
-3.082847451345746 
-1.349615511674497 
0 
-2.965179640253343 
0 
-0.8927508830689225 
-5.506026589831347 
0.3967099424607049 
-0.02915983520336585 
0.7049931858928675 
-1.879315453083377 
0 
-0.4724789154500341 
0 
0.5572907859648502 
0 
-1.501866435302094 
1.628366379732325 
-0.2804381083336734 
-0.2873262810659679 
0 
0 
0 
0.7762931574493561 
0 
1.307454883444079 
-0.8194198759388088 
0 
5.333034826383718 
-1.827797797918623 
0 
-0.5801075459038316 
0 
0 
-1.035302182009807 
-0.9070425349614929 
0.6915702336589737 
0 
0 
-1.100460566612048 
0 
-1.180094154723504 
-1.474291766534623 
0 
2.185603608838441 
-0.7659699862692528 
0.1435995970511819 
1.173418433560568 
1.607309774957925 
-0.6032596193066916 
-0.8217964004514808 
2.092430289626443 
0.07158112546006276 
0.5644580147942668 
-0.9657760581582411 
0 
0.9606375157526725 
0 
0 
0 
-2.805997746003533 
-1.128653222402957 
-4.130423425847668 
-0.7764788167889050 
-0.5687393709205628 
0.9314796154586411 
-3.195134231334341 
-0.4052461933045012 
-0.7218350152056106 
0.08752271044111934 
-0.6940752731638922 
9.891544951586283 
-3.041150675810991 
-0.4114840395177450 
-1.593606005768328 
0.9178614933949789 
0 
0.4002517789959872 
-1.970525108043082 
-2.665867011178780 
0 
0.5260204489121785 
-1.447449387220341 
0 
0 
-0.5790791097942800 
8.995820420980364 
-1.261052111164697 
-0.03234035630164757 
1.439088301042893 
1.172958999732419 
-0.3182746256317488 
0.8396191023515718 
-1.821254192993331 
0 
0.07067709825276626 
0.9492153926377304 
-1.041196512690186 
-2.012389035512199 
0 
0 
0 
0 
-2.932412286573139 
-1.667406077149347 
4.456483397429114 
1.732293050591693 
-5.842304469896281 
-1.501239262197303 
0.8656047907159419 
11.15925439204169 
0 
-0.6547585114247054 
0.8578171294113306 
1.007257674369189 
0.6997820376640911 
-7.469235200091308 
9.897883219590991 
-5.180666507588263 
-0.9295990854306151 
0 
-0.2545578384434201 
0 
-2.705734088549614 
0.2886801835950226 
-0.3297137554032396 
0.2484269858923827 
-5.376660019692832 
0.2405369274753804 
-0.2967383532053832 
0 
-0.5054401896573636 
1.196902762948062 
9.070973435180733 
0 
0 
0.7802407429950475 
-0.2533498340971272 
-0.2866544728634980 
-3.386349267024204 
0.7694196648197466 
0.4603340077609868 
1.638947686627032 
-1.061526698906105 
0 
-4.385801610343740 
5.314894559772387 
-0.1485213001183861 
0.3493698150286222 
0 
0.1373092697710689 
0 
0.2242750252000173 
-1.378052547952145 
10.97731475511562 
-1.727281018708885 
0.8190108304502722 
0 
0.2847621669007660 
-0.4316234348521982 
0 
3.064921030962187 
0.2470910018972944 
-0.05910818223009200 
0 
0 
0 
-2.444416916627119 
-0.4990783682111948 
0.9048091850510853 
-2.091764212473949 
0 
5.977072994390806 
0.8499710058770683 
0.1165215155905484 
-1.206955047555061 
0.3066158780502429 
0 
-0.6195813093274851 
1.009885772887919 
2.544087842499477 
0.006728790411172192 
7.141612667207112 
-1.535871990648098 
4.307289668334946 
0.2185016314133004 
-1.273364437098486 
-3.903537752525313 
-2.053535352322169 
-1.134110551277726 
-0.7604620856670925 
0.9726158937817568 
0.6536612251604591 
2.769286929809443 
-0.9893270207945695 
-0.7030440363672195 
-0.8242658744127529 
1.620613121422863 
-0.02424814363031248 
-2.362879477460466 
1.782589390392196 
-1.931134962864997 
4.580816401888818 
1.743344368247488 
0.3770642884166164 
0.7676019389641895 
1.500223532704365 
0 
0.07913646087212092 
0 
-0.9114674537103058 
0.02544622571472206 
0.8921436849575469 
1.711908003358925 
-3.769074900855882 
-4.457932570615798 
-3.339243423791081 
5.011267593284147 
-1.153411910822128 
-0.5163423668852001 
-1.085885713132066 
-3.728942269600493 
-3.269655532629221 
-1.674838005765778 
0 
10.25421580615293 
2.440000001908600 
-1.052607032838715 
-0.7196538304284779 
-0.3023278922001128 
8.480536782265260 
1.303675866470192 
-3.253036355142059 
2.363101774806196 
0 
0 
-0.2911310444949737 
-0.4643119962678108 
0.01626856646152042 
0 
0.1100731554136646 
-0.1883155823073548 
-1.473237679423265 
-2.399822203857939 
-0.9582697941177185 
-0.2714734394637872 
-0.7730553040123813 
-2.028950690295206 
2.121670119906337 
0.2490815390721027 
0.9370461230670150 
0.7568051003390106 
-3.122119793252058 
3.974548280168825 
0.6675105180948728 
0.3861838914312153 
-0.7366228677107266 
0.8170572058389582 
0.3474325313754129 
-2.214847173165115 
0.6717004905745985 
-0.9636163725817395 
-0.4185727719509976 
-0.01528522057363616 
0 
-0.1997294151762993 
0 
0 
1.621771169450001 
-0.4518888344384098 
0 
1.041262787133544 
0 
-1.435255619068072 
-0.5831473412625524 
-1.481274834951020 
0 
0 
0.02220040219886210 
0 
0 
2.357655727986371 
3.607414974191114 
-0.6083423682403456 
2.083387116641907 
-1.863666380887932 
3.639584203988138 
0 
-6.291605790151934 
1.790599254222425 
-0.04148013396318762 
2.157951767938616 
-1.610311681915778 
-0.8253928890249620 
0 
0 
9.543648245952891 
5.673455241513505 
1.565206240404432 
0.7806955280257550 
0 
-0.2530974254995082 
4.331916942867650 
-3.159204535125640 
0.3414847176309847 
0 
-1.355749925242090 
0 
1.199027548876092 
0 
0.3119361311468100 
0 
0.8137409428258409 
0.3493343524279349 
2.909760389398641 
-0.6803144959485223 
0.5652232687988428 
0.3703329516214993 
-0.2897660599098950 
0 
0.2548212507072502 
-1.553094192587870 
-3.227721318546991 
0.1057420422159993 
0.01017481694051734 
-0.1041546079298107 
3.037804941524039 
0 
1.657212462534181 
0 
-0.7549721476784300 
0 
0 
0 
0.06234915382749384 
-0.9838440546469164 
-0.2501578181279156 
7.354806201270060 
-1.601130095498049 
0.4146270737169218 
4.534178804025769 
0 
-0.5083429799722633 
-0.2103680809792295 
1.409208047374478 
-1.136047052564650 
0.2460504187977403 
1.075181271422509 
-0.01536787304077899 
-1.462605647723657 
1.013557299664043 
0.4833233736659940 
-1.077696032045147 
-0.004944193067228871 
0 
-2.093712843504972 
0 
-0.5782636736913596 
-6.024709058540476 
0.4249832199337496 
2.853916404816944 
-0.2688842724304511 
-1.081148620171673 
-13.80922405564168 
-0.1400180745371404 
3.668543250966144 
0 
2.243646122118371 
0 
0.6404811733107173 
0 
-3.189144227444828 
1.811092010655609 
1.270009421451269 
0 
0.7552129823883560 
0.6308986545050149 
0 
0.8174222157647728 
-1.702742475852487 
-4.429057921596900 
-2.052453412848595 
0 
0.7107973957037312 
-0.1303254440228477 
0 
0 
0.1088559696386815 
0 
-2.650278739941033 
-2.190835477117722 
-2.296701691919585 
0 
1.244658636562340 
0.1067108806389156 
0.5529604351733293 
3.454975712224065 
2.707225952975582 
0.6282101506651632 
2.268784965101456 
0.08956658716326293 
-0.2155263714229273 
0.5323715386218205 
-1.481336759538318 
-0.03281216409919024 
-1.957514468277952 
0 
0 
2.360996242611170 
0.4975903982157727 
-0.6565942195288286 
0 
0.3295650160649106 
0 
0.02903152002310114 
-1.472126047402347 
0 
-0.5408860711662039 
-0.5840122018013704 
2.181069060033058 
0.6870956247321536 
0 
0 
0 
-1.148228824917413 
0.4012908176663451 
0.3321238493200575 
-2.260315774715002 
0.004146657620221927 
0.7675902802178789 
-0.03597415763101888 
0.9942881258906208 
-1.471277558378399 
1.227489218429257 
1.600633450393608 
0.6831581127555801 
0.3120797295069991 
0 
-0.1296998520743095 
-0.2642036693781826 
-1.090690950409860 
4.489672862738882 
1.197057985946719 
-0.02939002663073737 
0.4306959408784938 
-2.996879678385903 
-1.012589123690989 
-0.2423580645386625 
1.623507236252190 
-1.112641922256028 
-2.947338639356114 
0 
0.1873283784108469 
2.012593282779581 
2.271617085255908 
-2.454081533994116 
0 
4.243184036793391 
0 
1.313962199945588 
0.8411772961556201 
-4.337250117932408 
2.083171728404364 
0.3158717122847397 
2.779757094855646 
0.1368495175511044 
-3.696580758209294 
3.219136645972666 
1.414994035882218 
6.590217491725045 
0 
0 
0 
0.2741988721572609 
2.471696396085835 
5.557767019358330 
-1.633338975947834 
-6.300085485377559 
-7.103423976321369 
1.109283895541152 
0 
0.05327913202319044 
0 
-2.068183263432014 
0.1638667019310450 
-1.538182384546363 
-0.03929122797667961 
-1.108610524012986 
-6.694712481882213 
-0.01526425333824565 
-1.154193776268336 
1.611038482558233 
-0.1843446200865156 
0 
-0.02879345224955898 
0 
-0.3701461301605583 
2.620761112123768 
-1.241281902103276 
-3.222461409683532 
0 
-0.5683094149965949 
-0.6347515930679260 
-1.244948927852609 
-2.379611522381900 
-1.256302935890413 
9.216108794956073 
0 
0 
-1.139091355337718 
-0.1466625664872687 
0.6019734283618587 
-4.988947345172310 
0.1868462780308334 
0 
-1.739182298086381 
1.330318830043910 
0.3857129872568694 
1.261431696590603 
0 
-2.294026050229985 
0 
1.391357509353689 
0.3455689300422282 
-1.141181015965482 
-2.371860503829756 
-0.2200303677199139 
-2.636453670429390 
1.346578329496305 
2.691783820181443 
2.936383876824256 
0 
2.919168697474047 
-2.392556463264838 
-5.134229774829979 
0.08638120211455891 
2.088976927223106 
-1.365151086609769 
-0.2915682282878277 
1.693155200421095 
7.607768274941426 
7.127603808303689 
-2.749167313788905 
0.9985344404325842 
0.8479707282013279 
0 
-0.01147003567775662 
-1.248251929994634 
0 
0 
2.001592993924698 
0 
1.227442700275190 
-0.2739422587755122 
1.770656492461693 
1.131504353103631 
-0.2687939461555378 
0.7409721061282892 
-2.499410449361532 
1.312208463764793 
-1.659666420090382 
-3.761369070894951 
7.750840851672940 
-3.288636759352066 
-2.160676275630036 
-1.787251732691346 
0 
2.830843602612006 
0 
-2.361659265224220 
1.368272283493738 
-3.069867348131735 
2.570270181675692 
0 
2.974082663336513 
0 
6.862713238645485 
-1.563194834760503 
0.2773515728990204 
-0.3564082657821470 
0 
0.06214686127774849 
-0.4674182802403130 
1.084534729324383 
-0.6050461965178360 
0.8061086694738521 
-0.6809945915360947 
7.085051023949848 
-3.342323398280898 
0 
-1.055972853730828 
7.432085493701239 
2.612908287080389 
0 
0.3668233907105041 
1.569204615831819 
-3.243020167704837 
0 
1.049355115391680 
0 
-0.7796520617408885 
-1.799629223067532 
4.398606737901785 
-0.3449850394598522 
0.6600910034663153 
-0.09471885663438656 
0.4541310557308085 
1.483730606906193 
0.1894167665254466 
0 
-1.465810405929956 
1.019027011056825 
-0.2974600731482391 
-0.5601040893034908 
-0.9954352364876692 
4.657418690564410 
0 
0 
0.6548450745721934 
-0.2729159136593236 
-0.3604696079733021 
-3.459825985865868 
-1.801787214090675 
0 
0.06104946960267832 
0 
1.614893525080749 
0 
-0.1375946296835922 
-0.02056378854902784 
0 
0 
-0.5190705435553760 
-1.472931412261405 
1.166333283687687 
1.151236856332750 
0.08378073617761866 
0 
-0.1572715161869300 
1.802215160091236 
-0.6999973589321165 
0 
-0.05382421711701653 
-0.1204322271091672 
0 
-1.668564500459355 
-0.5421233073264532 
-1.989415432076237 
0.9058265622944746 
-2.259142129195696 
0.2235374303436557 
-0.08991610841479596 
-0.7898002470544898 
-1.673856736522206 
1.204422528768027 
-0.2536275023196740 
5.014743507848450 
-1.642284451534967 
0.005883391751640765 
3.027419404346805 
-1.837711492136183 
-3.140470682234136 
-0.1825803105106895 
6.665039546275508 
9.129029815162596 
-1.839551615645685 
0 
-0.4301564935428635 
7.322595810834327 
-0.1956309336305750 
-1.968192651266750 
4.134220231565633 
2.003242585116407 
9.652896482408990 
1.717995239264831 
0.2075094246810468 
-0.5710016970617947 
-2.687041011392844 
-0.7714087087795756 
0.08312594481621904 
-1.244118159972133 
-0.4630300631055397 
-0.9724781267986937 
-0.6081840692262059 
-0.2748408862196823 
-1.151258527008367 
-0.7668454644887893 
0 
-0.9986527203425702 
0 
-0.5254086813641438 
0 
-0.4535977519495202 
-0.1339482847071977 
0.1525317217175595 
-0.1637161532496521 
-0.3869406984521754 
-0.5078312545406795 
9.834734772611057 
-0.2707901942909619 
10.29443444794081 
-1.785587449414158 
9.645552104259075 
-0.8737408606481851 
4.062763646850152 
-2.321060310475066 
-0.4547217312830533 
-0.06991364753476170 
0 
0.6217783809322862 
1.108648860938238 
0.01858559887639100 
2.137530881918218 
4.714438663812074 
2.086237269392405 
1.575856751471363 
-2.673805892216382 
0.2814513644103850 
-0.8653554624824145 
-0.4678832977180520 
7.682734321703614 
0.5035105082954768 
0.5031823251869094 
0 
-2.602357399629043 
5.184394668382229 
-0.8946362267489598 
-1.560851928530023 
-1.666745690892530 
0 
-1.096358025782175 
3.798591494057281 
-0.6414728297371873 
6.157601227732007 
0.4223830623221429 
-3.407670857787009 
-0.2840214786693084 
-0.3818153553452908 
0.9279616125927022 
-2.623981250929787 
0 
0 
-2.626700780476074 
-0.6490015894525136 
-1.102363088940953 
-5.236082045293523 
-0.05526374683383384 
1.613173597810379 
0.1609586859960580 
0.9463177038885887 
-0.9363723900738736 
1.152588176654291 
0.8145330020412554 
5.918311876844872 
-0.9207182017551907 
0 
0 
0 
-1.441769414706349 
0.9384970008653257 
0 
0.1706653096914838 
2.546772132915901 
1.401987776312411 
0.6776349210881560 
5.219830379032325 
2.708952369428708 
-1.115662677479676 
0 
-0.6841561364354933 
-1.507086405774812 
0.2110531735206700 
0.4546493414295851 
-0.07853391895731601 
-1.510679826209281 
0 
-1.483669031824834 
0 
4.676076787103803 
-1.871855947793264 
0 
0 
-0.4870011251428120 
0.5506466249150676 
1.396909526847954 
0 
0.5994682640760333 
-0.2274823676404329 
0 
0.5020941192539172 
-1.462152773538756 
-0.02532626725897687 
0 
-0.3405856277371518 
-1.464097995105770 
0.4385095345923900 
-0.6497879889285040 
0.006308960711462364 
1.125704429131043 
0 
-4.486021708726202 
-2.033618305502927 
2.143133134665765 
1.031205403154260 
-0.9743926965401081 
0 
0.005441586222089290 
0.5069644941031336 
0 
-1.873499451346922 
0 
-0.7617247338185184 
-1.472100664093748 
-2.254744366595042 
-0.2576224888673189 
-0.2125325987940941 
-0.3820457889296628 
3.884754661927898 
4.562726256228847 
-1.296640639058709 
0.2649485521571260 
-2.554502625557726 
-13.71438715361562 
0.05510055547344284 
-0.2189752188719855 
-3.575657703607595 
0 
0 
8.024141463387094 
7.685757588203460 
11.93377728851914 
-0.7441796661360163 
0.9089086987535443 
0 
1.286109290738203 
0 
0.4003060576331622 
0.6398243580384799 
-0.9987926245783044 
1.486658202281823 
6.823137115494474 
3.823111874925679 
0.6027858062518651 
-0.2441524212456757 
-1.501709649726813 
1.708835678619070 
2.349933055681857 
-1.069090358550435 
4.343817061972652 
0.3002427247412984 
0.5819311939531207 
0.001291896906533419 
-0.1711782986246567 
8.667475527881030 
0.7075822952686919 
3.075761138840503 
0 
0 
8.301668761220300 
0.9415139138420701 
0 
1.551576634469445 
-0.9655584803378008 
-0.2127525165118125 
0.8085666768315289 
-0.2319253356384534 
2.931893490193838 
1.238773421778569 
0 
0.4484936354628032 
0 
3.219237790364080 
0 
-0.9017107477918045 
0 
-1.644442509611947 
-0.3205358962739593 
-2.000710019493317 
1.121036688796306 
0 
-1.588435940110782 
0.5318678461841491 
0 
-0.2325915520829589 
-1.956640128181345 
1.309663717678924 
-0.3774172823322703 
0.2368060507573040 
3.549610410095176 
-0.4380116937909170 
2.805512774176670 
7.760184342250476 
-3.117612725474177 
1.021391714335617 
-0.05917630482391995 
1.359840070872389 
-1.105946274919670 
-2.056343437178980 
-1.616117955404139 
0.06009297361424725 
0 
2.894650868891926 
-1.243751881738489 
0.1587056265146596 
1.237524761095084 
-1.669578320568157 
0 
0.7255794284395447 
-8.230257653544884 
-3.377837114948216 
0.1103759237678557 
0.07714628105494459 
2.801615635495447 
1.133499724802967 
0.3505981276722217 
-0.3553911958864022 
-0.9426061150612882 
0.5600357167518613 
0.7257405769007725 
0 
0 
-0.3698122206422700 
-1.596120783977806 
2.128351973432646 
1.513404166268895 
4.461597913319179 
1.214856272256538 
-2.287832805274560 
-0.7801425806245700 
0.09753124206048502 
-0.6104504082596707 
0.01356530924956700 
9.095622601923704 
-0.3365047273223639 
0.5413328496568190 
3.374472822762204 
-0.3121889388727093 
0.02492061163119656 
-7.697510847453114 
-1.494845890968334 
-2.559919113145028 
0.4609843942706680 
-1.143143159005570 
0 
-2.007412578207022 
0.3776923032916248 
-2.187455492246584 
0.4641763386894049 
-0.3616288346683405 
0.2207794693404974 
0.6346117263752602 
0 
-1.682366808035261 
3.489574706521278 
1.303979715463794 
0 
-1.590965905131461 
1.414514596431340 
5.558001745976744 
2.147676369391044 
-0.8469300061290507 
0 
-1.212389798971126 
0 
0.7782853323508174 
1.427038040983755 
-2.629800535398606 
0 
0 
1.458194142416459 
1.048103757740710 
0 
3.340210494011099 
-1.476271216129085 
-0.1365067258843648 
-0.3688903391241585 
-0.01277956886130391 
-0.1699626958952284 
2.173549121187343 
-1.053978264494496 
-1.042050966017353 
1.047081174514325 
-0.1982362960965037 
-1.659190749145987 
0 
0 
2.892641783707493 
3.720843727747501 
0 
5.575098207869985 
1.040710793669545 
5.523169555294041 
-0.3982618019315471 
0 
2.059994784491447 
-0.9552181418881261 
-2.532248484487264 
1.350390723619170 
3.205852606921914 
-0.1080686621136364 
1.510630564332918 
-0.02580196215874650 
0.03370556930223279 
4.943667224934998 
-1.659557182604086 
0.2551228432416153 
-1.050370545296288 
0.03088991997866319 
-6.798641538747340 
3.485920152169999 
0 
4.727351171006151 
-2.551453848826758 
-1.182730527004220 
-1.511906157671555 
0.1460028009302189 
0 
0.9712810824473219 
-0.9323641107745990 
0.1314271766547173 
1.307779579276660 
-2.086615048336994 
1.611234920987032 
-3.278025518895969 
3.599866803386156 
-0.8147757733290988 
1.459128778582507 
10.04564140690949 
4.013732461130939 
1.057886411247963 
-2.141548677617719 
-4.273799187815765 
0 
2.594570001332734 
-3.534289098296240 
0 
-2.791589355111364 
0 
-3.700666070183391 
0.7101249201943138 
-1.880855382409564 
2.942269468501195 
-0.1601420438386167 
0.4024714483991662 
1.116209207814893 
0 
5.249640660025668 
-0.2895617229833986 
2.551960290220477 
3.027751114284285 
0 
0.5161000625347265 
5.960386968676103 
0.3457728995090995 
0 
-4.569374700658331 
1.258594751236078 
-3.754012172524575 
0.05514673182118624 
0.8319001173776871 
1.275272559676105 
-0.3294191508514406 
1.882183294742375 
1.017825892877972 
0 
0.7085913804890439 
1.663510453456990 
0.1704155653254674 
0 
-0.4791917719238329 
0.7461489275280273 
-0.1376908471233118 
0.1939104998936579 
-0.6262526754210709 
5.448809104651163 
-0.1072914259784853 
-0.09143638073837082 
0.3762561299773736 
-1.092024967492993 
-0.7304243326470939 
1.657865811895851 
0.8948714443995580 
-0.6505547089558513 
3.820326563341950 
2.072579311125368 
1.869780670979895 
7.183591116123035 
0 
-0.4043715995395123 
-1.435301119147816 
4.417370875091732 
-0.3969131921340185 
2.245274343822115 
1.849583680708804 
3.229375701124922 
1.145830876103686 
-1.368720749713733 
-0.08699192974596676 
0 
-0.6410427769727445 
-0.1538526895110975 
7.958711635101810 
-0.3452198846969083 
9.677262772727408 
-1.443168774163977 
-1.531476458855056 
-0.4056663042747836 
-0.5049781616531430 
-1.333396963895188 
-0.8256722769503437 
-2.022403320842497 
-2.215715110304661 
1.955128678855280 
-0.8968429917524487 
1.980857031882231 
4.712411958453330 
1.450062235576231 
0.9550614019858037 
-1.075877538320989 
2.348232427411912 
10.44629248558533 
0 
0.02867274130420672 
0.4821819096438031 
1.104556210822444 
0.1358173266920959 
-0.5254881808398230 
0 
1.934754714482655 
1.282627281954430 
1.641974336051770 
3.403820489796978 
0.7647383406758483 
1.126297559333544 
2.452658204321469 
1.937508260795517 
0 
1.359528269028518 
-1.617745663606727 
-2.009720271350805 
-2.727001736892810 
2.069027383008665 
-0.3542214124561141 
5.569599536388495 
2.055424663003393 
0.9229438435631030 
-5.166853649835752 
-0.7135996998124701 
0.5123952751636055 
-0.2317314233857892 
0.03240113447282261 
-1.455874059574060 
-0.6500156088985121 
-1.123983467466618 
1.330863505561784 
0 
-1.855127076873655 
4.401114464263335 
-2.595013619611647 
0.3169735127552101 
2.809225099564142 
0.1875609984041549 
2.059347077860178 
1.818110823114043 
5.940799841198506 
-2.576439357725959 
0 
0.7232265900746659 
-0.04994319678455916 
-1.135932353642883 
-1.054920476529769 
-2.008701216854695 
-0.1592910929807113 
0 
0.09513760298537610 
0.2681560337356044 
1.648655530450681 
-4.060789507805112 
0.05107841190673740 
0 
0 
0 
0.2440710835127677 
-0.1687379719269548 
0 
0 
0 
0 
0 
-1.876339473192021 
-2.163442124033983 
-1.130767651421355 
-0.1831604505695911 
-0.9235681844464360 
-0.5231713903318261 
0.7249474340040339 
-0.3227152970385003 
-1.388886159182116 
-1.476563555007274 
0 
-0.7574566000436310 
-0.7646839692749337 
-3.326385108607710 
0.2163300353801931 
5.590120469685353 
-1.853202227849736 
-0.7748441033623532 
-0.6456373518697326 
3.615517253779596 
0 
0 
-0.8654288033103636 
-0.9960567174111690 
-0.1052161611326935 
1.058580712830146 
0.4093225624589663 
0.7121729600604141 
0.3268370814368118 
4.977706593754492 
0 
0.5236201901491704 
3.540270007562930 
-0.4836048244159976 
0.2874312490068199 
2.391554170547582 
0.5194759174808838 
0.1626287116417404 
0.05560197402518730 
0 
0 
0.4968499027409746 
-0.8812385169636003 
3.154335176976930 
0.6787396799606881 
-3.630817541880556 
0 
-0.1897910046634342 
-0.4467261789926673 
-2.936517779316507 
1.131559889023455 
-0.8396235194463852 
1.293823498827422 
1.537809698427392 
1.168034083446998 
-0.2314956120949245 
0 
1.125184960657691 
0 
-0.1671438801492820 
1.840984121594586 
0.1586268032243294 
-0.005354303628441581 
0.6757866072024519 
0 
-3.550569018880813 
-1.462445827065812 
-0.6430415256975748 
-0.9920109517719264 
0.8550310938040762 
-0.7496930704445495 
-0.1074322957985068 
-1.845090523223094 
0 
0.3138129296665634 
-0.1965345086318931 
3.107843837354518 
0.9863923192829686 
0.09361398769430415 
0.1687627425535763 
1.142176168789953 
3.067489786993370 
2.741254106991071 
0 
0.3636873767180973 
7.825881529910589 
-2.140235801711443 
0 
0 
-0.9216316027157376 
0.03708079949458899 
1.008893138017907 
0 
-0.7540717940174323 
6.826598115255734 
8.849173660709809 
0 
3.187527204304124 
0 
0 
-2.105853291941775 
3.232107748036055 
0 
1.820405539903869 
0 
1.929413007575479 
-0.8787970091831803 
-1.169100951589780 
-1.857633887602913 
0 
0 
0 
0.6914457675701360 
3.070627898621916 
-0.5447591469701584 
0 
-1.173945273182617 
0 
-0.5662449741020322 
-0.5390452422880514 
3.763753889444878 
-4.558639851637454 
-1.281852745981438 
3.294085170579288 
0.4322777380174946 
6.667076461532036 
-0.4185250442552949 
3.555630764528332 
-0.9828679244671443 
2.569987024237576 
-0.1085238538073193 
-0.7971191710693113 
0.8874612605619677 
1.801153671033732 
11.82699393133673 
0 
0 
2.054648362423231 
0 
1.486619174033820 
0 
1.487545215869097 
-4.406869745863091 
3.930760820035141 
-0.1366220271845087 
2.017043758601652 
-1.608690619568044 
-2.524149115957392 
1.787194117877556 
0.8263649358297646 
0 
0 
0.2814036512811869 
-0.4780297322082775 
0.4192777351795199 
0 
0 
0.7524113422301628 
-0.7074772980830186 
-0.6228166273246823 
2.322876298542636 
0.1573020180523496 
-2.826883630169174 
0 
0.4280548915387236 
0.2011100714731142 
0 
2.029984294145581 
0 
-1.926550314810510 
9.452527774320275 
-1.832033610680383 
0.4005800757776258 
0.6016649778905403 
0 
2.716795323973544 
0.6370698084434125 
1.319926584517718 
-1.786016625182514 
3.509947547917785 
-2.856263935908509 
9.763707695140218 
-1.746172084783118 
7.128749760379957 
0.07516441350791073 
4.596570720174230 
-3.856563684918893 
-0.7656680229509204 
2.422980156718439 
-1.835875724752922 
0.5458148441012031 
-0.1089617103070684 
-0.2942646422781158 
0 
3.498077395153521 
-0.6838135973801707 
0.1300864563087689 
-4.281482255055342 
-0.5520885845151706 
5.826697884692583 
0.9521319893056956 
1.386921020141226 
-0.9903887815766510 
-0.09121456215491197 
0 
0 
2.338520803314744 
-2.198392475248356 
0 
0.5481182614955395 
0 
-0.7404159363205245 
-0.7200537099167931 
0 
0.2213645386323558 
0.8281858943303754 
-1.821696473245170 
2.545485922389748 
0.1727153911914552 
-3.169864077733581 
1.315369740052162 
-2.739738554690502 
-3.844418156573140 
-0.8264722177776115 
-4.052112693526479 
0 
-0.8183816020344136 
-1.794835857231013 
1.281536256184260 
0.5601062475954429 
0.6250705701528455 
1.842929385002703 
-1.988682109454449 
1.514280945895378 
2.004495128970082 
-0.6178092047329096 
1.011407837760936 
-1.920208958920294 
0.5019657419337448 
3.307865505742116 
0.8466177367941828 
0.4288508149882420 
0 
-0.7180796183547522 
0 
-0.3101097841535379 
0 
0.08834168909424350 
-0.4349672431383682 
0 
-0.8740472079803396 
0 
1.083689682418177 
-0.01773908085628323 
0.1100518025514875 
0.2245394903840388 
0.2296007030308294 
0.7290342486224097 
-1.742843307661904 
0 
0.5176741055660006 
-0.2819517022092183 
1.858060205412889 
0 
0.3554618785303262 
-0.5574980527320651 
-0.06307985085187182 
-1.571858257940296 
0.01139145614907389 
-0.6668098335130642 
-0.3732703094122406 
-0.9394558389389114 
0 
0 
1.506054835410767 
0 
-3.208942312213907 
0.4810598344189507 
-0.4934491807440500 
0.2759118837497129 
0.5972876165976584 
0 
-1.511980433146108 
-0.1915769403040231 
0 
0.8380485402538643 
1.079058619103942 
1.196915475232813 
0.6248590813999911 
0 
-0.5205974706011933 
1.395999910160484 
3.099337995875052 
1.803296545616022 
0.6834550849506404 
-1.614376246824095 
0 
-0.05459655057230339 
-1.908236254872744 
0.4445723713668263 
11.69079660345154 
1.286854419585391 
1.320902301606261 
-2.952490590275641 
5.559061733460792 
0 
-7.851582274910804 
0 
2.038002032096953 
-0.4390516146077144 
0.7600200967060009 
1.276114028529722 
-1.421220218856086 
3.887057294665863 
0 
0 
0 
0 
0 
8.061875203670764 
0 
-2.866312677780628 
-1.836450361447741 
0 
2.159957842089979 
-0.4077673632303404 
5.830046520039761 
-1.330847093542076 
-0.6448915729423634 
-1.664060874769661 
-0.7166490208430267 
0.3202481590154334 
-0.5200819191809373 
-1.082578072515622 
-1.667502487308196 
-5.827052884135677 
8.672691438806963 
0 
-0.9540416496269137 
0.3435979541452678 
4.922868388207961 
0.3979043232754909 
0 
-1.367917263246782 
0 
0.7505727866332409 
-0.1087443077633513 
2.515534023651417 
-1.086988660215978 
0 
0 
0.5302263808404125 
-0.4997594364169656 
0 
0 
0 
-3.234350865884916 
-4.488210390495944 
-1.229111264671582 
0.4283133785852754 
-0.07948186535763524 
0.2389187494268793 
3.012039952180852 
0 
0 
-2.009212059894765 
-2.647619458931110 
-4.032914808837391 
0 
0 
0.5243104215584978 
0 
-1.236640955538713 
-2.604070188876686 
0.4507376683712652 
0.3799585281401506 
-0.6789667858899880 
0.8168740387746173 
-0.3995356903459157 
0.1758198333076662 
-1.459357139087358 
0 
0 
0.4356854205332484 
-0.2037220841614400 
0 
1.739169491524002 
-0.9858617824886872 
0 
1.225179458201334 
-2.810150981951592 
2.300324398947163 
-5.686312865211114 
-1.957470358823773 
0.1959011986392093 
0 
1.285447909619109 
-0.9751735976488081 
0.5173124313316592 
2.870128559974643 
0 
0.03018342923536929 
-1.832331593849911 
-0.1105777270153496 
0.1677342433511782 
-0.6359952419761239 
-5.827535169897379 
0 
0.2325468312384644 
-0.4339707920002652 
0.2936589485437232 
0.06209513601372711 
5.461486983865035 
0.04185628772179107 
1.821814344858472 
0 
1.148903501632582 
-0.8404608480189340 
-2.165550330036993 
1.006359264408938 
1.845829167452152 
0.5556809289922154 
0.2206646311234577 
-1.162072708010693 
10.21048273987158 
0.6019419642412198 
0 
-1.168034541674992 
4.980396528138160 
4.440045349160108 
5.366118904906260 
-0.4604127962503658 
2.937265314064961 
1.335840939653607 
-3.539593960681369 
-1.260004582749074 
-0.1443900382671756 
-0.3567379648718724 
-2.861341652793235 
0.9535607021791375 
-0.2814969517055291 
-1.447411449344077 
0.6362742531264618 
-3.648171613984488 
-0.7094908702153867 
0 
11.44043715425470 
0.09617806797653755 
-2.467836393568108 
0.2231340692294656 
0.007452533819558710 
0.1751693842291776 
0.3604838420494385 
0.2305533740896048 
-0.07246553545702905 
2.167727829301058 
1.568060869220408 
2.284439635954356 
-1.110439959965633 
-1.352191219886759 
8.981728027857244 
-4.662772896383840 
1.271420103962347 
-0.9146214456782835 
0 
1.610328871043897 
0 
-2.355942963951606 
-1.419607977857164 
0 
0.1546282076292989 
1.466257711479330 
0.2471648329992677 
1.274458140517627 
0.5350612970440355 
0.1411085623416614 
1.133013848500702 
1.997305046470272 
0.04380646021480883 
3.086716815310624 
0 
-0.9905470093642632 
1.218750344535202 
0 
-0.4221725494275485 
1.292601044476517 
-0.2455968107468468 
1.175282639106627 
2.584867105596597 
0.3371563945313170 
-0.4167018679626877 
2.143621682170466 
-0.7618609469020510 
6.239381666999123 
0 
-2.831836035772865 
0.1933999159681282 
-1.118968680378503 
2.200869886226461 
1.253909015907681 
-0.7598263328880969 
1.602612775146230 
-0.9314387633344982 
-0.8587466147940880 
0.5935584563023505 
-3.639507883655938 
0.2407976889124941 
-0.2172999250376786 
4.647010858439622 
-1.365280217409222 
0.8614127175367261 
0 
-0.9157776501776662 
1.807878956283062 
-1.230584500965358 
-0.04200698009728192 
0 
0.01975532574542593 
-0.08681635463389092 
-0.3123248756977219 
2.310343568202592 
1.304991188837479 
-1.208124285345065 
0 
-4.989351402607741 
0.2741035289730195 
-2.713825369501882 
0 
2.759312070257889 
1.387940253621585 
1.024513740172560 
-1.504203383314211 
-0.3145163508521734 
0.8762183561999689 
-0.8866988561181826 
0 
0.9413799230958867 
0.4050464850331553 
0.1058227769797653 
2.712267954832644 
-0.5269615900661743 
-1.054907421449543 
0 
-2.292270490929261 
-0.3797874663141572 
-1.561614243827944 
-0.6538840691281957 
0.8945759472428111 
0 
-0.5484112847779476 
-0.7300579770241440 
1.071967933996944 
0 
-0.8176880975895006 
-0.5910778533226744 
1.064294088904749 
7.771785345652010 
-0.5632683151232123 
1.435388265481194 
-0.3283926593212976 
0 
-0.7422630946673123 
0 
-0.4832555056635730 
-1.534310487598186 
0 
-0.4894283772844939 
-0.6729840236245244 
1.304517456049941 
5.166141285048449 
-3.368389600442305 
0 
-1.859431729996720 
3.550837435514374 
-0.8813573610124926 
-2.901417906786847 
-0.4698608579617641 
-0.6454493181672091 
-2.150928494154529 
0 
-0.5121688182413930 
-3.556481922557975 
-2.382347838661246 
-1.162872483547655 
-1.695140396411898 
-0.1854490929542736 
-2.160396927652230 
0.08662143575956732 
1.437410300421718 
0 
-3.901820889673529 
4.999600591269795 
1.021213766094736 
1.350685359169900 
-3.067685322715751 
0 
-2.757731049870391 
-1.968455175376258 
-0.7185328349981220 
1.076723893713978 
0.9560969221799566 
14.58639568211598 
-4.860888506503017 
-1.844053668348494 
2.624654350810231 
-0.04678204995937388 
0.02881771989320515 
1.666427170709252 
-0.6099449513548553 
0.8640468315884915 
0.5465999260943223 
0.6199223095474786 
0.8881849180440425 
-0.09451268679379260 
0 
-2.220501257492743 
-0.2117907339950995 
-1.096455548767464 
2.311765508146513 
1.815879896929272 
-0.6130853044500296 
0.2006662552746253 
-3.204436378922971 
0.1926691970507670 
0.7852599296162182 
0.1490966639139885 
0.6461449383804083 
0 
0 
2.502287502007909 
-1.533574793385530 
0 
-1.310678105457930 
-5.922822723620203 
-2.711290313808084 
-4.704664800785780 
0.4732214705389106 
0.01391595248644639 
-0.5333480617881046 
-0.2075653690901829 
1.685745250422776 
0 
0 
-3.715557644739033 
0 
-1.877680661072448 
0.1721604553809606 
0 
2.748682150489777 
2.489477265266789 
0 
-0.6337364192193787 
0 
-0.5299650265609914 
-3.136844354706382 
-0.1746416176636145 
-2.062615621562504 
0.9093148540637830 
0.5688286220942239 
0 
1.372320231627598 
0.9458125761071620 
-0.8812883961249249 
0.8163396540828862 
0 
0.09831897404315068 
0.4161097343824974 
0.2909118259839063 
-0.8791012570944395 
0.3944238208900263 
-1.433427498240173 
0 
-1.056950051989203 
0 
-1.991631766189326 
2.045572996513618 
6.672602316981159 
0 
-0.8299821582008319 
0 
-2.470269827569713 
9.863502269462586 
1.533138564942006 
0 
0.6388083954490014 
5.152591843721655 
0 
0 
-1.036298522744253 
0.5762001409933839 
-0.6402035277175951 
0.4722586431038422 
0.9045916377745560 
-3.902093102507781 
-0.1050834103864164 
3.553387850621022 
0.2329784913348615 
0.2959867465001853 
5.163545148851608 
0 
-3.895282768130276 
1.361659330708606 
-2.574545459767346 
-0.4799751115630295 
-1.409322235998055 
-1.367902724580164 
0 
0.4994816814421508 
0 
0 
-0.06138447615109433 
-0.1035912247636497 
0 
0.5964690036053708 
-0.2472318465801525 
0.5852815035909908 
-0.7295598562442498 
1.019353393187308 
0 
2.955608204366045 
5.130779669907862 
0 
-0.02175715945185094 
-2.874223619733770 
0.03650470244140699 
0 
3.600232587349392 
1.408219875040010 
-1.342719324272558 
0.2929820039609642 
0 
-2.332942311565845 
-0.07130146902487710 
0 
-0.1229028312049680 
1.812963837004907 
0 
0 
2.467625140283173 
0 
0 
-2.963252347068020 
0 
-0.1496073203090671 
0.8792319686377624 
0.2596307571203492 
1.330867465784934 
-1.346117228303687 
-0.07620248362201507 
-3.720491060424257 
-1.577334113711854 
-0.4030969900991404 
1.054968451003387 
0 
0.8503052173996220 
0.4320123920243233 
0.002972883468990772 
0 
-0.3365966774488909 
-1.140261100786566 
-1.369256908351280 
-0.5499815947222149 
-1.669766024011800 
0.3041590073605394 
3.449246848142349 
1.263969399383468 
0 
-2.442378855991354 
-0.7143833782342870 
0.8486574153539590 
-1.426893315717251 
-0.2913862162824904 
-1.106968691778931 
0 
1.533868947547188 
-0.3481155209842253 
-0.06933380742279982 
-0.9847836182800516 
-2.895668413807525 
0.6164378585145793 
-1.293176932972428 
-0.7158090365966690 
0 
0.7526347353777059 
-1.558514378396050 
-1.977277306728003 
8.796515239797497 
-1.324523177701211 
1.072249075989162 
3.251109585713597 
-1.983309941458148 
0.3775595016314466 
1.668655480491812 
1.045321222887498 
2.549794920210987 
-0.5316344266736315 
-1.441250193733316 
-3.187129187533577 
-1.024861847996687 
-0.9636260394935592 
-1.890295449916418 
0 
1.165156131350101 
-3.777425123275746 
3.556661861559022 
-1.382471441392765 
-0.2968525401033223 
-5.624667869307788 
0 
-0.7250456218503505 
-4.420935103894637 
0.9694984146333767 
-0.04104619110983006 
0.2542661921544097 
0.5912979280388988 
0 
0 
1.796414998466120 
-0.04412191846282132 
-1.764154089386272 
0 
0.03743579535813479 
1.778712509082694 
8.686451704936301 
0 
0 
-0.2470988042233619 
5.090658812126724 
0 
0 
-0.1126145763037937 
-1.852154560501176 
0.6229141580939723 
0 
1.834694906460465 
0.5054520284806869 
0 
1.334952054425489 
0.5759591430488208 
-0.1510376257090393 
1.006367797556844 
0 
-0.7880079745237989 
1.129805404940900 
0.5714097310601750 
-0.05618297711174751 
0 
-0.03749231614485393 
0 
-1.133189862963943 
-2.244422026659984 
-1.024003440705365 
7.217181757864343 
-0.8846677465788747 
3.383004815837021 
1.042575399354327 
0 
9.282087502556635 
0 
3.677680576856830 
-0.7914709910244809 
-4.324219714594493 
4.451503028308617 
0.3081142454381624 
0 
-1.243440541238555 
3.162474530272078 
0.6773926420903589 
-1.031508084887878 
0 
-1.672347842879774 
0.3566506802615749 
-2.213414860169255 
2.147545646248763 
0.7006694969189018 
0.5568443701022642 
0 
-1.063729803608807 
0 
2.321060509197970 
0.9167699503460492 
1.893633328375317 
-3.990859816999939 
-0.7029044741418604 
0.5402451118888147 
-1.471604829144930 
-2.781923945192594 
-6.887122135015135 
1.945178348638629 
3.113597026787097 
0.1727327373832884 
-3.755924619283782 
0.2149990367306681 
-1.358428342277133 
0.4457494688462345 
-0.5668920476059247 
-1.744801305157320 
2.295720852572473 
0.1681199874780551 
0 
-0.1329814406546860 
2.229075240474677 
-0.9029144860005761 
0 
1.067105589604861 
0.8108736407448910 
0.7272731182055893 
0 
-0.4886655356393861 
-3.626866314419539 
0 
-0.8603182329110965 
0 
-0.4116836911914134 
0 
-2.175143862237272 
-0.3376344625584686 
10.69161460041613 
1.196860487595499 
0 
1.912057880112799 
0.1429136496952350 
-0.3568080441465344 
0 
0 
0.2059527923220098 
-0.1820828920605294 
-1.316670227351548 
0.4355796391055640 
0 
0.3049474903135930 
-4.707160498551465 
0 
-2.851459041550975 
0.3669277353809083 
-0.8433213140980806 
-1.777768881661051 
8.898700200913000 
0 
0 
1.629880667714913 
-1.947045634881132 
-0.4187750299081711 
-0.2656695702367518 
0 
-0.6098675560778821 
-1.939737408438479 
-1.630335731077827 
1.073995690229723 
0.5955334081582216 
0 
1.525955904169770 
2.218574750398616 
0 
2.254550962797013 
-0.3384559037876990 
-0.1455733583692772 
-0.1292242049207275 
-0.9449263875646670 
0.5741806171758230 
0 
1.303461736473463 
0.2774506063988202 
0 
-2.526712379531973 
-5.151341231600130 
1.953759593877505 
0.02872292515395158 
-0.08100458880424155 
5.430433934169834 
0.9926599409663803 
0.2331671703261481 
0.9454683988325097 
0 
-1.916775968118051 
-1.082495941971942 
0 
0.4650471812520216 
0.02991266305062279 
-6.306440110280301 
1.635508746197182 
1.430642356987770 
0.2347792356130929 
0.2394149180785893 
0 
0 
2.442450081911284 
0.4131119796299914 
1.269864998781253 
-0.3382316114694164 
0.05205192514782800 
-1.107537294333719 
-0.2258967335792536 
-1.376200261926936 
2.775825774202298 
-0.7931321519548200 
-2.425939028347251 
1.203512485905216 
-1.928200836870247 
-2.499999134010303 
1.944346371215026 
1.360278726580115 
-0.9135571231820476 
1.529411680126784 
0 
-1.703933522536897 
-1.780796955383513 
0 
0.2107742110565139 
0 
1.961416630073701 
2.749632274607649 
0 
-0.9202337412601578 
0 
-0.2667010098998098 
0 
-1.664536587713900 
-0.5189222059080953 
-0.6942123018196769 
0.4366108602701876 
0.002058615898070271 
3.197949573947983 
-0.9408004262165819 
-1.158629404476574 
-1.618062170953968 
-2.224718668254497 
-1.859538639269094 
3.382472881455195 
1.022036701405523 
1.069364432854968 
-0.4536047336827159 
-4.344990373388330 
3.697886621919916 
8.931205537839842 
0 
0 
-3.047657571225729 
-0.9729740023933013 
2.680849736348464 
3.032889837696311 
0.7334597995288765 
1.629670087022623 
-0.8896932157323207 
-5.011108293237091 
-1.728282312950852 
2.715340512379020 
1.198946421540104 
-0.8984510770199339 
-0.6761334643348907 
1.516199699394768 
2.429588509269947 
-2.689836292735083 
-4.613787273161467 
-0.4932795455683585 
3.270301738937337 
0.1798388837623183 
-0.4682552820410474 
-0.2301020754342897 
-0.7677923882877257 
-3.174509286813730 
0.5596831384839088 
0 
1.055232905678614 
0.7552155141669716 
1.461969041320283 
3.438500424489051 
-0.01388193869386767 
0 
0.8663333111261958 
-2.139454171321779 
-0.7293234069874910 
0 
0.7641187994254974 
1.133239520113952 
0 
2.651532939463810 
0.6864807679458650 
0.3864671243285310 
0.03436971115393138 
0.3723001800119529 
1.221373288901007 
-0.05792387691033149 
-0.1559738745535519 
0 
1.038061672776661 
0.9410462049604515 
-1.560931364855989 
-2.226167905087430 
0 
0.8086027868312566 
-1.147153474684703 
-1.281101445016379 
2.768458328519222 
0 
-1.318149226631005 
-0.05228675004051907 
1.451937537963114 
-0.5773154695029238 
0.9440216661541556 
0.5891994019705423 
0 
-1.484577988568760 
2.543387073263603 
-0.03195991962876099 
-0.05062713399359581 
0.09977785158453940 
0 
1.280074118899995 
12.17314306382535 
6.394756419384401 
1.208480262406175 
-0.9685652205802195 
-0.2463987173138813 
0 
0.4079363838525368 
0.03670284918993264 
0 
1.340611504225655 
-1.372851697950080 
-1.011334752432769 
0 
4.474294273729978 
0.7045080747537229 
2.006309589654178 
-3.862214953459043 
2.281547634907797 
1.191548254984017 
-1.960108305826452 
-0.5816041772976281 
5.338545117038906 
0.2475970002849967 
0 
-0.6061323881060358 
1.581766223309234 
-0.8479554739282106 
2.863367720730329 
3.429727642187833 
-0.1780587304188432 
0 
0.1984393814835898 
7.293236675873353 
2.086827629486812 
-1.593379848310118 
1.067097128231015 
-0.4437875787143031 
-4.208485977807325 
-0.3318845413306835 
1.632884858535306 
-1.308460657643737 
0.9227804204171841 
0.2059593137809593 
-1.638794418322246 
-1.286691957234135 
0 
0.8440940745962248 
0.1216698465587723 
0 
-0.7940060282943850 
1.016180477336103 
0.3018957603202283 
0.3715799046170696 
3.909072321857419 
0 
1.630528903818503 
1.228395427682119 
0 
0.5819938111033076 
-5.569693154417506 
1.143648791094647 
-0.2808615583422128 
0.7522162594173007 
0 
-0.4387839207156926 
0 
-3.071078867487751 
0 
2.215425136508702 
0.7279668320235773 
1.232873910651541 
-0.2660787520381629 
-1.482836767597367 
0.9755056495120346 
0 
1.241126612007594 
0.1547288552472575 
-0.4081952310825779 
0.07173031672709644 
-1.529232352551067 
-2.779625019701138 
-1.179619272540307 
1.600138711217141 
0.2187336951857917 
0 
-2.024708838758298 
0 
4.434796043478780 
-0.1278327211495040 
-3.925240072473872 
1.318303895998131 
0.2834988282926870 
-0.1225308804413988 
-0.6459870553741971 
1.061919856546623 
-1.386706765320545 
0.7196487722166557 
-0.7807183267484306 
0.6279753531629326 
0.6385570314810985 
0.3599251696352734 
-0.5651070308442778 
0 
0 
0 
0 
6.200439029392184 
-2.223972371530847 
3.264332074112196 
-1.444271406894071 
-0.4395613911952643 
2.728376996804675 
-5.503326101870101 
-1.531696596545134 
1.820425318598084 
0 
11.07009835463166 
0.8826386849244968 
-2.268002139556112 
-1.559531777975386 
-1.266725601130941 
-1.140562608676769 
0.8461604602207347 
-1.689165937518999 
-0.7170215406684654 
0.7596444860336247 
0 
0.1450174488154156 
-0.4017565417275992 
0.4127440274770416 
-0.7907650929463846 
0.09935487033136245 
0.1348323967156026 
-0.6922859605024834 
0.4765596032748864 
2.096406464259579 
0.9572840757356864 
9.678786523012830 
0 
-1.932812499325397 
-2.660238160177199 
-1.853009537734653 
0.5508010428357001 
0 
0.6526982664142164 
4.074323881672461 
-1.798888182063904 
0 
-0.1196299416879711 
-0.05426486547160167 
0.5024830748660334 
4.826990570232924 
1.052951340736253 
-1.138064904526608 
0.04110406398417350 
0 
2.411621998168090 
0 
10.41974267810537 
0.7327976638807645 
-2.262357481644193 
-0.5887409127154570 
-0.4453029881160738 
0.06084224044242217 
0.3818009173339381 
1.440408304815515 
0 
0.3343765490871841 
0.1369397442358329 
0 
0 
4.409006084682743 
-0.2441478314716772 
-0.8899253801002253 
-2.146843555889370 
0.02184073728752217 
0.8829474913855875 
0 
-0.9816558795323063 
0.9553865094113698 
2.048531533397887 
0.6128803731083998 
-0.09044903513986384 
-0.2922591292998125 
-1.917642784885093 
-0.5919944409263526 
-0.7737272189697958 
6.697666371582512 
-1.212893352109499 
-3.653843681132885 
0 
-0.4501531328495270 
-1.282742032487392 
-0.3953237318993025 
-3.655819538353251 
0.2393354981489507 
-0.1723042025998689 
0 
0.4770835604122477 
-0.2960008317999754 
-0.4513642989139444 
1.539949259300793 
0 
3.474897630311281 
-0.1901653020773151 
0.05869563403830259 
-1.260615731513730 
0.4696874954624566 
0 
2.257518116902889 
4.213629804962983 
0 
-1.300071372057939 
0 
0 
0 
0 
-1.104168014554092 
-2.469323108536608 
-2.392556502970125 
1.181704364610316 
-5.874138346196143 
0.1550607800297171 
-1.388580206077663 
-0.8647126138733613 
-1.501080505374023 
-0.2170960629159863 
-0.09105902922904652 
0.7788291975903366 
-1.707597740840892 
0.6038624083849017 
0 
-0.3493466780835688 
-0.8630568432117296 
0.1407722795561672 
7.144808259852616 
-0.2819679722994995 
0.3207043017018358 
0.03442309125431461 
-1.983117943688252 
-0.07030795268729073 
-1.802842047581483 
4.145549785666380 
-1.811883587332311 
-3.510277262921674 
2.868328774466887 
0 
-0.05208337906243440 
0.3728405252330795 
0 
-2.040065368223406 
-5.494586107231451 
2.722203420619047 
0.01968438540521034 
0.2858538544532047 
0 
2.935091726548076 
3.796286129515176 
1.628821023894759 
-0.5998834881068417 
0 
0 
0.7779365730346656 
-0.9182694181104940 
0 
0 
0.4965759048259589 
-0.02382443651994436 
1.046989606264218 
0 
-2.963358529679610 
0.1907251005233421 
-0.3778258961956727 
0.5333813363330680 
0 
-0.9315983739021857 
0 
0.7163877441205213 
-0.6898043044779876 
0.1270044532061302 
0.8112325739979062 
1.451187070763959 
3.071212478222939 
0 
1.800258163515478 
2.668291115183434 
0 
4.247009191677921 
0 
0.2221019869623820 
-1.324925715793994 
0 
0 
-1.823650729331748 
-0.3196710437385555 
-0.2428770124710376 
-0.5440267079180450 
1.529522703665557 
1.954088378362484 
1.214206260512379 
-0.8527490457658020 
3.695687064884220 
0 
-2.314303188622321 
1.862777801563905 
0.6590770653572877 
-0.6528351588384376 
-2.066271930035900 
0 
-0.7227706614607075 
3.054094410296830 
2.575972464566522 
0 
0 
-0.06502308902460918 
-1.200836036492673 
-2.419523936666134 
6.322848437423973 
0.9964893072878832 
0 
-3.002533900350542 
1.151506911587537 
-1.174067796049607 
0 
0.2639930784967322 
2.058950296974245 
-1.710835837810610 
-0.08947484005127149 
-1.225565523249776 
-1.182814837705532 
0.8682691334480059 
0.03659541620544889 
-0.05452286316546884 
-2.273940471690787 
0 
0.04568467625568189 
-0.08965295120897998 
-0.2103710992258345 
1.037010838059855 
0 
0.2263782697794428 
7.745324168262290 
4.276325452856831 
0 
-2.441767011597256 
0 
-0.4371420389012300 
0 
2.958230408395652 
0.5072770812133807 
-1.290998332046576 
-0.9575078093204636 
1.597500719712043 
2.320811762457067 
-0.5338779598774747 
-3.825676111246227 
2.066739941756052 
8.634794645876589 
0 
-1.041674977331702 
-2.602958290202091 
-2.251555449450778 
-1.851601682311835 
0.2084586932934072 
-0.4573168347657270 
-0.6270252191247123 
0 
0.9422402719918841 
0 
-2.540522634372743 
0 
1.393096064010976 
1.892825791690577 
0.1724423128177138 
-0.06910149361996992 
1.967152999353666 
-0.1781719324387545 
2.353306985029008 
0.8562857235609911 
0 
0 
-0.05721774389456764 
-2.577001865076763 
0 
5.568181741600061 
-0.4874340132967568 
0.6701388700627660 
-1.884796870323485 
0.7559926233391369 
-1.182543134629314 
5.241873008010721 
2.007673702031604 
0 
0 
0 
1.343453967023272 
-0.5733911440161175 
0.1964717563535881 
0.4551718413491519 
0 
0.6820877834140390 
0.1179805928811118 
1.266949178998931 
1.545840193236978 
5.092249718966087 
-1.956914620785524 
-0.5968917674264982 
0 
2.106008062464563 
0.3891249008156295 
-1.115213407025520 
0.9256345280838291 
0 
-1.330408106141694 
0 
-5.161109207996962 
1.839994876215066 
-0.1287404888757290 
1.821568991646599 
9.724451540925635 
-0.5842183675413904 
0 
-0.4144906321875848 
0 
0 
7.387290675046345 
-1.696216433121028 
-0.01295603106562315 
0 
-0.9390177807579660 
2.128756815436519 
-2.819456872363861 
-0.5164871008508117 
1.941447574260164 
1.510025480609554 
-0.8846087248840503 
-1.494347608346321 
0 
2.127797248707478 
4.679568921296228 
0.3265303959387937 
2.347607065380526 
-2.073625540040339 
0 
0 
1.248657445324203 
0.09927903856153555 
0 
1.822499158259044 
0.3345123858179704 
-1.018015045390967 
0 
0.9934164662567850 
0.6477093238162650 
-1.877587103386471 
4.989400866852664 
8.100406572383564 
0 
-1.288806813922122 
3.635795091388073 
0 
0 
-0.8876902984773627 
-0.7281189554395946 
0.3225126283933052 
0.7393504283767450 
0.06536260384055770 
3.660098158245714 
-1.410294701779428 
0 
-2.909086990847180 
0.2141329566301252 
-3.216891695569018 
2.272477893104626 
-0.02446375861703138 
0 
-1.611652698035908 
1.664693575880324 
-1.345755098820455 
1.443920733986256 
0.3929682961784465 
0 
-0.4288396609002240 
-0.1931453802034725 
0.3985989431508615 
-0.9526197565821034 
0 
-0.2417546270363578 
-1.809132660012911 
-0.2596144464017087 
-0.2837156024461059 
-2.664365909575961 
0.5219055245449360 
-0.5716553674247447 
2.219061412396840 
0.3300564805744724 
0 
-0.8458126939432469 
0.8794053644741382 
-1.402741568450164 
0 
0 
-0.6178935783644050 
1.038085233830906 
-1.941936996838589 
-0.01670309238226775 
0 
-0.4726984601852219 
-1.079924883599231 
-2.839007769588034 
-1.286250321721167 
-1.181961331101676 
0.1486108956692496 
-0.8246892761778626 
0 
1.634499450187511 
0 
0.6212764501745639 
1.344106894095125 
-0.2540202948238337 
-1.701764895530892 
0 
-0.3257915624277304 
-1.121724465200471 
-2.390790836878206 
7.177874193291229 
1.020408950098790 
0 
0 
0 
0.1170225530714863 
-0.8375408723833296 
0 
-3.082163662808602 
0 
4.979986661683742 
1.487877105911048 
0 
-0.8666554896087911 
0.7487371072838029 
0 
0.7067112805692302 
-1.597765675497110 
0.1507310158413977 
0 
-4.609904186123249 
0 
1.134386190036819 
1.622742208726664 
0 
4.794199516149400 
1.433335019007390 
2.035739476461086 
-3.135128983230546 
-1.675686073103310 
-0.7414044030862953 
-0.006598983535593822 
0.1175431812550871 
0.3072032424286000 
2.806225913919095 
0.9230084492539281 
1.282635129351585 
3.349665316962099 
-0.1772665497455690 
0.4047148431491006 
3.723382481232327 
0.1851581503653141 
0.4639791537736768 
-2.233042970873993 
1.823400370266952 
-3.790531304606422 
0 
5.755662110786847 
0 
2.304011385844571 
0.5796379149482422 
0 
0 
3.156257173862149 
0 
0.9343577363832278 
1.575935937869057 
0 
-0.4286482627571879 
5.621715310301107 
0.4806303341258001 
0.1241731925140210 
-0.3241894851656697 
0.2622779382989718 
0.5261010760498974 
1.252392439264628 
0 
3.725309038358839 
1.556164147149712 
-0.2776477155699774 
0 
1.346533800385284 
0 
-0.5083048584700662 
0.3240747701366009 
0 
0 
-2.614997099881637 
2.166982212927298 
0 
0.8020458312754964 
-0.1444179115334570 
3.438026351969145 
0.9488714889096114 
-1.549343775930362 
1.933326199241659 
-1.142427855829755 
0 
-1.006258993099571 
-0.6515074891435377 
0.6247457795117108 
-1.425171945988907 
-3.467701825294572 
0.02306897631591851 
-1.278759853350394 
-3.398507352461132 
0 
9.032492912712048 
-0.7493908359335711 
-0.9615173379058974 
0.4156107744361062 
-1.215174174258795 
0.2567585121495531 
-0.7541542997827423 
0 
-1.420566131947089 
-2.373789334029969 
0 
-0.5824814986299738 
-0.1977929022923183 
1.448987000841828 
0 
0.04861415901918742 
0.2787438013696018 
1.531070439763251 
3.083354639761603 
1.021400776867387 
0 
0 
-3.299846059771773 
-0.4882333753430526 
-0.7759870306456672 
0.09561728219215604 
0 
0 
-1.020817820973820 
-1.506897984097010 
1.576036487973223 
0.5296218991704424 
0.6578962701410690 
0 
0.1485721688846350 
2.772855360483588 
0.9475049932898831 
1.303134958132954 
-0.01631489470818268 
0.2024017599586464 
2.280573786369326 
0 
0.8218323382178885 
3.115978246470497 
0.1457945155891789 
-0.01691170177050319 
0 
0.3732314371378280 
0.6191473094692616 
0.6275899620382823 
0 
-0.8722735494911686 
-5.037941354108673 
0.3658088739659982 
-0.02722439098776686 
-0.6001102208748761 
-4.748749471018224 
1.507548275335513 
0.4799032677680519 
1.148798081393285 
0.8333652001999445 
-0.3790371548032970 
1.776586961280372 
-1.167978181923409 
0.2952920241210036 
0.1300739560605406 
0.7695834761454015 
2.016386827890714 
0 
4.840119854147411 
0 
0.7908142516901093 
1.922518141055032 
0 
0.1521882022426151 
1.787317378068104 
-1.179238378211061 
-0.5934759751771720 
-2.301268638164301 
3.042508676832575 
-0.3188220376081973 
3.036207883322567 
4.606616481353779 
0 
6.980754413962296 
-1.961212474157285 
8.506281680700940 
0.6738440483692729 
3.993231806359821 
4.616070689943708 
3.877833287294223 
0.9935211525984650 
0 
0.06825317947064446 
-0.5892063604323052 
0.05261830479118301 
1.004490577261925 
0.4701935624301611 
0.4547596550146572 
0.3159293624498702 
1.802250678390864 
4.909855071740321 
0.9599611586669030 
0.5627256580259941 
4.282911481167522 
-2.639388935311597 
1.362508544480633 
-1.256604903264365 
0 
0.5387158830831104 
0 
2.925862266411751 
1.272767207445943 
0.7295310993734334 
3.353580926096655 
-1.210274029941519 
0 
-3.235976736915184 
-0.1084234354363760 
-0.3939509743213208 
0 
7.090311771914815 
1.118209916630751 
-0.5287207141295012 
0 
0.1597813030827211 
-0.06986289610704438 
-4.247341888658698 
0 
-0.1079959041197577 
-0.3612391254644995 
0 
0 
0 
0.5969165697019756 
1.130374804994579 
1.864723420108515 
-0.6396023241825410 
1.458589884018597 
1.726609693000402 
0.4622556010900402 
5.752686996785366 
-1.114220292850684 
1.037501305109289 
0.4930238548344370 
1.727450615560894 
-0.2572579678208992 
0 
-0.3220989161496892 
5.568666421815457 
0.3510075801679211 
0 
1.349896784927275 
-1.091906453195644 
0.8125550787839215 
-0.7393477755259050 
0.07513262471122518 
0.9535060218380151 
-0.3579364220931720 
-0.9488089279083647 
0.8449343511736063 
13.11190573894455 
-1.982387865357575 
0.4278602969468080 
1.511912162475530 
-3.153129734358312 
3.270256081275305 
-1.474803762205699 
-3.968243016952059 
-3.376117310983725 
0 
5.056699395224500 
-0.08114591916120156 
-0.2230595945431628 
0 
8.360083653694678 
0 
1.927920331557551 
1.706738199713142 
0 
1.343343614750187 
0 
0.8594600937298653 
0 
0.9161446629400526 
0 
0 
2.182814347414193 
0 
0 
-0.5045784438905664 
0 
-1.987040142864896 
0.02965744460547787 
-0.02145927035586442 
-1.254881610600849 
0.06244129068595522 
-3.124039523671929 
-4.661955888372634 
0.2019757489966020 
-0.2375231008384750 
-0.06066046879893133 
-1.741305086580381 
-1.798633102955642 
0 
-1.399892245298276 
0.8477269600979487 
1.017903668138268 
0.004737112357201978 
0.1501965688602562 
0.9903337675272142 
4.957173352861521 
-1.677324515207668 
0 
-2.569674220683329 
0 
1.123525304312291 
-0.8144544323807565 
-1.933614290817162 
-0.5534371203268326 
0 
0 
0 
0 
-3.213388602094315 
-0.1350325893131615 
0.4225686756916229 
-0.05317452338594786 
9.030637809909004 
-2.105998067897736 
-0.6834903198354958 
1.309806721558616 
1.381352383077829 
1.104026872954613 
0 
6.523065543756290 
-1.260066739687900 
-1.243795583042358 
0 
0 
0.07518289979897759 
0.1003707793225958 
0.4545166042724049 
0 
4.643199705329334 
-1.328202159138409 
0 
0 
0 
5.144531880478128 
-0.2531221284893719 
0 
-0.1485084149230687 
-0.7930728090244503 
0.6698505811286870 
0.1263985669787271 
0 
0 
-1.152909833700893 
0.5421854551270162 
0 
-0.09791569329493200 
-0.3208784104451249 
-1.923191539138209 
1.029098092373225 
-0.5515473352782099 
-1.342324766407376 
0 
0 
0 
-0.4118306437624688 
-6.586733054631743 
-0.6791152886348946 
-2.807894686822817 
1.815002554952484 
0 
0.3304731216717101 
0 
-0.8938284037125639 
0.4108579958508661 
0.9368051409026854 
0.3326502465540758 
1.295499500753881 
-0.8476458528270090 
-2.272329854680010 
-0.08002965295433714 
-0.9945041503679473 
1.186541245444147 
0 
0.9237284999632510 
1.448898247720770 
0 
1.448121871180939 
0 
0.1969779377046805 
-0.004443806815655593 
9.341196335548274 
0 
8.805792849966160 
0.03516092009619511 
0.007201594552890323 
-0.3677940954904033 
-1.968837812563806 
0.02551704641141186 
6.780738462590882 
1.382597363341164 
0 
-2.684234597426399 
-0.09857171651011634 
-2.917791462923427 
0 
-1.450267473897012 
1.860638175824734 
0.7155799150513606 
0.1391020833158892 
1.184829414116529 
0 
-0.4570776475713291 
0 
-1.454469379560846 
0.05828884811040530 
-2.063769943653904 
5.583626676831942 
0 
-2.186451348433425 
0 
-2.491799979522015 
3.390571909711198 
0 
-0.03022859054150529 
-1.182319737776268 
-0.1592277502270992 
-0.8799482275394184 
0 
-0.3362516056901462 
0.3532648973578418 
2.856444319045927 
0.1278881441030867 
-0.6872616769965731 
0 
0.1241374985926942 
2.531436143485214 
0 
-3.465200820891455 
0 
-0.3498672113042126 
1.276570508881192 
1.847956452618595 
-0.3231832003227824 
-0.6892621990209612 
2.153109823522615 
-0.001659749991500647 
0.8753474463715438 
3.747242732457684 
-2.544339838035229 
-0.4318922327804478 
-0.8102558073387036 
-0.4463224408414260 
-0.2686268207781134 
1.311625899196897 
-0.3612239369111366 
1.021643100907230 
0 
0 
-1.572440479763274 
0.4139441520870082 
-1.773932086428574 
0.5328322648810820 
-1.392899882686475 
0 
0 
1.101616525758328 
0 
-0.4944511042301757 
0 
1.617129389037500 
0 
-0.8127188389450869 
-1.463480727521123 
-3.199562939780976 
0 
-0.3607351811519124 
2.225558105603740 
0 
0.9150996831597572 
0 
0.4772414626514713 
0.5783363488619093 
0 
-0.9616893792411563 
0.9961844606779794 
0.8600701657859549 
5.001265863278502 
0.5242295041982046 
-1.088168784669000 
-0.01935477426454269 
1.835142672041509 
1.642482098336481 
2.471105003317788 
0 
-3.672061454484810 
0 
10.38091363814312 
3.125339534183651 
-0.6394077302059815 
-1.449162669163746 
0 
1.147012826187659 
0 
0.01458996687830713 
0.9473245667370974 
-2.151933969420203 
-1.269359168483710 
0.9963661639311190 
-2.446898031836016 
1.107157954435137 
1.954971996067551 
0.2885594784947380 
-1.820676862713448 
1.054149375769598 
0.1972668052552615 
-0.4094455496267463 
0 
-0.8552476305587773 
-0.9049683183225445 
8.331188159193740 
-0.9162309829457473 
4.738177409900602 
0 
3.898219943747198 
-0.2199977406869975 
2.161979476404669 
0.2386101325155111 
0 
-1.775017302113370 
-2.435680669380067 
1.833052888046225 
-4.247487955215522 
-1.407123735400937 
-0.1236904606389093 
0 
1.302027879211150 
-1.089871426895862 
1.589573666678158 
-3.076787765109673 
-1.090664280510538 
-0.2939037579190986 
-1.168617763901356 
4.380097934750457 
0.8893915247315768 
1.382497342636485 
3.646221602828875 
0.9897871564741316 
1.640398725535561 
0.3374403252279362 
-0.7658197546536508 
-1.371856632583573 
-1.961892857993231 
-3.314317154915691 
1.337212490041245 
2.140369740798842 
-2.150600276608354 
-0.4374802821743655 
-2.253160240964212 
0 
-0.5915460893696325 
0.4766372197417831 
-3.030371014771000 
-3.398303160701124 
-0.2510315628442436 
0.7880785678186530 
-1.203074294879318 
0 
-0.6513818801869344 
0 
1.074823266207164 
0 
0.07135770629026397 
0 
-0.6832798383762018 
-0.06318969134064156 
2.157787381138818 
-0.03737133926870053 
0 
1.345103073470497 
-3.011268109490381 
0 
-2.335431928634058 
0.3760128843760728 
1.870866632639201 
0.5596360096536821 
-0.4099085491838719 
0 
-1.565143014515475 
0.4353430569234965 
2.927692974153475 
-0.3883543150220920 
-3.859487559743565 
-0.3914868169430783 
-0.6613192265279406 
0.2184883110841130 
0.7181045520963187 
1.691495142107742 
6.756309926073091 
-3.913724752338717 
3.661523502902332 
0.1517979492597439 
0.7369183025092494 
-1.443753547566402 
-1.976007969694007 
-2.433975733892616 
1.866418777235108 
0 
-0.2829451678417928 
0.008634716255357470 
2.115270592942116 
-0.1734670097827198 
-0.2604350900396301 
0.2784835468724407 
0.09404204334752281 
-1.795327768798090 
0.1542034054299775 
0.2809309978736256 
-3.490808743762256 
-0.5842001641319243 
0 
4.679241200174525 
-1.508075640553729 
0 
-0.5423877916545696 
-1.245810822786479 
0 
1.845772471452593 
0.5073635631237894 
1.235501145898206 
-1.567330661854436 
-2.078440984714906 
-3.245960919635968 
-9.076925830129445 
0.2204802663673725 
0 
0 
0.6625857126369545 
4.114138851504585 
2.063661411785786 
0 
0 
-1.108857938589711 
1.120452259342804 
-0.1125324295231168 
0 
-2.843305413908357 
0 
-1.439030756216308 
0 
0.7229979953981431 
-0.7994161661768036 
-1.676041120168050 
0.1910027543288209 
0 
-1.190158494468991 
0.2891940869440965 
-0.6751609854431998 
0 
-3.707619306977823 
-0.6649068994710983 
0.6127083286053427 
-1.801736611260177 
0.3919067403182824 
0.5851371629310969 
0 
0.9709833579486351 
0 
-0.2577227089052444 
2.659890991450744 
0.9701777413526791 
-2.655597458800663 
0.8820373836987943 
-0.09973652365274921 
1.457020352014986 
-1.271470426501201 
-0.3520374566991312 
-0.7817666100579065 
0.3027783653831850 
0.5340232859811692 
2.775326429196089 
-0.2582824281757553 
0 
0 
-4.094231131255842 
-0.4213848772605907 
0 
0.3229627802333079 
0.1181840079543646 
1.926966725122414 
0.4932025751045046 
-1.329511150928354 
0.9629731172781011 
2.434957539863128 
0.9120666416551022 
0.8535883394494275 
2.503304339212778 
0.6616135962079591 
0 
-0.4136757006859188 
0 
-0.9124585236437956 
0.2302391462428376 
0.3558971324930890 
-0.01551241640800566 
1.084228041313668 
0 
2.086444703547811 
-0.1791900556639740 
-1.458638439928992 
-3.404956792436946 
1.651597136007271 
2.508550095308463 
1.465697799023869 
0 
0 
0.2953776205935347 
0 
0.3532406615414217 
0 
-2.067293437053949 
2.199598580660808 
8.629385757240737 
-0.8778316310933255 
0 
-3.124441738007186 
6.625579897822463 
-0.08044361591411142 
0 
0.9276121131728426 
3.519177873293350 
0.8375870572310095 
0 
0.4383959556878969 
0 
7.692676494478545 
0.009584460440581255 
0.4979109316849030 
-2.111363902424534 
-0.1357667190671308 
-0.3816454561952374 
0 
-0.9778653533065085 
0 
-2.168293902260167 
-0.3101536106241493 
-0.7598575342610565 
0.1978336969248415 
-0.8504759593278322 
-0.4578382668667647 
0.8637348397803870 
0.1631081707863896 
2.345152517403198 
-0.02183932997460758 
0 
0 
1.221807919225094 
0 
0 
-0.02144726782635120 
1.246932371761735 
-0.2128724434444843 
2.147618414633071 
-1.355189264687919 
-1.187995332123369 
0.02299302737983378 
1.405466871682689 
0.7032592645686770 
1.066840898809275 
-0.4406816764000427 
-0.3579455698744753 
-2.314021021680597 
1.687105374551281 
-1.124465625777827 
0 
-5.467420598337775 
1.382934143234799 
0 
-1.715322690389689 
0.01607282584221664 
1.816156989421227 
1.845784463230755 
0 
-0.8025060463943731 
-0.1443011863171125 
-2.377306542551030 
0 
1.346002180406229 
6.706812685706895 
1.280459559250185 
1.799160711923899 
-0.4950693917368699 
0.1794384798863885 
0.8024218848125895 
0 
1.714063110537795 
-2.559183652949947 
-1.158104930991040 
0.4125025027988737 
0.3891313898684274 
1.208395817918887 
-0.6477603356577258 
0.02343723862641423 
-0.3172835657357793 
7.099359925550751 
-2.398825554578405 
0.01020498302036721 
0.7654575656443660 
0 
-1.802884863737303 
-0.08946761001436931 
5.069578940810263 
-2.930846385287791 
-0.9290222577178981 
-0.2490995905738378 
0 
-2.434801862540222 
-0.4548496099713024 
0.6034024330368593 
-0.1872072762385797 
0 
-0.9704934403342964 
0 
0 
-2.353664108187318 
-1.940038777815469 
-0.2569975395483354 
0 
4.547052574524406 
2.638758539890956 
-0.4189478824424852 
1.308257681965520 
1.907402033108461 
-0.3284520558853297 
0.4678641373997332 
0.3591937114094012 
-0.5726926480597785 
0 
1.014262667803125 
2.896921087501402 
0.03085824115806712 
0 
0 
-0.07975250905130851 
4.266889267220281 
-1.212687879640905 
2.369886061303879 
-1.721631949410669 
0.8584532911876588 
-3.850782040914598 
0 
-0.4280439576153586 
-0.8304955803358751 
8.757746333751650 
0.9294040651820434 
4.038743092014282 
2.596146329993829 
-1.457344408720427 
-1.677161874021652 
8.531511636168487 
-0.3496772218153057 
2.100106798547943 
2.444198206245761 
-1.500027300741551 
-0.2952137224761978 
0.8058237195699248 
-2.082855704400840 
-0.7182627645700361 
0 
0.9086055992792670 
0.5232951662324838 
-0.2354494544663791 
-0.1587356463601750 
0 
3.156923551654950 
1.269347340840869 
0.09578284487765194 
-1.001324910463453 
1.363779496775048 
-0.06124059964137571 
0 
0 
3.559032807786758 
-1.468342289212860 
-0.2262103561568091 
0 
1.641199529374251 
0.7932845871449066 
-0.06513539712787400 
4.102956619128992 
0 
0 
-1.762772524378641 
-1.371045455958538 
0 
0 
0.8217187418613012 
0.7315251908609604 
-0.3572678825441457 
-1.258040341944759 
0 
1.366862575555946 
0 
-4.428604413527811 
0.9374214662418592 
0 
-1.415422436492285 
-0.2107231898857176 
0 
0.3572135151888574 
0 
1.393332254136591 
0.3390994984172387 
-0.02506638485093340 
-0.8763374081346984 
1.633255729511765 
2.240008108279869 
0.6538500242759271 
0 
-0.3716939751649120 
-2.240194407552117 
1.270383253767800 
0.9938753054777577 
0.3919404136969071 
-1.927357300881377 
-0.4242905882106530 
-0.7060358304321300 
-0.2649668118323685 
-2.359468846152232 
-0.2863243241774077 
0 
0 
2.965002016424340 
-0.4368292934282404 
0 
0.2874839420649386 
-1.814987972940860 
7.066706336231216 
1.390101321394913 
0 
2.361475539873148 
0.2874672832936336 
2.729670498666526 
-2.456733902224678 
-2.955596923612872 
-1.845874118008557 
-0.9005989295708763 
-1.259777633151375 
1.187063345564528 
-0.3698474062069706 
2.014574799954878 
-0.4638301387979527 
-0.05084453630525510 
-0.05428174207780485 
0 
3.167896738641444 
0 
0 
0.2013363995434420 
-0.5185149219095572 
2.886438169416976 
-0.8661571530903249 
0.7444800989692295 
0.1784849698669622 
0.06236040570150439 
1.163587329434674 
3.591699504116647 
-2.650158101851269 
1.284095884437213 
-4.242276300907887 
0 
0 
0 
2.302137449558323 
3.319666473773703 
0 
-2.781243944826361 
0.7410938185530791 
5.303520401023221 
1.021932407608771 
0 
0.7700068216877847 
0 
0 
-0.8522641490393348 
0 
3.256596439924747 
-0.1816706008957661 
-3.589954975654174 
3.084995443557761 
-1.989725839125783 
0.6339899611844264 
0 
0 
-2.949363197801038 
-1.925192612025922 
-3.101620555190451 
-1.197565609470602 
3.008771960048903 
-2.997225617044262 
-4.853612377421404 
1.831699685583718 
0 
-1.153907926917047 
0 
-0.06628725660279350 
0 
0.1663605536057005 
0 
0 
1.025166070983716 
0.1155797132251857 
0 
0.01769878878008080 
-0.1752146637760158 
0.06451185223041633 
2.278556099745217 
-3.839283275956531 
0 
2.692924899631301 
0.1570802251857904 
0.7876046334418412 
-4.324160248935913 
1.869093687161931 
-0.5715330079371309 
3.240843939538227 
0.9022585633797957 
-1.664908062931323 
7.875433128292901 
0.6458316306087565 
-2.815669523900656 
0 
-0.09921862689404663 
-1.220116222388783 
0 
0 
0.5289385187191452 
-1.742962819796578 
0.5227275094057223 
-0.4615698532019346 
-1.474864321934027 
4.446268629185932 
0 
0 
-3.343923230860952 
-0.2334696928648735 
0 
2.581648651997466 
0 
-0.8721129484833660 
0.1900697812598375 
0.7152588798026279 
0.4062720347418552 
-0.2455927306682464 
2.160310147597644 
4.502427030395422 
0 
0.7632198898318265 
-0.5052940056055090 
2.703060270404065 
0.3747949450392641 
0.4818872569992058 
2.719408519889482 
4.387715376932565 
-1.556119984215459 
1.990242035214677 
0.2394083231801423 
2.240912048551647 
0 
0.5544590783326161 
3.022056888843705 
1.266029939089776 
0 
-0.1241230884195259 
0 
-1.424954349439754 
0.9189209895091061 
0.2696343681641127 
3.255358569893375 
1.289866798113521 
2.082664625495365 
0.3111086519843880 
0.3596183161360608 
0 
0.6581540691182426 
0.01669622883118493 
0 
8.206152542448840 
-3.170474104816081 
0 
2.516174306569797 
0 
0 
0.7864548026722368 
4.669800797209699 
-1.256452029788473 
0.6573231211662058 
0.1412456417122907 
0 
0 
0.2805941656498329 
-0.2253060651977209 
-0.5276335571801098 
-2.131955041807053 
0.008482595969000657 
1.545433139422628 
1.588285424678556 
-2.743591063867833 
2.879892533567098 
0.06876242554208153 
-1.015763993616322 
7.647970172848316 
-0.3990015231756160 
2.360034507865251 
1.725889583112931 
0.4155291799082819 
-0.4972439336215306 
-2.896193676392529 
0.1164838705121005 
-1.284443706805257 
0.8700711422807120 
-1.663298221157038 
0 
-0.7082107817475389 
0.2420687517531336 
-0.3410143213792649 
0 
0 
0 
0.04591706799850359 
-5.855787431592801 
-0.2155969383410843 
0 
0 
0 
-0.9870059126986164 
-1.238402255023041 
-0.9949805862477483 
0.1779295534311651 
0.6098328846299819 
2.327405912955562 
0 
-0.7194341026035309 
-0.2882871617881123 
0 
3.164513217798663 
-0.9771997236851955 
0 
-0.4338529174071598 
0 
-0.8603127056908259 
1.576983825781762 
1.000006178034105 
2.747734529666753 
-1.067071481856983 
-0.2740384299495137 
-1.078803078798580 
1.233604050468952 
-1.490614189060088 
0 
2.490961472820748 
-0.5077558918405722 
0 
2.883277453190979 
-0.9851164572702733 
0.5744257531523722 
-2.450693505767779 
1.811372424749869 
5.581263292477100 
1.412074064897487 
-3.527058667677935 
0 
0 
6.053725493350563 
0.3027178188367670 
1.498224988990757 
0.4383455031722915 
0.1613915729054702 
0.9705617938784317 
-2.935080615365560 
2.600919955385080 
2.051417948960791 
0.08672279122096360 
-0.02112648647042359 
-0.5200627015107938 
2.523648519364189 
0 
-1.944450886956172 
0 
0 
0.3859484322057906 
0 
0 
1.022581667050972 
0 
0.02035994218041892 
6.259781096621295 
-2.505819475964148 
1.334287541286538 
2.535201888586633 
-0.5818493971996483 
2.406709360152397 
-1.669572513061488 
0 
-0.1676783091020265 
0.3686642446162293 
0 
-1.975366727615353 
2.535302886364579 
0 
0 
-1.027033223398878 
-0.8310300766431118 
0 
-3.166916232920334 
3.109030122528025 
1.129224780532384 
1.020312147946490 
-0.03359434578433700 
1.691724336416470 
-0.5999682798428688 
0.09130280864526749 
0.6401719986035999 
-0.7397833493861371 
0 
-0.7927505085833660 
0.5518890087206711 
0 
-1.013835988271153 
2.529307479734870 
1.973273852923497 
-1.386037162192279 
0.8602238421983656 
0 
-3.378010529223936 
-1.478084994925790 
0 
0.5750000925837553 
0 
1.846223094050078 
0.8571910069328630 
0.08370749990606352 
1.083398117242975 
-0.7054019059637435 
-0.7717924779913563 
0.2476043477673749 
0.9003271865417365 
1.622480330536251 
0 
-0.1306775686709629 
2.150977789517004 
3.331859574121157 
1.512899942528705 
-6.034568977756853 
0.8000739952587789 
0.5997519684810421 
0.04047025655833782 
0.2479887567268841 
0 
0 
0 
-4.924900712247654 
0.5379485413820521 
2.915538483958750 
-3.174924728373878 
0 
-0.5618671641665136 
2.760631715173481 
1.912754017020716 
0 
-1.510991339219799 
-0.1646235756707873 
-1.543329226591321 
-3.790829622085421 
0 
0.5853152590611382 
-1.506995126037741 
0 
0.3959568409316552 
0 
0 
0 
1.506299341517679 
0 
-1.552270351886552 
0 
-2.387069571373967 
0 
0 
0 
-0.3676595189368633 
3.875292656578865 
0.4729979659574832 
0 
0.5508788587571871 
0 
-0.3850946265701434 
0.1322652523234870 
0.6956814457598852 
-0.6112053387161104 
-2.234355301702605 
-2.941951488378364 
0.9213560801772511 
-0.3898767987128650 
1.938307359965074 
0 
0.8622378287253394 
2.529731084437748 
0.8525227440682486 
0.6975774874166468 
0.4257191692229912 
0 
0.6740993319124046 
-3.460068457539996 
0 
2.245749880629404 
-0.4057899296193775 
-0.7041572763217500 
1.023352475652460 
11.52258181589504 
-2.038378056534922 
0.2461744356823705 
5.718771898221865 
1.015601127521001 
0.6363025964390742 
2.199502403898796 
0.2860890371164677 
-0.2478787752277143 
0 
0 
1.625032150281962 
2.941856925246863 
-1.254712213109766 
1.070698939251201 
-4.457650943678265 
0 
2.053253506200798 
0 
-2.955712050223180 
-0.5921194397107322 
0.2432918083749519 
-0.8888021420738927 
2.607656175653330 
-0.5061506823549290 
1.675225407419165 
-0.03729050173948587 
-2.315027211143496 
0.3962202016850510 
0 
-2.159399161523488 
0 
0.8417469145365644 
17.36761638550167 
-2.306233295505410 
-4.003611588704491 
-0.5859141071018201 
0 
0 
-0.6234538310201620 
-0.2506684837702902 
2.248926565512456 
-3.401953722944602 
1.647164917933263 
5.954538431776261 
2.182761147104416 
0 
0.05234304994095229 
-1.832840559414559 
5.623773007617400 
0 
-0.8858028210045561 
4.663032399344303 
1.548485132517383 
-3.151023360886910 
-0.9339503137599416 
-2.918689639723997 
0.07492872363219893 
-0.2683685212025380 
0 
-0.9174668804952808 
0.6418920330624616 
2.930257199332892 
-0.1682088978375119 
1.546476489018019 
0 
-9.313068521950070 
1.532462837854623 
-0.2118413605716988 
0 
0 
-1.053613418708205 
0 
-1.248131852457324 
0.9232007052755112 
-0.7665631112245632 
0 
-3.138640094051667 
1.336116595465730 
-2.028533920145036 
-0.3469994738594063 
-3.034201905617965 
3.248260366020821 
-0.2222706187607368 
0.7382800265403053 
1.640703402908730 
0.05238831888868115 
0 
-0.6922347436319155 
-0.6130786633493879 
0.8977973103844781 
0 
0.1678150891744834 
0 
3.119058051705649 
-0.3615149257332602 
0 
-0.2176676763728278 
1.289244015594103 
-1.402474386885883 
-0.9020390564482319 
0.4428776866577072 
0 
3.033124484240274 
-2.943978834374897 
0 
0 
-0.6596937977529906 
-0.8744446707411572 
0.8042708894999655 
-0.3127667749720133 
-4.421470529010248 
1.722758080567652 
0.4434592850503307 
3.022070963175948 
-2.020963601444549 
0 
-0.8880231751518190 
-1.035246974289050 
1.043432209527758 
0 
1.419984140779961 
0.5541688774378403 
-1.869917401979905 
-3.171037714704168 
-1.512694201118935 
0.1333357677136995 
2.686559065762221 
-1.186260065257007 
-2.138077093783963 
2.813241072454663 
1.129991419156410 
-3.568888602787335 
0.1201183793403310 
-6.847967815435878 
-2.373445343585420 
2.078899143627198 
1.250263549019893 
-2.197965692288889 
1.522067849305829 
-1.499901071279956 
-0.4241120804470462 
-1.449573293069345 
-1.312956106384178 
-0.4393078787834495 
0 
1.454353502398651 
-5.553184667120656 
-0.5624428385368636 
-0.1128197001761257 
1.637420444954265 
0 
0.3556842438065612 
-3.341204816023861 
-3.789467828422541 
-0.7218121682101641 
0 
-1.985673005305737 
0 
0 
0 
-0.1851257837978348 
0 
0.05163144208701565 
0.1067262198626989 
2.366359433651241 
0 
-0.4835653194904069 
-1.101294048941075 
0 
1.284571345650541 
0.05294101499477948 
0 
-0.5437426916849328 
0 
0 
0 
-6.477477947615745 
0 
0.6350303072435852 
6.940468855788015 
-1.218494317211437 
0 
0 
2.919519503902385 
3.167625227526127 
0.8494361139529362 
2.329773911718816 
0 
-1.866692330258765 
-0.9460310917749817 
1.886579985651302 
-0.9176886833705892 
0 
-4.015469110824906 
0 
2.043997754441448 
5.130639674829747 
0 
0 
0 
-6.452318214188388 
0 
0 
0.9188950301375669 
-1.343616372919558 
0 
-0.6128817768917869 
1.776836007641387 
0 
2.279452447470293 
-1.468592943067472 
1.150359370753526 
-2.723022949936072 
0 
1.491929894562773 
0.3605724431418084 
2.372347115721628 
0 
1.557063188801744 
-1.844876189138481 
1.877234649949481 
0.3393762078436977 
-1.756427782466755 
-0.1155011911996755 
1.301691041101924 
6.269231455856579 
0.5995481356129768 
4.310122828166326 
0 
-0.4544180516766034 
0 
-10.98468177656029 
-2.626688905125615 
0 
-1.825158234942598 
0 
0 
0 
-0.1048138243864852 
0 
-3.357014650332368 
0.007574541582280298 
0.2588407061996474 
0 
2.142832633907181 
0.6357778836756265 
0 
0 
3.156533340761373 
0.6508884767116596 
3.890207947839068 
-2.376052723721151 
6.459607364075147 
-3.384175272013496 
-3.729180204344184 
-2.194740304085711 
1.521137769719346 
-0.07631731419425902 
0.1863002932494534 
0 
0 
-0.3676561000651006 
-1.459835199099413 
0 
0 
0 
0.2410268075452720 
1.940609505605775 
-3.140369249629880 
-2.993200992846472 
0 
0 
1.549329801575459 
0.8466101036171587 
0 
0.1146078520155604 
0 
0.3081621558283001 
0 
0 
-2.288326402085392 
0 
-2.570915734745642 
0 
2.713190484605677 
1.719134028048150 
-0.9991064367565250 
-0.9295479629667247 
0.004333135083299855 
0.5049043281471981 
1.425031066698992 
-6.903285209996003 
-0.5858327746813672 
-0.5743499939282459 
2.731727298159419 
-0.2331506625201945 
0 
-1.691708449092868 
-0.2150873413068689 
-0.6384229233607133 
4.249887766109688 
-0.7321168824288339 
-5.065563081405961 
-1.493760202844640 
-1.201766800422718 
-0.2404698947469323 
2.461059814820834 
-0.4658276974511182 
-1.489157930540054 
7.647018616343869 
0.7718706204655693 
3.456612501042499 
0.9776720959522037 
0 
3.162002572767205 
0.03989864935540355 
0.5442845988737913 
-0.3471172452372328 
-10.44646644600289 
4.662033823190725 
-1.983335443966919 
-1.096915940877389 
1.829488098349597 
0.001263533659331052 
0.1596988737704818 
-1.058904766607580 
0 
-0.6390455311434158 
0.3253480535258974 
1.277637629384006 
0.2898625110977415 
0.2462993871355607 
-4.517053362654524 
1.665228049322500 
0.4629602799445834 
0 
2.676293638401786 
-1.903561316527253 
4.901433709200007 
0.5483044354031089 
2.269723657603950 
0 
3.594801980857636 
-3.631091543298794 
-1.103358086349991 
3.017550285408134 
1.237552980364203 
-2.936885378172200 
0.9456540315533258 
2.383809985430359 
0.1593080395798507 
-0.2099036945039102 
0 
0 
-0.7095000781335203 
0 
-2.627460289602916 
-0.08658552149937626 
-0.7234166947922971 
-3.713705484314227 
7.424910481126467 
-2.798736353556789 
0 
4.883332945652255 
0.1299605479573860 
2.588664924629664 
1.857684438484443 
0 
0 
-0.07072047857535907 
0 
2.454683199563651 
2.058649109558132 
0.8956199023699092 
-0.1057785798303115 
-2.025562396480967 
-1.426908538583231 
-1.696106606041726 
-0.8697818930258665 
0.1607262853943794 
0 
-0.3511228376496459 
0.6762640285926504 
2.999043525186852 
-6.970702787284723 
0 
-0.1498447476534386 
0 
0.6382751709571197 
0 
0 
-2.454875559661934 
0 
-1.217094693363846 
0 
0.1055680212204241 
0 
0.09884688619698778 
0.6806814563932590 
5.049998507481621 
0.6448541323498753 
2.048591920607824 
0 
2.112250095206695 
0 
0.007785043993876861 
0 
0 
0.4334442096604974 
-3.774954401446762 
0 
0 
1.194364444382438 
-1.019642674023009 
-3.461376921924794 
2.488081907533458 
-2.219200210880157 
-1.165476125981819 
-0.5211345198651510 
-0.7713244892495688 
-3.015774507992240 
-4.734303546252486 
-3.319632363786539 
0.5305314175182558 
0.2299886138458233 
-0.4290137918130229 
0 
1.411365265394430 
3.630570270863903 
0 
2.159433259789536 
-1.378571882470724 
0 
-0.2791662317470006 
0.8726396406896983 
1.764418391152472 
-5.814884818903294 
-1.414534421231962 
-2.519923435342979 
-0.3640112591401788 
-0.2034114944134183 
-0.1053092754744160 
2.002791224262670 
0 
0.5427572569943736 
-0.04020475555511915 
0 
0.9264446296409283 
0 
-2.909933771997837 
-2.430087797480514 
0 
-4.935516955891663 
-0.6114827294126808 
0.6290579040829856 
0.1255172077840630 
0 
-1.783898836492131 
2.057085033155331 
6.631422886953686 
-1.331834770148394 
-2.654581528760597 
-3.697609804364827 
0.05429873822191534 
1.295398529858957 
-1.054646056500327 
-1.107242541407527 
0.9790314682735666 
1.153499313217046 
0.5004432849394802 
-2.738944765772363 
0.7309029684633314 
2.053253150894527 
0.1693445953559500 
2.331286437235513 
0.5258792070851589 
-6.718303744391529 
-2.806728764732895 
1.297972963174308 
0 
0.2635989758915810 
-0.8738498463385513 
-0.1404511464370503 
-0.7578134134163650 
0 
0 
-0.7042430963018880 
-0.6573617592392456 
-1.562907729554948 
3.954680116701721 
0 
2.732479105628080 
0.3269625461875048 
0 
0 
0 
0 
-2.039339459607894 
1.280395853926705 
-0.4996393108578333 
4.220369244257636 
-1.854518213176854 
-3.848172871497449 
0 
0.6826822848657360 
-2.541731636793115 
-0.2277814279047186 
-1.168365811857087 
-0.2745442235423870 
0 
0 
0 
1.276897524161195 
0 
0 
0 
-0.8850359244161967 
0 
-4.253553126841982 
-1.687485217435217 
1.953949883081342 
2.433504714474883 
0.4285433076588780 
0.5681353179875832 
2.927962690409808 
4.555108983045164 
0 
-0.2015964350624450 
-2.655573260099729 
-0.7716257697017210 
2.421419497730319 
-3.200348741501527 
0.06667296413939489 
3.570681217820493 
-0.1186127980061356 
11.46815035728066 
0.2528462049660843 
-1.350297780565495 
0.07369081434546405 
-0.4825923538235288 
-1.726410846720222 
0 
0 
-1.132525089175388 
-3.624621732914028 
0.6688810000482173 
-0.4186813315872979 
-2.456873057594450 
0 
-3.073537585259518 
0 
0.1376442641399092 
0.1128660413785829 
-5.730407964931104 
0 
0 
-0.8317181711698778 
-1.882767628661973 
1.396448049346093 
-1.862189212713912 
-2.203657407720801 
0 
0 
0 
-1.969721824130444 
-0.3247768535621000 
-1.094686220891257 
-0.3436663536668466 
-3.720398813787691 
-0.2593316829554742 
0.6843648555767892 
0 
3.625701277470837 
-0.1169408923041764 
0.06610299519177988 
0.1642575092875502 
-2.329300465886598 
-3.836425120041644 
0 
0.3061303048054980 
2.900416078494933 
0 
0.5867803310020628 
0 
1.033988795535313 
0 
0.2159207866680913 
1.408268985019767 
0 
0.5415837313898892 
2.131198983616285 
-0.1352379622315444 
0 
0 
0 
0.3815413570180199 
0 
2.347918973613306 
-4.494341022629429 
0 
0.7076856259996241 
0 
-0.6880914086807045 
-0.4390631381415337 
0 
0.5880133947944510 
1.219010906534857 
2.700803095722410 
1.204679538019048 
-3.277189761662649 
0 
0 
0.2311623095169743 
1.424359624056253 
-0.1134185616075281 
-3.127330201322276 
7.416940915406144 
-0.2249939439690358 
-0.6124861093560998 
0.4482878206296481 
-0.7559871847516271 
-1.387031427470166 
-1.874264843389875 
-0.5141377911678874 
-1.766723578739579 
0 
4.772320525736688 
0 
0 
0 
-14.12160259581771 
0 
-0.4385333403283910 
0 
1.732573399162909 
-0.1174399828789863 
0 
0 
-0.5163185447056531 
0 
0.5341309018725887 
0 
-0.9424737939145624 
0.6520566441903286 
0.09971448671107999 
-0.7432231057621453 
0.4427315581152832 
0.05152306418267727 
-0.04128459004231063 
0.09910194678140644 
-1.074454087403303 
0.2124928213386646 
-2.064225712580869 
-1.061369164981322 
0 
1.841276224716795 
-1.612412320634257 
1.057961351618642 
-3.020156759415479 
-0.08298634656225141 
1.341584261127171 
3.371992075012342 
0 
-2.104298487397317 
1.159506285347412 
1.253596156707422 
0 
-0.2630913921047571 
1.834765417496697 
-3.244006165701379 
0.6192178554905762 
-0.07150308893543736 
1.678864565945010 
1.049877416680110 
-1.995113855060653 
0 
0.6664324703261078 
2.516629882837543 
0.8100304309873279 
-0.5109193935559566 
-0.5379580559183510 
-1.947104606481548 
1.444363697541123 
-5.080872459790772 
-0.3498925760712963 
-0.8570834391380491 
1.623295179102236 
0 
7.728368817901941 
0.9722030220292822 
0 
1.507841531276601 
1.549983632843176 
0 
0.3723841025215426 
-0.06759398731295493 
0 
-1.232416531329834 
0.09299045228370595 
7.401300626552643 
-3.183498169659326 
-0.9767722921313111 
6.122906898755705 
4.129776454117262 
0 
0 
-0.08800680530074653 
0 
1.553693048986492 
0.6663485605580003 
-0.04111564007494239 
8.191112388024598 
0.7958826015794114 
-2.383904670297684 
-0.9449906123027506 
-0.3431806330613777 
-0.7507639879034536 
-0.8984914226266620 
1.199163956554775 
-0.8366955645532311 
0 
-3.289532623257513 
0 
0 
1.488618649016732 
0.3359128129772613 
0 
0 
-0.2764093740194140 
-0.2357726577152309 
1.713813068214451 
-1.845268925810436 
-1.010401238619543 
-7.494886045376287 
0.3674796449849432 
2.187087876445112 
-1.676384151365725 
3.219374261367991 
-3.807506501375978 
-0.7051712042379503 
0 
0.6791898754941117 
-0.2670192849627223 
-0.06179321600034171 
2.883928683569720 
0 
-0.3886644015722859 
0.3426678575042982 
0.8419412869317839 
0.2525326174213079 
1.651154671929267 
9.128210651870937 
-2.107676972243828 
-0.1221524660032212 
1.454546077715838 
0.6167106975406517 
0 
-4.609316909128816 
1.490378813414176 
0 
0 
-1.556122176775590 
0.3862499862590261 
-1.402438237008346 
1.268537919962668 
1.082478390643779 
0.2208973848493446 
-0.2770174955982920 
0.6205497865661804 
-0.1364931482487665 
2.234242284803249 
-9.950190270707902 
-1.026436654998374 
0.1256445599127172 
-1.380659752627643 
