solver_type L1R_LR
nr_class 2
label 0 1
nr_feature 34999
bias 0.000000000000000
w
3.540628351380536 
0.04868709224428287 
-1.915834699790431 
2.244970487033714 
1.789454009253828 
-1.287600320421597 
-0.5371608295696783 
0.3671957269511683 
-3.495854366591706 
-1.060942051204176 
1.837460471749185 
-0.2453512680130127 
0.5358607616058335 
-5.917009472121948 
0 
-0.2105111745249066 
1.430922346923339 
7.122487784151549 
-1.801363674497088 
-1.133100374531697 
12.35277491948578 
-0.4943794060611223 
1.422864597017009 
-0.9752521542084833 
0 
-3.680802250610610 
-1.052465926605708 
0.7949770754250483 
7.461641941201625 
-0.03301067302028293 
2.557516828711752 
0.6193285984742684 
-0.4612375460704727 
-0.4249415104791696 
1.616203496031754 
-0.7900479299462448 
-0.3692637859893906 
4.518136337800230 
-0.2419522894699570 
-0.7375313975628113 
2.370628232338902 
1.165791016291965 
-7.738244287910352 
-1.277514169544544 
-1.111583405029929 
-0.3524074072473588 
10.22093848541473 
0.03344638640610967 
1.800120315676268 
0.8309149327421694 
-2.244119062787116 
0.5749332150437165 
-0.3258544051132376 
0.3270873088279722 
-0.7160033896329114 
-0.2944811578515864 
1.344454663367500 
9.575816429459842 
-2.256704002045833 
3.641471026326256 
-0.3129099760354144 
-1.730476474093577 
-1.137312655105223 
4.362206277832477 
1.724382446567536 
1.382808149768543 
0.4421435090915794 
0 
-2.388692338291071 
0.8674137100081912 
-2.751633690016568 
1.458856693078434 
-2.629801121477997 
0.05685044393269584 
1.974570088480772 
0 
-0.2522545312448455 
0.1554481965025655 
-3.365421868037838 
3.293617793240022 
0 
0 
1.019639340005952 
-1.790327344460482 
2.018289455385191 
-0.5930137420186418 
2.229509503850515 
3.202384782117071 
2.106135183170136 
11.30500856568783 
1.796774687808509 
0.2837852489192665 
-5.514244604576130 
0.1323522291162698 
-4.739809999850365 
-4.280887033626926 
-0.3479367365421558 
0.4714744736489986 
-1.679006787531208 
-0.8265979100359009 
-0.5120356788861690 
0.7815127340869559 
-2.240448684591011 
4.021343770443977 
1.875027429654070 
-3.166833520933802 
-0.6000591802132739 
-6.813668912677900 
1.033460298892156 
-2.250624675773925 
4.787825345585400 
-2.988459529188612 
-0.2435584518776072 
0.1195010377964237 
-2.389771173015852 
1.022316011521923 
-1.271645554798116 
-0.6468251678074570 
-9.117319794120794 
0.5381585148891415 
-1.404709647931141 
1.374472595948549 
-3.131441891645895 
1.952694261541790 
6.033321944503333 
-1.598645407618797 
1.347910462139167 
6.218202377071853 
8.325543877752079 
-0.8134021013065944 
-6.239674729872157 
-2.092350387999590 
-4.046752145357893 
-2.306030380966416 
-1.093210958195233 
-3.851974537273883 
4.138033487266378 
9.576501960508775 
-0.4099400693991107 
-1.040707562140445 
-0.6140724714228348 
1.910501691047249 
3.386661257937554 
0.01014530497126207 
-0.09907194942046553 
8.982345041192831 
-1.295710505946417 
-2.185139145989709 
0.4855826455869987 
4.656134150670320 
-0.09419455340233390 
8.205372194065083 
2.631062780613146 
0.1239222206666320 
2.069877465624403 
-1.494330884581239 
-1.254885242075161 
-1.009302523086383 
0.3875306254071363 
-1.281991961477349 
-0.01651023439034582 
-0.2518807363550065 
5.771279929425205 
-1.146692098618843 
-3.986093402195928 
1.330421204132184 
-3.951246399963124 
-1.181059454487205 
-3.434537439571532 
0.2008434952370893 
-3.938409897281882 
0 
-3.277266348563432 
0 
0.7906029545832590 
-1.886816366916146 
0.8069991660310848 
-0.7156075269795001 
3.125510236226282 
-0.7101737561660286 
4.632891443126288 
0 
-1.157359035566683 
0.3262984113658167 
-1.155070130645288 
1.292020317890551 
1.838052049503356 
2.495465998133262 
-0.1446136960919046 
0.1621918353783127 
2.653022099522474 
0.3478439521255088 
3.178380926218159 
0.4596427357134906 
1.697257699201856 
0.6023599023671001 
0 
0 
0.7124210778534277 
1.146875268177614 
0.6399323391397908 
2.057489861202551 
1.027291423272717 
0 
0.3294072561290309 
0.03789775501963166 
1.079993023102095 
2.421808332613084 
-0.1808741329310814 
1.294196548074843 
2.702126820743088 
0.1404358604501908 
0.4382330563737487 
-1.110025113584985 
-1.612913287988810 
-1.549084607737440 
0.9872203154661496 
0 
1.436614725809166 
0.1365806769824004 
-0.1586730625206528 
6.614179924448493 
2.568749246120492 
-6.829061120948550 
0.7592952396381238 
-0.5141968898752313 
0.3253480844012435 
1.446152268900663 
-0.05415503557617811 
1.240986215044300 
1.300981648374080 
-5.201903259295939 
-1.740875887921412 
-2.879487235444052 
2.440125653383209 
2.229258661805623 
2.671780489401486 
0.3075114760827160 
-1.336601467726855 
0 
0 
1.498888607495018 
0.8719345431349648 
-0.4166684739164218 
1.840129629690506 
-1.010792426309149 
3.041019910520368 
-2.089686064475461 
-3.324901968483965 
9.934829412492237 
-0.3397341325467447 
1.328952040801065 
6.797130946669681 
-0.2460577737996530 
0 
0.1967260224875619 
0 
-1.290249530322917 
0.5279323624358767 
1.099054859746232 
-3.286565981387782 
0.3979077015821582 
0 
2.244338587084472 
1.204211663748419 
0.2613866852555367 
4.026979577167348 
-1.659216796492217 
4.183315075626275 
0.1546426229485655 
-1.255986663696361 
1.093280699244295 
2.304310344822202 
-1.316153051878187 
0.3118524278804479 
-0.9208700210386163 
-1.751582716323746 
2.799309757878354 
-2.786469666571676 
-0.04479026578443063 
0 
-1.341969108590838 
-0.7825293537364894 
-9.219693273856018 
-0.4149361037842933 
-0.4784190681282683 
1.926972953728251 
-0.3350617274752661 
-1.785634514599156 
-0.9297798004517956 
7.799496043361047 
-1.368748294981184 
-0.6077525176844010 
0 
-1.164533616904062 
1.436508685206315 
0.7185212487218295 
-1.752917933587941 
11.10821090780004 
-1.309178058169181 
-0.4035091226486868 
0.8845741338592967 
-6.355909370445923 
-0.7934622975761652 
0 
0.1720203286391654 
3.033834754894851 
0.8235813771181225 
5.202173795854804 
-1.063765594420734 
1.099282971782544 
-0.05890165834650993 
-0.4367462996712921 
-0.2211870615167798 
4.523766765770473 
0.6900094768321968 
-1.033800315850901 
0 
0.09164712763411756 
1.091716387647232 
0.03981859001481627 
0.3464516022363048 
0 
0 
2.549030904292548 
2.005789475844408 
-0.4655137593276830 
1.455806274669585 
0.9198630312856755 
-0.3458399786610337 
-4.214785434198218 
0.1299222426861613 
1.485308017517815 
1.052470714011119 
1.169267202341567 
0.2526539730823279 
0.1032848281116171 
0.09815627357510315 
1.540385915627027 
0.4247179457018825 
1.258626165969849 
-5.084631510037966 
-3.701736123809701 
1.422144225306793 
2.155015785334773 
0.5799101385042623 
7.367585294643807 
-1.228096629854198 
0 
2.969874064748871 
3.557980708075441 
0.08498057537539622 
-0.9588794656582484 
-0.5078363020190078 
-2.963677622187118 
-2.275686528065496 
1.077094817804267 
-0.2786859874091885 
-11.63585146845531 
0 
1.076362672247788 
0 
2.178101793096468 
2.593943771530994 
-0.1902652297598810 
4.304011164697791 
2.060698668087996 
2.403515250549860 
-2.254724517544429 
1.092948124807156 
-0.8290275041347751 
-1.794381649147163 
-0.5925961780487148 
1.040388657504269 
0 
-0.7224823281442866 
4.938142841853649 
-0.8263174334991872 
0 
-0.1366618234368571 
0.03904628620820350 
-0.3200677937404535 
0.1919634395936927 
-5.499828595934784 
14.27052080028490 
1.186588253575876 
0 
0.2525567854535639 
1.474229784723717 
8.131610372729975 
-1.755235301871556 
-2.122723601321963 
1.076602423022698 
10.95414827823294 
0.1098740838500554 
1.483079120549998 
0.002908557844493097 
-2.892634651862633 
-3.579542111086003 
0.2784958722574837 
2.073577961464358 
-1.101876550505280 
0.4904501839531194 
-2.614536166324235 
0.6923316940668569 
1.374421684206354 
-3.237936061528314 
-2.238255607917183 
1.241059350449904 
0 
0.9763443365614477 
0.4875048814322663 
-4.587706883627982 
-0.2262330161057784 
2.089530686740915 
0.5279701141653268 
-0.2410256678500851 
0 
-0.3985614569791763 
0.8053688984934300 
2.952933177157024 
-6.022724830978856 
-3.577649914842345 
-0.5590877634646674 
3.258453280365144 
-1.337697205377685 
0.1845317499861707 
-0.01143335237401226 
9.491413830102628 
-4.494418173470069 
0.6100568000157870 
0.9196520410689080 
9.740977896446962 
10.70149122170600 
1.416507756481794 
0.4620399832353572 
-0.7332853113508129 
5.414197883445482 
2.928829627325624 
0.1846549850352908 
0.9015833888953980 
-0.6994868775528922 
6.809850408256676 
4.124382913292581 
-0.05211299051552604 
-0.06827357581767314 
-1.323006333001550 
-0.4633167868782794 
0.4081450678062553 
-0.6940618220678211 
0.2382979737853840 
1.824122230465676 
-2.271114382712073 
-1.325168904119785 
-2.561181598997854 
2.425634570503379 
2.451796112886059 
0.08476557604701268 
-2.916020741513909 
-4.658466976848431 
-1.333495141261808 
0.2785074268653063 
0 
-3.254327016983761 
0.1597791180014793 
0.9994180345784741 
0.7659743920068840 
2.960713723460898 
0 
-0.2338575425962972 
-0.4243883456126409 
9.534992427269842 
5.885392510826207 
2.168915170327912 
3.696014971255011 
-2.769553940156937 
0.006291992294097326 
-1.606265735891400 
7.945112826212980 
-0.2641934875880382 
1.248147113878296 
4.043384044366144 
-1.746062280772647 
0.3245256767053610 
-0.4815420420177073 
-0.8906329321320497 
0 
-2.774333169450996 
-0.1737645801253551 
-1.726544483412820 
0 
0 
-0.1714686065693392 
0.9959403244815039 
0.3420383874862121 
0.6467199085087159 
-3.630866281546555 
-2.024644205557623 
0 
5.597684406046807 
9.403027605132943 
-2.821670052462579 
0.2052858819507474 
-1.716482540789166 
-0.06664985864698159 
2.809518045120244 
-1.428809870131601 
-0.4287030449570640 
-2.310896954913832 
-0.2037012336912560 
0 
-1.007296036318384 
9.171794195059826 
-2.070627580895342 
1.883894987446547 
0.004464362341342093 
2.279804170066704 
-3.786419813434530 
-0.2107452018472407 
-0.3945252260756016 
0 
0.6627545046172320 
-2.454523486030368 
-0.03137964905833529 
0 
2.397068311236255 
0.08525717253851019 
-1.058983087609103 
2.316200515942316 
-2.732560971813464 
1.969675610635550 
1.549505069453809 
-2.595164061505220 
1.566874034463459 
-1.834223427345893 
0.4446216443676064 
-2.143022452895830 
-0.9855318323951019 
0 
1.937825979755644 
-1.535973735018724 
0 
0.9993967537557809 
1.281879600295065 
0 
0.03336945064482361 
-4.105046392944039 
1.533096938486179 
-3.271903871983252 
0.5109222072248539 
-0.1801553798688421 
1.375219295975728 
-0.8510118991484350 
-0.7663287638315320 
0 
2.542550965371544 
1.580860132373461 
0.9520841431428257 
0 
1.252057211659468 
-1.696540259979263 
-3.697632062373336 
-0.4929185423492327 
1.900976935121643 
0 
1.777267996849518 
0 
-1.579659006069808 
-0.4197333891941120 
0.4537128350587252 
2.816762615445545 
1.568707361429877 
0.2670936393008718 
3.816501818216725 
-0.4291702171810242 
-0.6778742335211510 
1.930970381334106 
4.324641219375762 
1.906025505156088 
1.560955291323379 
0 
-0.5839425844658690 
-2.779588066867455 
0.9643450622833394 
4.139595210702040 
0.1677518928132862 
0 
-0.5951836542428090 
4.598662614975167 
-0.6285649991196816 
3.903254181029365 
5.100802667700365 
-3.002035522969439 
0 
3.102927796808797 
-6.700348744922238 
4.418355769028040 
-0.3031139505227368 
3.916289686790613 
2.593174839724672 
2.094018306484923 
-0.09029296195486894 
1.432554887165854 
-1.592978717607900 
-1.645561964805537 
0 
-0.6292783154058766 
0 
2.326713761712712 
-0.7602763194458989 
0.2818971659707855 
-1.549729825682835 
-1.879704963873475 
-1.212102329596082 
-3.866792849128506 
-1.436365492834852 
1.345270633631431 
2.089658677204767 
2.307110831420906 
2.367107323808587 
2.655990837179235 
-1.439337967114113 
0 
0.2067323350892003 
0 
5.049048763315353 
-0.08697909179252103 
-0.5242309106759274 
0.07232267679634796 
2.434940012993200 
0.9616792336739446 
-0.7642807828310402 
0.4405172798796071 
0 
-0.3298682612973464 
0 
0 
-0.8493261954069479 
-0.3058900830068467 
-0.3209518729944629 
0.7828640484518642 
2.129464450772599 
-4.363380496322814 
2.108210153533648 
4.762390987114993 
0.3391789494744273 
-1.777009521433683 
-1.722119621987325 
-0.7335097639133235 
-0.1681514700781905 
1.074728399941549 
1.492254281965060 
-2.401625598710485 
-3.795596484375886 
0.8021135292742375 
-2.241202038752715 
0.4287454114457889 
3.448883154586539 
-0.6843963028167096 
0.9616295021990898 
-0.2544250448352070 
0.2182611479882206 
1.147141002165974 
-2.183374213356290 
5.766113004091565 
-2.387766156517665 
0 
2.573055196742114 
-0.3715471162952538 
-0.7390467090699739 
-0.8273187820667848 
-1.716288848934335 
0.5358670578228419 
0 
0 
-1.097926236517885 
1.189165076661499 
0.7140965603294938 
1.140930076815630 
3.400381785814410 
7.581411610450734 
-4.439853809822763 
-0.2261326230087093 
1.426133754798174 
0.1118857120091825 
9.375842434581763 
2.069298113927251 
2.187829126102288 
-1.081872585909136 
-0.7215181439572675 
0.05331051247174867 
1.448697710223678 
-2.262817282784424 
-0.9207491935955268 
1.860259931051665 
1.086135259969882 
-2.927630363719419 
0.6105047198427336 
1.764234923869734 
-4.566086577091605 
-0.01914257572465716 
-0.4398115635935256 
-0.7347546236677772 
5.658697723457663 
-0.6844856136920081 
-2.126866153808129 
1.333951110069583 
-0.3346136477896017 
0.2058992271029144 
-1.840421701526208 
-1.906235512007728 
2.683328253417366 
0.8441070048936831 
-1.172368788076346 
0 
-4.508497316237272 
0.8678464742855589 
-2.091088106831137 
-1.673293853790224 
3.815865831223878 
-0.02166055464520085 
0.8821361785035007 
2.130475099456719 
-1.909479178990758 
0 
2.328686866684123 
1.312165655268823 
-3.443144810880133 
-0.08269935724793076 
0.04389978299577119 
-0.4229737171741345 
2.326450143073306 
1.012504238352846 
-4.033742042914145 
-0.3362455777018412 
-1.240785278291374 
2.103097250773149 
0.3794896654743563 
1.308357122425202 
1.158585079277902 
-1.732198793232812 
-0.1977274001465970 
0.2918102231429071 
-1.629551470792494 
-1.427028343146661 
1.657027636819125 
-1.057757183340220 
-0.6599619093697612 
8.558288961596364 
13.05914727823725 
0.2655053751682296 
0 
1.114732327166250 
2.003234757907790 
2.541455756691317 
-0.1264406656139372 
-0.3628611563517033 
3.710088107275031 
1.477852674428452 
-2.303511480991868 
-1.757051590804601 
1.063972099064223 
0.5317987494518552 
0.6506322670239714 
3.920610463784585 
0.3185967147116413 
0.05229544185352331 
1.475621631945354 
2.143705380783485 
-2.942562687647330 
-2.025356184600874 
1.483012557370288 
1.764115676847573 
2.957980027344095 
0.03104201323648903 
1.943811299781697 
-0.4429872628155176 
1.902600837360617 
-0.2871015842384720 
0.1056320501625891 
2.349508524985227 
0 
0 
-1.261041810522998 
0.6641819199665333 
1.401885811239974 
-0.5705306305683993 
0 
0.6428913661672100 
-1.889005659418600 
-1.199949335424563 
1.646016065437405 
-2.750284160321795 
0 
9.940695046467326 
0.4950379415438816 
-3.131035324709504 
-7.579351273951708 
-5.066018283001718 
0.5415116626517009 
-0.5954017543477038 
0.4937882104806803 
0.4631633936425188 
1.600851355403261 
1.557356643501994 
-0.6036045886068709 
0.7404840000864918 
0.2926446327646028 
0.8575728908808731 
0 
-0.6030895641622682 
0 
-2.138403244495867 
1.183628960924381 
0.2566526520405184 
1.541650101289672 
1.335238781403620 
1.664812448011306 
-3.918316287794534 
-0.08603721065434655 
1.110735812840723 
5.142653020997257 
1.340723923978207 
3.813885472624919 
-3.107880895440178 
-1.170510857203182 
-0.2744752730725473 
-0.1999821383657995 
-0.6589947471552480 
-0.04205908408907738 
5.225002405258447 
0.7863286213017967 
-0.05402232429991483 
-0.01836402744621180 
0.1901084559638172 
0.9296690532831797 
0 
4.564606068262113 
-1.806960345530933 
-0.4819250821321397 
5.480465895292205 
0 
-0.3604510764628458 
0 
0 
0.2689702964748937 
3.014199526624381 
9.722544260974498 
-0.1235739797787541 
0.7451470840057232 
-1.388026763614272 
-2.165312310110751 
0.3805357540671195 
-0.3778510873542122 
-2.112227376373754 
-0.1025396654811288 
-4.536398444982869 
1.933339768312119 
15.20949301303853 
-0.5215974948126210 
1.386649022545654 
0.7684508023487299 
0.4741186691446677 
-0.9116243776057467 
1.779340310753605 
0.8369558707630526 
1.319750332529323 
0.7526896420709929 
0.5665927606172005 
-1.705717412554083 
0 
-1.934492293975669 
-1.630445661053153 
1.614796585485472 
0 
0.3682165779689722 
0.9154201014023533 
2.400588163875254 
2.377879670256368 
-5.430738552139015 
-0.2426497558150056 
-0.2507716235174737 
-0.9172892812933222 
2.139788350876333 
-0.1550436588929016 
1.279340175358148 
0 
1.091254439342930 
3.010428586336759 
-1.867689289128772 
0.6054199880975528 
-3.902423497435526 
0 
4.537293056853931 
0 
-1.923664198080811 
-3.324362394507080 
0 
-0.9351390092577675 
1.441211075470876 
-0.6618361908223281 
1.655255377068760 
3.736914623245564 
-0.7072619142445281 
0.2133364945418756 
7.784108285215400 
0.4584228329240078 
2.993326987785343 
-1.219781196221725 
1.116910884882159 
-0.4195216935078008 
0 
1.227721103959983 
-0.1606091039200501 
4.912786209273707 
-0.03182360312908283 
0 
-0.7957220290761529 
-0.05517841946953287 
-1.144140055967211 
0 
0 
0.5481209693138618 
-0.06931762281112466 
-0.6407430952556142 
0.7107042040098452 
3.981742859651807 
1.117115639581141 
1.201777453030102 
-2.437923075325247 
0.9780992234457104 
-1.900947641811170 
0.4513236923259208 
-1.096717804895004 
-2.988286365812322 
-1.519745206968651 
-1.274882519519101 
0 
0.2862209807960272 
-0.5996936671969213 
1.036916849350010 
-0.06514207542512726 
-1.621020934366753 
0 
6.509141580043751 
0.05375513079403633 
4.702331420289956 
0.4151870203463173 
-1.913567238649328 
-0.1060176978380413 
0.05393530878044757 
-1.559892590512384 
-1.035210052513485 
0.04380071507567340 
0 
3.961591276093323 
-0.4688847214548297 
2.645167764843440 
5.188988668153969 
6.252200252244771 
-0.8442035422266404 
1.435923101626597 
0.1716168813099130 
-1.398416743826678 
-2.601827009282174 
1.202863558922920 
1.728323359912702 
0 
-0.4166517781179578 
-0.3138311079629301 
-0.6132669216357155 
-2.903233343589803 
-1.545080892233564 
-0.01170748294047258 
1.050104738867959 
0.6417021264348650 
-1.553327577361331 
1.286339646790158 
-1.569647819268068 
-2.672044399474233 
1.608389447441509 
0.6398676193504229 
-1.403807443966812 
0 
-0.4586095983537018 
2.498642936475929 
0 
-2.511359860039053 
0 
-2.142052810786832 
-1.213241287800669 
-0.002108337468736920 
1.754704841524216 
0 
0 
2.413394070778946 
-1.203891528300632 
-0.3140558890431170 
-0.6630801965503718 
1.104432378188703 
-0.02503538596002532 
-0.2832929032514145 
-3.748425303106179 
0.7113867837393858 
1.414327750134135 
0 
-0.2091351131221182 
0.2192561830244802 
0 
1.557949674214297 
-2.062226780022697 
0 
3.434876742198457 
2.172781975507560 
0.9487740860225374 
-2.431944287517514 
1.603989434590963 
0 
-1.982959419526666 
0 
0 
0 
-2.392314258865904 
2.876905380391483 
1.044519957084436 
1.370943421779482 
1.711308183672524 
-0.2408893863035631 
12.18862067937787 
0 
5.250693610576111 
0.3426854826224953 
-0.8504592799367838 
-0.9634581968916744 
1.340669966006487 
-5.532629431668126 
0.05718241373541810 
0 
1.815115678652915 
0.2121441702153571 
0.8421667761341018 
3.633234768839550 
-0.5102200092793866 
0 
-4.694659209898883 
-0.6450886283871232 
0 
-1.000504313381776 
2.514795017782810 
0.2961663728408847 
-2.659883556332465 
-1.383692870385045 
-0.8188547149473067 
-0.9818088609959953 
0.6669573009141352 
-0.3056196845065735 
1.217746939798575 
-1.180416560206346 
0 
0 
1.787167231288776 
0.5125125565461838 
-0.2825070708569282 
0 
3.146655683556908 
4.435220676640974 
0.2826428485413558 
1.668939556220199 
-3.014291357331636 
0.06424331459849852 
-0.1589568265741511 
0.5079456591402919 
0.01638942016289546 
7.063072510763012 
-0.08557424070865965 
0.3910691326324177 
0.1423254853046521 
4.419321376456963 
-0.8095114136096390 
0.3251875921088248 
-0.9183635787851068 
1.027772309420140 
-1.477153033578650 
4.339309110136443 
-0.1101158870484121 
0 
-0.9683918836910328 
0 
-0.3308838685054062 
0.01530345653586274 
1.574817589213243 
2.170966462808990 
-0.9146747610973118 
1.427631942926598 
-0.3513719052058801 
4.941794654737125 
-0.01648704005897006 
2.410583142225179 
-3.125802495866148 
0 
-0.7033994923600179 
-0.6535354552460461 
5.082740676655523 
7.561666498410528 
-0.9721128483063140 
-0.6904588409901864 
0 
2.790314267913285 
0 
0.6969010120134576 
-3.763982500179535 
-0.1639381274957190 
0 
-1.357338898320808 
-1.826169064160518 
0 
0 
-3.595387965463173 
0 
0 
3.784828616445212 
-2.315224928589888 
-1.956257726680516 
1.170088452578666 
-1.675928699934907 
-0.001675019766432140 
-2.455115668512082 
-0.2262241279405465 
-5.453097221966399 
0.3063398336791212 
2.557989459514129 
0 
0.4294337982350936 
0.4834088731198778 
-1.140466270399107 
-9.669470900464797 
4.182320390808622 
-1.180610625841324 
0.3237614169831694 
0 
-0.4887857002863415 
0.7498028867996833 
0.8526812336152957 
0.9312765465240884 
2.307461193266715 
-3.330331480242899 
-0.9696607177530636 
0.05036191732470274 
-1.123480277455510 
-4.697749890313803 
4.541542827547438 
-1.932932032096917 
2.138709131055944 
0.1378528639232413 
1.091824888633706 
-1.923391429839138 
2.395136730006261 
-0.3209734611941720 
-0.1960522255161744 
-7.306536835636505 
-1.431348529684678 
-0.5914918651392933 
0.2733611139584685 
0 
-0.9461647167393832 
-2.205801511692914 
0.4429475417616972 
0 
3.168679871693006 
1.917569630950395 
-1.168198178383940 
-0.7744631839502731 
-1.325015190777156 
-1.564019147365996 
-0.7832867593717762 
-0.4659431763337760 
0.8237357370576547 
-2.178247226780032 
4.571493399311662 
3.066643573322133 
0.6410416546311555 
-2.206136774984830 
0.1774070993060561 
-6.037390601195781 
-0.1256358271515337 
1.997225010338878 
1.577118729972906 
-5.734556973984718 
0.7933764144854855 
0.7338953271067574 
4.303626937764472 
-1.528989125781917 
-2.842097911916450 
2.189260733759350 
0.07118492569210405 
10.73480660771145 
0.09879795896614166 
-0.4128329052306162 
-2.752744448064908 
-4.851025926271857 
-1.731744738732322 
1.788096578592817 
0.8576609056057091 
-0.4569429036275501 
0.06499738705896804 
0 
0.8421271831747250 
9.584704912116521 
-1.695102600788641 
-0.5651424836843323 
-1.581315643904808 
2.245912882671218 
-2.321050951521233 
-7.635455845953542 
3.594961564157560 
0.5265586729989964 
0.6771533193535868 
0.9132611862768605 
1.228319059307111 
-1.208444439147187 
-3.201870596406073 
-3.560266781592149 
1.132014041157559 
-2.749026571909502 
1.173123154570735 
-0.1755626793221876 
4.026425105206163 
0.7560609175528796 
0.4188542966878748 
3.949939512751437 
0 
-2.612074221779716 
3.259655592572010 
-0.4326420851286956 
-0.2141613524565145 
0.8341969202999913 
-2.110301090443075 
-2.566300124640573 
0.8863018025299514 
0 
-2.798227061239732 
-1.359893414861169 
-0.5434111829507691 
0.3317858018024579 
2.372388656472032 
0 
0 
0 
0.4236983666191934 
2.337255898244408 
1.924910138237231 
-3.807071322992176 
0.09856837868006585 
1.376151209594066 
3.636563345423530 
0.6496253890932260 
-4.778678356041212 
-0.7817128906110311 
0.1178633989546030 
-0.1178657400742818 
2.719116148525098 
-1.832108533356670 
-0.7731245086469030 
-0.9962426832346116 
1.337661608454484 
0 
-1.372467389684836 
4.098854360105553 
0 
0.7805433436907150 
-1.298640818465892 
1.403475388603557 
6.431159218431642 
-0.5082136508678032 
1.199508254656526 
2.788795172536678 
0.9087804343807608 
0 
0.2487849567650141 
0.005607158383402755 
-0.7874133443490250 
-2.556119576405354 
-0.6932565790265317 
-0.5143951608526461 
0 
4.267412998730044 
0 
-2.009076048518021 
0.5839548965191566 
0 
-1.436558673680485 
-2.168209244141136 
2.955163954546027 
3.345506613160259 
-0.6607278122283542 
-0.6029514847884512 
3.866402716120164 
3.541480603578207 
-0.9786732302170005 
0.004813892563655553 
-2.544959042558386 
-0.9189287236368592 
-0.7642979140279113 
-2.143535909543528 
0.6165011981593465 
8.376395025821731 
0.9262154664537188 
-1.593784686619941 
-0.8791491272515177 
0 
-1.127636290166640 
-3.893476545926202 
4.525643244489803 
0 
-1.277489042699648 
0.4349350706686184 
-0.9748533156797276 
0.2467430056140247 
-2.752636556084367 
0.1128158037457077 
0.01421487953059711 
0.7485959370532268 
9.936103745689220 
-3.782275530287059 
3.422733411897539 
0 
-0.8705501841826367 
10.77202507287673 
0 
-2.024973621118026 
2.843221834615385 
2.515696559372132 
0 
0 
-2.918054833460469 
17.36623882884827 
0.8601585799842254 
-1.393173849256657 
0.3914569993952741 
2.541185428713749 
1.446216993153011 
0.5985894368120563 
1.052626740128061 
10.00000000000000 
0 
-4.063794931100256 
-3.986599326596994 
0 
7.131677121309913 
0.9207956433676203 
2.755486424437180 
-2.348491330915500 
-0.07774875459081987 
0 
1.112876247962641 
0.2987551897022743 
0 
0.7153436116018407 
-1.345966826737508 
0 
1.391744603840379 
2.951259433921473 
0.2238813915432046 
0 
2.093479978513560 
-0.3190005771754814 
2.523077700948326 
-0.4938289335701225 
0 
-0.5334874085521073 
-2.263082466741905 
0.2533045449600109 
6.322623725823254 
0 
-1.390750156886263 
0.3339515566164212 
-2.007235940711472 
-0.5424426178028282 
0.5257735604975288 
-0.5937305026746312 
-3.126894926694003 
-0.5083091427392128 
2.192237849061286 
-1.072387663425954 
-0.1914431387365625 
0 
0.6432279799426233 
1.884095190972531 
1.198393161125675 
-0.8948701500137137 
0.3062366219766529 
-1.285732923605154 
2.362675935935023 
-2.155433907225048 
-0.5368426520885428 
2.824260987018447 
1.083803519876624 
-1.319742687980713 
2.466272681600718 
0.2507925266605124 
2.198657474037408 
0 
-1.682708579444590 
1.268169980530679 
0 
0 
-0.1981885779972494 
1.528459759429561 
-1.318133310237507 
0.1767611876890034 
-1.667997709147954 
1.441826600374431 
0 
-0.7556071235576002 
1.879426958550968 
-0.2354863599593542 
0 
-1.153765548603373 
4.214473490292070 
-0.4917184677849765 
-0.9463983548010337 
4.468417445865111 
-4.723896283289248 
1.739155732906128 
0 
-1.552568646102237 
-1.986330292565973 
0 
0 
0.2079760998255520 
-0.9582217048709241 
0 
0.4347987808308333 
-1.607643725201202 
-3.181560782157033 
-0.1818028106535887 
9.193617694790493 
-0.9322467790304250 
0.7233128098340240 
0.9932640020323016 
-2.572813643967361 
1.029554622421241 
-4.538012303204922 
-1.651454520681676 
0 
-1.990701012640368 
0 
-0.4181542251241632 
3.359069419591412 
-0.7395335217726396 
0.1440118808750044 
-0.5710411991510180 
0 
0 
-0.7125457113782706 
2.754055682142820 
-4.283226178488925 
-0.9225380969245077 
-1.250445465525879 
0 
-0.9127286998213135 
-0.2357582870469557 
0.3943792158469319 
0 
0 
-0.9431661660542312 
-2.786861728940052 
0.3345095985943435 
0 
0.4007902849877555 
0 
4.732139208935379 
0.9351691295176858 
-1.872923269149053 
0 
0 
2.918894161493170 
1.946975983729910 
-0.6828266938060377 
3.469377742491325 
0.9900789062408464 
-2.858295878992511 
0.2374404404274659 
0.1126327066488460 
-0.2150386599199510 
1.327204378352173 
0.08597327625565412 
-2.584037321352362 
0.6908381538220705 
-0.8430035398982841 
0.05075948734630752 
7.161242175413501 
-0.3627844487463660 
0.6514766004869162 
-0.6157510751689615 
-1.642731500227059 
0.06648831548061350 
-0.1681156004575997 
0.4182621895854721 
-0.1105865040974639 
0.2297587605844784 
10.03585601887346 
5.146544787511923 
1.287250583677857 
9.681714649207755 
-2.691277439757764 
-2.401874569087384 
0.3013923531467264 
9.093328665066050 
5.525309751237271 
-3.878051060249097 
-1.165093703592079 
-0.4458606348789410 
0.04192704774665354 
-0.1882015654654778 
-0.07956387124594931 
0.7137399932008774 
-0.2391124125366948 
-1.306792430402328 
-1.765158246484798 
-0.3223594621835252 
0.09813020109195628 
-2.138851333898110 
-0.2875378840878878 
-5.189210341026821 
0 
-0.3463328248555737 
8.016216792918328 
-0.3416718697078502 
-0.7719085716821535 
-1.406155839262082 
-0.7965078130967341 
-0.3030081261340999 
-0.2536321605141719 
6.808238096688575 
8.811168377445355 
-0.4301821417383646 
0.5855845148989713 
9.852606160627543 
-1.226152095600702 
-4.294551810437275 
8.239505829142475 
-2.423570120560214 
-0.9108102429987276 
-0.3223738122598997 
-0.1169551106471995 
0.8514255261762976 
3.338684787125237 
2.754705604999139 
3.329413304413684 
1.126668953476360 
0.7866243907984292 
0 
0.9889398709968955 
3.680261116428822 
-1.208349975024691 
1.499892204818588 
-1.115266151007118 
5.159145683160737 
-1.449398246513546 
1.036067179457188 
-0.1424299201615484 
-1.205611638228679 
4.085592806792948 
4.956871326795594 
0.5155868798709871 
1.506879325036545 
0 
-1.875569830512817 
-2.188719416036908 
0 
3.500672143606850 
-2.523544158972907 
0.5998068968807937 
-4.668330158167995 
-0.7396526135348090 
0 
-5.495960445259429 
0 
0.3756979198525476 
0.1954660225995959 
0 
0.6475891919130369 
-0.06175422975267769 
-1.186456137062897 
-4.735840481405137 
0 
0 
1.214578909736255 
3.276669469517644 
0.06103934594592614 
1.006632006264909 
2.904115743361680 
-0.009284902517454896 
1.655897013874497 
0.4083010535010495 
2.017523722554604 
-0.5329077559628653 
3.031379905942790 
4.224390481585098 
-0.3410654577280718 
1.304518355531334 
0.07981709117082873 
0.2712399681557662 
0.1972264950034518 
-0.3296209917592833 
-3.981075247501420 
-0.5875250257090096 
0.7387466452126928 
1.868522288967024 
2.304956329927734 
-0.3463688190655149 
0 
0 
-0.9396375498501888 
-0.5217996246707569 
-0.1979841544147584 
0 
-0.4764708231570468 
-0.2209892188133344 
0.001174406605562006 
0.1543429006767443 
0 
-0.5637963986775649 
-5.032081008870929 
2.956912483313995 
1.508648763723427 
-4.682999706934906 
-0.4954718730941184 
0.08410289683063740 
-1.684915206881942 
-0.8247107757685026 
1.182546789077648 
2.110821997566391 
-1.975362508042147 
-3.270457998746871 
-0.4675477186315574 
-2.296790833734115 
-1.305453574851205 
0.6930091522409814 
-0.2773076570413364 
-0.5356892200093113 
4.505946853770021 
-1.697280465065306 
-5.032267712859351 
0 
-5.133554378185537 
1.741459763469734 
5.812899575448578 
-3.022749245739550 
0 
1.944768555688716 
3.902948192084033 
2.782386121845669 
0.05419818195286386 
0.1638231677019902 
1.845335948380752 
1.010031984981074 
0 
4.511472574000583 
1.369277738393543 
-1.597628256196213 
-0.4683287120484458 
2.276996624734549 
0.4941939701316594 
0.5513399624328726 
6.658317947210962 
-0.7687022323803685 
1.533793153496319 
-0.6556455041797118 
0.7751677922723729 
1.850838603156072 
0 
2.845964318479595 
3.542969945528313 
0.1297386385107678 
2.791381601391040 
-1.233155441586334 
1.794309158359953 
1.579972984373983 
-0.7467714515427802 
0.4697862760410004 
0.5881218236738468 
0.9410273063512762 
-1.284157596245215 
-2.006612855052718 
-0.3202047982660381 
-0.3494688996067601 
-0.1782076664537251 
3.439615807854627 
-0.3285270355292239 
-0.8382516027968074 
5.087178983639789 
-1.862579596759544 
1.807774323960243 
0 
-0.5257773231146095 
5.652559149726340 
1.162828929189752 
-0.7036767552146075 
0.4729887600331407 
2.684664504617566 
-0.7102313678536473 
0.5895374849818539 
-0.1143348158227863 
-1.568597840407049 
2.249211437301202 
-1.330165780727056 
-1.277161191775357 
-0.2585774257589449 
-3.163042293782304 
0.3873863803591330 
0.9578063766486239 
0.5279815462994293 
0 
-0.7415699248959118 
0 
1.346193953299313 
-3.025124781701028 
0.9470381784887156 
-0.1609582531608783 
18.93189569150851 
0.4264796537890215 
-0.1871123779183912 
0 
-0.5833407343288814 
-2.417342837109735 
0 
0 
4.157576377773802 
0.3168876009381672 
0 
-3.992721249568008 
3.967615804593720 
1.532307703768417 
1.652269974695637 
0.3725390471826400 
-0.1910030627037825 
-1.396294849028434 
0.9469608822239087 
-0.1479205163510963 
0.1463631551669843 
0.1914625888598237 
1.260148683724131 
8.298508574434782 
-3.607922514157152 
0 
0 
-0.02766873357397843 
10.35896385216591 
0 
0.1641103186960943 
-4.053615278127462 
1.483029090422417 
1.160201420165124 
-0.07629684177768903 
0.2509071557694346 
0.8004034069031098 
0.1664431619900385 
-0.8916982075039704 
1.065886943903259 
16.39124045505485 
0.2127604381425212 
-1.814289167197962 
-1.136808868864733 
0 
0.1611646895718197 
-1.008660990636042 
0 
0.2728016907288899 
0 
2.405398979436015 
-1.155822113028490 
1.402312617898502 
-5.470153507192362 
-1.423487406593325 
0 
0 
0.3288866045562996 
-2.885057032837809 
2.688360921509629 
-1.300435745342777 
1.141494505901316 
2.178299089212930 
-1.499623504334105 
1.538497490600586 
0.01595305988859973 
5.588367010491612 
1.541536002367151 
5.037004304839787 
-1.949278855505674 
10.06729935793388 
-2.002055687290238 
0.2969485939640063 
-8.314586345186157 
1.750209644965338 
0.6932807566611402 
0 
-0.9396062072466641 
-0.5857090140762069 
-1.036420973650621 
0 
-1.050055526000745 
0.6672948728985173 
0 
-0.3826305030198338 
0 
11.96902267350068 
-0.6958497481739059 
0.5529819563259787 
-2.487788466660384 
0.7542655202444970 
1.923040176596145 
-2.776514305844843 
-0.4222551402402837 
0 
1.173527271658066 
-0.7824544407276667 
-2.126705624458363 
1.966581458114065 
0 
-5.954479025945664 
5.562595478246751 
0.4870133189818353 
3.334274871633853 
-3.325300931938265 
1.196571767824923 
-0.3890778036144054 
2.349001554519469 
-0.8793198304593509 
-1.749554890855093 
0.7398426685472345 
1.339888500188716 
1.052523184199413 
0 
0 
1.929410392312843 
-1.023990330699433 
-2.858510272898539 
0.5378953656931058 
7.298980363294842 
-1.746393843023042 
-2.494000344131696 
8.042191735342040 
2.632743440619115 
0.5676597879036389 
2.041278029590684 
1.749067070459079 
1.805748558605952 
-0.3347267221394868 
-2.458739329184003 
1.087333752293292 
0 
2.078662413432080 
2.901636682937128 
0 
0 
0.4033721698508120 
0.7503773435706126 
-1.857530927951227 
1.805157113490925 
-4.971401622575554 
1.497784920265149 
1.221877944541776 
-2.077101329012072 
5.599592633475295 
-0.5492471089494071 
10.27115494469817 
0 
1.521793052723582 
-3.633130814959393 
2.323954044491724 
0.1788786714360368 
-2.884135024683844 
-0.2375454774524614 
0.1907001904642796 
-1.656411865092018 
0 
0.5331849644641397 
-1.116795171309538 
8.521868381202387 
-1.011816151732288 
-1.010935524291944 
-0.05124611041541027 
-0.8137629062739504 
-3.325737761348704 
-1.567134912558029 
18.02751685380287 
-0.06799888544320944 
0.1911890834121292 
-9.606828341281595 
0 
0.5449265639485368 
0 
-1.232456865420277 
0.1974027706085612 
-2.806736398620325 
3.606986583094157 
2.519753790959016 
0.8149127746592980 
-2.376007421498842 
10.28045759823835 
-0.2401323381532243 
-2.841107293675339 
8.706643061835209 
-2.460363034160225 
0.7890569462441585 
0.6491095323752287 
0.6106689685958342 
-0.7752539864038072 
1.157962375591275 
3.533664201287911 
-0.9273211413768232 
0.9903764792128713 
-1.799775693014389 
-4.405397573252605 
-3.279055904864630 
4.146226526546267 
0 
-0.7923516420892402 
8.058979087740030 
7.125258499326076 
0.7104732195490041 
0.1748369310456715 
-1.258119069558664 
0.4581963398957271 
2.380688388269576 
-2.155638856153929 
-2.546838284315984 
8.915701747771276 
-0.5526181914881403 
-0.2781741717079260 
2.534411727444392 
3.866556873545645 
-1.325931077379539 
0.2376259787091979 
0.2867918972640868 
6.003126319088600 
6.506978293080938 
1.976998437200812 
0 
0 
0.3326613836070839 
-2.282852895613407 
0 
-0.004132289489425067 
0 
0.3040455077317892 
0.4666654668573934 
1.515409152297027 
-4.305223528342627 
0.009600996428132170 
0 
-1.358338730358641 
-0.2528958138433968 
0.2332288046130707 
-1.778296544116965 
-1.209580033044112 
-2.214399149673544 
0 
11.61647829744181 
-1.232137364096378 
-2.241223941295718 
0.4641051991946231 
-3.424836558145802 
-1.772566670218059 
0.06870606482683232 
0.6474259820215081 
-2.729628332208126 
-1.173807295143898 
1.640129142362820 
2.189778303004978 
-0.4705910261968767 
0.7269498895173735 
0.7615183158044330 
-0.9474952445055312 
-0.07303773934510029 
0 
0 
-3.548276004557649 
-1.311605106010823 
1.177629018802166 
1.066432253238015 
0.7243895903678570 
0.1906456474951053 
2.574130378705898 
-1.310613381893660 
-0.6800340420071129 
1.909757142910610 
0 
1.202468055646055 
0 
1.205981375192355 
-0.4116965252978072 
1.087345435727777 
1.789045495600349 
-1.885299578171323 
-0.4568404339765619 
-1.266282208416606 
4.768241786010255 
0.3697780985372544 
-0.02612875098597411 
-0.2460577656978724 
1.247457122321768 
-2.664247302136069 
0.1506447642096049 
1.646890083172086 
0.4847842613067113 
0.4467293413310081 
1.703009582713402 
0 
-5.004630571003911 
-0.2226773900977351 
-0.7297040037418816 
0.1949919367998001 
-1.604539639191498 
0.2308616828299594 
6.899748634814547 
-0.5412042906895974 
0 
-1.165032107913518 
-2.497117976060216 
1.226200977804856 
0.03053733907280334 
1.739187364750351 
-2.116633711626088 
2.800095534930109 
-0.03889228408242423 
1.052866254106118 
2.774206056239075 
0.2826865212242927 
1.671811656872082 
-0.8134159313129606 
0.03411420075462096 
-1.670880505860300 
0 
1.409659773324618 
3.308468435263317 
4.428221808382050 
-1.247984461890368 
7.281154604133675 
1.674024473644617 
-0.5675452142547899 
3.891931759117481 
1.996832520770132 
-3.059014423330389 
1.666193562689438 
1.727162593253981 
0 
0 
3.510981908718880 
-1.797043651244304 
0 
-0.3041003852473154 
0.2208917009868775 
0.8590488734346028 
1.671525146034485 
-2.439816085950356 
-0.1811920550438718 
-1.939530142967267 
3.458310067468788 
-2.912616272587523 
0.2109946533425204 
-0.6820810111103189 
2.771530656731849 
0.7099882054161050 
1.398843255234345 
1.985208389121252 
-2.798527301411316 
0.4628040742420649 
-0.6922663324211660 
-1.167058224699332 
-0.005701000219111962 
-0.5340774536546599 
1.865111519066022 
0.05052016624910982 
-0.3038678348798133 
-2.129519747216837 
-2.822365656709775 
2.041991420541543 
0 
1.722957514599374 
-2.146550566409564 
0.4502477890500343 
-1.529727825425589 
-0.04483156806970937 
0 
-1.194154726163387 
0 
2.577416283921964 
1.258575488491758 
2.724463312425394 
-0.1060094925376678 
0.9514630586973309 
2.414278091588870 
0 
-1.703298146072373 
-4.192969016324587 
1.426646066617128 
-0.6635380996244955 
0 
0 
1.928157142148903 
1.181831849421144 
0.1355767425912347 
2.336558554806872 
0.1724801298381499 
1.016422195933592 
2.651871261448294 
0 
-1.454390854115608 
-1.029744638851222 
0.8435550510204611 
-1.569371459334564 
-3.434498043558765 
2.023444097820469 
2.182899042378446 
0 
1.972893029099329 
0.7339882860664325 
-1.801662425324736 
-3.855625446984176 
0.2239511748085167 
1.951226123614669 
2.340401811722420 
-0.2414182824303966 
0.4073315954968227 
0.3703127961009446 
3.495655290139959 
-2.191405723381308 
0.01204590499867075 
-0.9358758183697629 
-1.574651554069526 
2.721144521895485 
2.709534283791266 
-0.1401185274185259 
-1.645531083633675 
0 
-0.3733519334668935 
-0.006441922047275894 
-2.945968772878574 
0 
-0.6557935846728709 
0.03451976498492237 
-0.6197505510709345 
0.6757033642464390 
-2.530507690815683 
1.209183528816980 
1.133314591817114 
-3.637978797689291 
-0.09314023620196177 
2.251028767867668 
-1.519102954899907 
1.832332377925575 
-2.854751332309272 
-5.653898045454907 
2.853962583966233 
1.352558781734671 
-0.1447349151141758 
2.898290372261263 
1.845595943524584 
-0.3700264867258323 
-1.852436384167390 
0 
-2.060860731954435 
1.389798699359856 
-2.838728771265719 
0.9694734282732491 
0.1996244992283480 
-0.5841060494087235 
0 
-1.525858099277153 
1.229039584834147 
6.177490351465585 
-0.3727101559863307 
0 
-2.147888382141880 
0 
-1.952139283912174 
2.305191150213830 
0 
-1.269525620747463 
0 
0.9354553623820150 
0 
1.248347365434142 
0.6582494295364731 
0 
-1.291659990687911 
-0.9669042152831695 
-0.1733234721564603 
0 
-1.798160874825181 
8.498498322591680 
2.753458015091128 
1.388656984634226 
-2.862630794430197 
-0.3368272505243244 
1.637632295966075 
0 
1.495941685328059 
0.1234420106564506 
0 
-1.884021242234929 
-0.8295150794553028 
0 
-4.617694023608386 
0 
0 
0 
0 
-4.947852649577686 
-0.8513004258248322 
0.6834776437559674 
0 
0 
0.9702947191379236 
-0.8511751790801544 
0.2570177658205392 
0.3194164907430636 
2.156027476129266 
0.6841282184966820 
0 
0 
6.199807020707982 
0.6546056195115918 
-2.986517602994950 
0 
0.5612972561327131 
1.882691081217804 
-1.370059559972735 
3.779860216597653 
-0.1504705157824446 
0.7173508223901393 
0.1732289005502216 
0 
0 
0.7931636776691790 
0.9399206003525266 
0.7671988142852535 
3.824490261980969 
0 
0.3124886947175679 
0 
-2.713822714675110 
0 
9.974748536228928e-05 
-0.07178831394131396 
6.300394928955377 
2.214789608434805 
-0.6357148608704966 
-0.5707830127471081 
0.9149396735236811 
0 
0 
3.591072711862766 
-3.573463638896361 
-0.9475356617648749 
-1.079262411086042 
0.8089060776958537 
0.2862237047728993 
0.4193980195150712 
1.130738550091716 
0 
0 
-1.198027215045360 
-0.8123703642835416 
0 
-0.3711141534004073 
-3.147999223579685 
1.272724904543320 
-2.622776312916844 
1.607063052022983 
0 
1.606233064975025 
0.02005465782027885 
0 
0.9481494904739565 
0.5642669833754839 
0.4041275744788063 
0.8708964710468473 
0.0005838432388062115 
-1.883641679759507 
1.139998776554222 
-4.239634891733297 
-3.542221103582370 
0 
1.387761686044295 
-2.520530461705097 
0.1825543856359959 
-0.1720050247910023 
0 
2.591147996102324 
0.08068624346216985 
-1.706535006692738 
1.173348751434098 
0.6327535008024225 
-1.983355853906670 
-3.712633064800043 
-3.464274780445916 
0 
1.450857994384631 
-4.427784744699836 
3.580593827908473 
0 
0.6390809326001330 
0.4159341573663615 
0 
0 
-1.994020468218347 
-0.2437393126936487 
2.601802365314436 
3.298254405729466 
6.253655314923634 
-0.8586369677736827 
1.048742932287083 
0 
-1.317494732064774 
3.204351947554037 
4.787845783696415 
2.405835107354833 
-0.1533382111597655 
-0.1381743123700185 
1.799626646169590 
-1.140595024218199 
0.7330136724898287 
-1.282880473566512 
2.882538399514821 
-1.268466082802827 
1.141355528247786 
0.3004311789528149 
-0.5222344658444913 
0.5674892499659929 
-4.509260079558712 
6.758652116917993 
3.377740488579320 
0.06389619226253818 
0.01704321453767185 
-2.211070781159203 
4.827024418056424 
0.6917963014037083 
1.163423751629657 
-0.4524807716116610 
0 
0.9430288006715160 
2.622575186301236 
-0.4123750572069318 
-1.190750369115024 
-0.4050989435163984 
-2.224619362428760 
-3.154369879851255 
-0.4308725708823457 
-2.756962187381873 
-1.499251740691691 
0.5671477141768342 
0.1692706562252542 
0 
0.7207634853469416 
-0.6932856326042127 
1.092404201793040 
0.1232040336020355 
-0.005240523130285793 
2.303556049703930 
2.338331397431586 
-1.062421083713967 
-0.8991780271643130 
-0.3249102581049820 
0.7843135534507863 
0 
-1.091350387683706 
-0.5167506342180749 
1.493611419166273 
1.396715071330574 
1.986714860633829 
-0.2025919533295965 
2.318619273585490 
9.898046679493845 
2.883900997434763 
-0.3450393814618909 
-0.6959575332024406 
0.1292152042421559 
1.466286817063338 
1.184242453953648 
1.859963172421077 
0.9174446163872425 
1.858356187729393 
-0.1843139829126258 
1.592921750452245 
1.286531070046936 
0.6741582663661129 
-0.9073537566417028 
0 
1.106667696335888 
-1.663676166346188 
4.146036981058945 
-0.6659996444489714 
0.4088564992644423 
0.4381475934568234 
0.2985584562670340 
3.877992364664085 
0 
1.482358724781965 
-0.2970728522723458 
-4.954245215181077 
-3.293357675622297 
-0.1772453664593821 
-0.6378894790120467 
0.7559738687832823 
1.015834829040117 
3.436081753225878 
0.6756856330647434 
-1.178714651577973 
-1.171366142652538 
0 
0.9741207699364863 
8.555987166197882 
-0.06630230692946135 
-1.885895300421707 
2.593955234566636 
2.923308864206362 
7.780394721497107 
-0.4599492928434886 
-1.190736112949772 
0 
6.658142243718392 
-0.3512788356878477 
0.2276838706133153 
-0.4524166841040114 
5.694093446782636 
0 
1.179195195477242 
-1.616233408148464 
-0.3424045773136245 
0 
1.032187248782950 
2.328018439233504 
0.4711429866099761 
0.03729805116428220 
0 
0 
-2.275483246888409 
0.2805947460966020 
0 
-0.9895992425472111 
0 
-2.264978868121896 
1.709875836388526 
0 
-4.534243271942806 
-3.956964597226543 
-1.098827258132247 
1.022453624792390 
-0.4715806595590573 
-2.812311341908085 
0.08073593617543504 
-0.1334218186377525 
-1.058285947455304 
1.996301314374713 
1.268839725097765 
-3.423721921746989 
-5.500990392953781 
-1.092532267094101 
1.192975007285829 
3.726261856015769 
-1.148040927861752 
0.1342356085232401 
-4.630727347098919 
1.016082667760160 
-0.3616965905860539 
-1.774716036536156 
-1.740784645388215 
-2.620628943507358 
-2.175455929386178 
0.4836647017371623 
0.9038169654304651 
7.878447371947706 
0.8966979747946568 
-8.995094039494198 
5.648027830764359 
2.172874327409580 
-0.8746892017121655 
6.540412742560498 
0.2287783425285521 
-3.658445332095349 
0.2641586738624535 
0.7348460701380463 
1.357368764869890 
0.7520519080474959 
0.09739521506870319 
-3.892897337001352 
-0.8729166488184193 
0 
5.777663594624625 
-6.043252798660917 
1.761017944047397 
-6.357915076279821 
2.563386910103206 
-3.745730727499925 
3.134869951376214 
-7.203838594751479 
0 
-7.194225607849946 
-3.707778387917045 
-1.920271241309485 
0.4799190547672289 
-2.248045842968639 
1.787716508618011 
0.7945380316496615 
-2.188211997109494 
-4.652094675366127 
1.548721350126559 
2.366114424248788 
1.898097444276183 
6.918073659826360 
-0.6391662628654144 
1.181914020552380 
-1.053040356280055 
0 
-0.1945432497516870 
-0.1017792746412425 
1.068894027927968 
-1.912396592503158 
-0.2667126206916575 
2.310130612796423 
-2.073253916476938 
-1.049322078876615 
1.578174724244579 
0.9378566100223625 
-0.2951872359037967 
6.226274215183518 
-0.3018856214034041 
-0.9754928951065550 
0 
-1.038529429747398 
0.6051738033977657 
0 
-0.8296112574895360 
0.7077973524234856 
-1.491188354161064 
2.051692562421003 
0.5051324478672203 
1.073628660777644 
0.4289864338612756 
3.180538207098838 
-0.2769544354683202 
-1.280909011818002 
2.136063724715909 
1.181703092964324 
0 
0.5826994406636136 
2.477808326232541 
0.4230703163656016 
-2.150186772914616 
-2.585777407186997 
0 
-0.06599854343742942 
-0.8117925118563452 
0 
-0.2858751287712930 
0.1543928329155984 
1.077192445328457 
-0.7128812711228601 
2.018715102176986 
-0.07235839209747963 
-1.742429391330460 
0.002871323540122789 
0 
0.6820533980691996 
0 
5.638350486906281 
-0.07659788959354663 
0 
0.9664479548574971 
-3.119344176166697 
-1.195807736996427 
0.7017312985239881 
1.074562338534384 
3.149890121028340 
0 
0 
1.332581500468756 
-2.516061700101045 
-0.2488920521485282 
2.167194990617717 
3.887031554409913 
4.691030312144891 
-3.153287812551866 
2.149196334628361 
0.9743120971622523 
-4.815478638144529 
1.767361383658830 
-4.951141188084790 
1.900229741536807 
7.875653712665766 
0.4115640950152095 
-2.588321755877107 
0.9095508477392429 
-1.881438798433819 
-0.9919585901843792 
-1.204226388613617 
-0.2577599061846345 
1.289656760500985 
1.840890036798205 
0 
0 
-0.8037074515978172 
-0.3294734660725117 
1.290195840975135 
0.5191141870722931 
1.219848287991131 
0.3040361503149811 
6.008374477970000 
-0.2433146447730429 
-2.547011270623644 
0 
-3.479965961647414 
1.214619391937641 
0 
5.247393131581032 
0.3832084479276998 
1.238735672406136 
2.550549448437941 
-1.137215953335334 
-1.541542055886016 
8.487933695242049 
-1.215188717664244 
-2.713608861590873 
0 
-2.201720818961423 
-0.9053858882467185 
-0.5889347437011959 
9.225157887984473 
-0.4729087207089098 
0 
0.7587995097927802 
0 
-0.5324964967680725 
0.7168232918305077 
0.3171412232305242 
-1.026599761558422 
-0.7325174235400773 
-2.551668008330855 
-0.9877292028646278 
-0.6678031550917901 
0 
1.403657557393925 
-5.334898660634710 
-0.5600896469224395 
0.06845499061158763 
8.126176538675306 
0 
-1.097776507999584 
-2.399346918206306 
0.1950231368613207 
-0.04160380345997603 
-1.408613624097443 
-0.1296962149867896 
2.299403781520145 
1.668449031079382 
-1.566761855267223 
-0.3453880494233845 
0 
0.8746421962024526 
-2.144391217348588 
4.303491560019730 
0.08710209898032440 
0.5829711080312042 
0 
0.2832732632843653 
0 
0.8194277044990370 
-2.268597184686776 
-2.558515194353114 
0.6047419701895329 
0.7180191512797904 
1.525234080408697 
3.060005669324759 
0 
-1.629883892874592 
0.1504187255485165 
-1.522091874425360 
-0.4931839191507056 
0.6195707345408097 
-2.047835671423412 
2.823145107612160 
-1.610137175200246 
1.627809275835046 
0 
-3.535649672150145 
-0.8184796394914756 
2.523067380847113 
0.8345383893370444 
1.664424058392698 
-0.1287385329075926 
-0.3032568347166431 
-2.690264463592767 
3.560118145922524 
5.900153166743590 
-2.582229917426335 
-0.6948591691298862 
0 
4.477507135984053 
7.687934110256439 
2.117844019460633 
-0.2752323956873122 
0 
1.511570635130931 
0.8765318320629842 
-0.7508768234802958 
0.8487452369062545 
2.030062066138682 
0.5306736265553361 
-2.838597523730547 
1.093749508593524 
-0.08582024776400530 
-0.6241660012197983 
-2.010244020643417 
-0.5974802553842375 
-2.984941547258033 
-0.2995298730571564 
-3.859930635382645 
-0.7113064917637237 
0 
1.640757485701117 
-3.047185619785192 
1.205956831045581 
-1.827580444044052 
-4.115126246333688 
0.09702020869520628 
-2.872042483109320 
2.358165136997199 
-0.4600378571571080 
-0.7390687175162571 
4.062554295814896 
0.03388345367317781 
0.4944907104258590 
1.923841193353491 
0 
-1.845170728585922 
-1.867960066889705 
-1.677602808843572 
-0.6692787309899026 
0 
-0.1703250321377714 
0 
-0.8685899567101225 
1.124976342361867 
2.840062397057323 
2.386676511725244 
0 
0 
-0.5505255402958563 
2.729681588850173 
-0.06223918749889378 
0.7793391882776319 
0.2067967222963709 
0.3419384557449406 
1.141766787358626 
1.038693644077572 
-0.4503834276411524 
-2.631653649541430 
-1.197848567329989 
-0.5052542120886563 
0 
-0.7100705557054561 
-2.173024270120040 
-1.254122594227572 
-4.278784741189823 
-0.7400260344319449 
1.389678777224302 
5.664343330151054 
-2.191349597874597 
0.1871972912957754 
0 
3.495009612097153 
-0.4126313819490332 
2.042631943934342 
0.4949770238466102 
0.5054748828096178 
-0.5169919465288676 
-0.3475066053574447 
-0.06316817759202936 
-0.7094632376949811 
-0.4134147568660871 
-0.7783581104325736 
0.3386886208583291 
1.491183014116949 
1.280314575640218 
-1.764589038649149 
-3.911283180458666 
1.648083184348302 
0.4145492517522887 
0 
-0.05016197956090163 
-0.8578612942463192 
1.778458288279025 
0.1175723725831257 
-1.459679825301478 
-1.323228702664531 
1.329282478774126 
0.5807326747997932 
0.8572718841465066 
0 
-6.173684716626616 
0.7727387218752519 
10.06985250212374 
-0.06200636957433930 
-0.3778469683537337 
1.766374098275517 
0 
0.8089260161839497 
-0.02844571846350052 
-1.211786947781523 
0.4876423108321663 
0 
-0.1834445852112161 
-3.833877612231391 
-0.6901076658883654 
2.391702959163378 
-2.912255936162957 
0.3301389021523494 
-2.057790936370882 
-2.067432340909905 
0.5740987527168643 
-1.520528197999311 
-1.881505179441224 
3.136614699369060 
-2.820987044920838 
-1.843271393389686 
-1.651563070338886 
0 
0.7513009648953870 
-2.725160855997736 
0 
0 
-0.02090091312238906 
-2.248480003237270 
-0.08733243951329361 
0 
-2.823680388333306 
-0.1814247411441343 
-2.365942552220780 
-2.249403242495687 
-0.7377602484711465 
0.5230242148498747 
-0.7519547897955499 
0 
-1.165268960154694 
-1.126589309822134 
1.211195641195314 
-1.523936768229481 
2.087745579011084 
-3.411556830305225 
0 
1.574942732765578 
-0.2794460611689515 
-2.198163302971806 
-1.617841333448337 
-0.1687691553992129 
0.4635220067437639 
3.169795466703114 
0.5831582236841172 
4.309625388281182 
-0.6836466394719369 
-5.559615741348745 
-0.9039773272469493 
4.411329132069565 
0 
-0.3553781378092416 
-2.678255560692403 
-0.3197976045611625 
1.862973762189488 
-1.802165044535518 
-0.1670885002094464 
-2.050674895975052 
-0.3128275880623678 
0.2147478753415452 
-4.613275142165475 
-0.02582000163856135 
-1.304002830104982 
-5.558719300235790 
-2.862216541653172 
3.905160102303797 
1.513163667070880 
0.1033647251800712 
4.005189921487730 
-0.6416075769234052 
-0.5482847804655092 
-1.103765646312398 
0 
0.9507266850577685 
1.646733557334634 
0 
0.7764808828005126 
0.7407692731455740 
10.06855935196110 
-2.155190783709676 
-0.4210946654387371 
-2.874951797796278 
4.053120236679067 
0 
0.7257584067943429 
-3.357192117983488 
0.5936544422654746 
1.011809145761495 
0 
4.570123247442552 
8.145104821356610 
-0.5193324831377126 
0 
-0.5260821563621780 
-1.639399945930300 
1.084511600201460 
1.138198715310731 
0.7898655627043837 
0.3760046087335276 
0 
1.143415157249402 
2.835476541302581 
-0.09829524182633242 
0.03134172145099351 
-0.2217662768718524 
0 
-1.801499489463610 
1.607328112211021 
0.4606134019644348 
0.8340994045761455 
0.04283251872593272 
0 
-0.8158217244859182 
-0.2933647572579414 
0.4840111539360624 
0 
-1.247735576970266 
-1.173437770322958 
2.167273297255184 
0.9677171573874823 
0 
0 
2.418845059475856 
1.974246520696746 
-3.170484954630832 
-1.736922324734613 
-1.234770333287683 
1.914258772048153 
1.678879642918364 
0.7105691461897172 
3.501162669540961 
2.810895779624075 
4.108432710261333 
9.365119442743637 
0 
0.7116143504040616 
0 
1.263784815538350 
9.892178948044770 
0 
0.3906334351236361 
0.5614675287000213 
-0.4242662777865967 
1.586533246463215 
-1.552355202165372 
-0.8185381890277351 
-0.6006757331082070 
0.1979154096493047 
-0.4214336735423024 
-2.077520264682211 
0.6932648265617273 
0 
-0.4383134579416828 
2.911080272504581 
0 
2.481542380516484 
0.07516457823713796 
2.354193408149857 
0.3477152596228670 
-1.533908703256925 
0.7155339317123384 
0 
0.7621109965918681 
1.941933076156152 
0.9029547996740115 
1.887182239005940 
-2.405633457060546 
1.760213463477546 
-1.171660445249089 
1.658989741218159 
-1.009845862943273 
0 
1.158896992393260 
0 
0.7760790101436978 
-0.3298557307971431 
-3.167458088100157 
1.510533607851871 
-3.207987507660826 
0 
-0.9838911782734554 
0.9988552232926003 
-0.7642773619923899 
0.05940047893425626 
2.802836192441592 
-2.240503554659936 
1.199986608648114 
1.258840836922185 
0.05535298479374784 
-1.885942281256941 
-1.708315307387976 
1.003846080686606 
2.842671354749387 
-0.2457305082915274 
0.9556388129513465 
-0.2542661413105616 
0 
-1.561660249664016 
4.107884704239399 
-1.273492189258056 
2.806967174727719 
0 
-0.9881073147485623 
0.8057560222475855 
-1.397004667897883 
0.01473894442517343 
0.05897013302514176 
-0.4855107858461939 
-2.631489402989085 
0.1693428189286912 
0 
-2.288215928069616 
0 
-2.128368446000490 
4.599490862879723 
-0.5070356346309650 
-0.1755767718370753 
7.797385120744533 
3.242190060203692 
0.4275217726262248 
-2.106493517038731 
0.3008030100797731 
-0.8824587893710828 
6.643765659254736 
0.7124798574809890 
0 
-2.163207488003293 
-2.621624048047192 
0.3585211214279845 
-3.317259527587993 
1.008720692443633 
2.213798299906351 
0 
-0.1973776876260234 
-1.651686609312270 
-1.123662951825787 
0.2317189392511955 
0.1460062444291060 
2.531489994433974 
-0.5172615257815937 
1.656985684932387 
1.016632860588899 
-0.4896911652931560 
0.5342728220629213 
-0.3940955518962437 
0.5425838573433660 
0.6725268367627141 
-0.7807594728042322 
2.250030715554549 
0 
-0.2952205005968332 
-2.494257684185411 
3.000837668828801 
0 
-0.4825317641168438 
-2.463111862776576 
0 
-1.322383719049469 
0.4853762957010875 
1.832199133725615 
-1.101850011484360 
1.353415531696520 
0.7197162666805728 
-1.126839195139767 
3.274723022320103 
0.9901850531576456 
0 
-1.532305379766173 
0 
0 
-3.434686236642235 
-0.3643229068842526 
-0.09021738497923582 
-0.4543932577913147 
2.225498178822805 
0 
2.499602612942523 
0 
-0.9201451649569582 
0.008797216779414030 
-3.096558360290556 
0.7043023005085217 
-0.8878830898578769 
0.1074935616645045 
3.341656825174728 
1.812402125554782 
0 
-0.2762593333477228 
-0.9698739204400755 
-2.740995569573901 
-1.434918985964469 
-0.3070543574743365 
-0.9826867095870069 
1.857353132123967 
0.03170179074911017 
0 
-1.988465093693356 
-0.01925160907801271 
-2.307757532591334 
0 
-0.2725282728404234 
0.9914222759070949 
2.234985365319352 
3.495200175459879 
-1.724274908502685 
-3.025549263603982 
-1.270269624567252 
0 
1.412710984812866 
-0.3309035233313716 
-0.8304961915446343 
0 
-1.776933494810548 
0 
3.376058127984877 
-0.7051038858071679 
1.614398398314684 
-1.452099329156062 
0.9300333578831448 
-0.9025190892121897 
-1.715378320581400 
1.459221609593616 
2.506311009592071 
-1.108255455195699 
0.8618546809977535 
-2.570188393963582 
-1.374786361745927 
0 
0.1997603164368729 
-1.374256365013757 
0.3308576988641383 
1.276682465847273 
0.3210162045115218 
0.4565041661120808 
1.726507536161899 
0.2138142725094231 
0.6010408965921614 
-1.068019090145454 
0.7255843990690967 
-0.05528854087256669 
-3.241748412020230 
-2.048917779732918 
2.512382247996696 
-1.674414916279027 
-0.2589738814945812 
0 
2.173349885604054 
0.1337506879215081 
0 
0 
2.542995518435244 
-0.1210828743215914 
0 
0 
-1.785098364781954 
-2.068634900318358 
-2.703462490043351 
-1.242481150508783 
-0.001908952518857976 
2.160014885101810 
4.457877637167623 
2.268916898940108 
2.673451440836625 
0.4110845716901349 
0 
-1.769266578298784 
-1.298696068202109 
0 
1.139319664384373 
-0.6884092904307679 
-3.181671381167655 
3.555931785993733 
-0.5461333604854150 
1.071307572779916 
0.8655947727095609 
-1.442006243990158 
0.9521032211285163 
5.916234869890472 
-0.2153526845953213 
-1.171200579904581 
8.009244413603053 
-5.472139348704030 
0.3534340528271042 
-0.7316565649221995 
-1.235846874892330 
1.206032887311773 
4.180292414211875 
-2.274577229484899 
-0.3200373435256008 
-0.09461577003950950 
-2.238413901527049 
1.467649564154021 
0.2088682606185774 
6.917178722432977 
2.976369036783560 
-1.785698345590789 
1.057715505365371 
-0.4042558558971598 
0 
0.08700259201125618 
0 
-0.3527695185580530 
5.572901449194701 
-0.3776539826009251 
-5.117231020356543 
-1.485139854964567 
-0.6652511804258790 
2.197675144180512 
0 
-0.5784390675941252 
-1.027825170399479 
1.069528192660076 
0.2591141366225825 
-1.339088127280377 
-3.185008996382039 
4.222999732978034 
-4.796410081883483 
-2.565479254669049 
-3.587232537904681 
3.418472324599811 
0.4931376038283306 
3.862303900494115 
-5.071077715875195 
3.102924091734981 
0.9558839185147467 
0.9222243733015576 
0 
2.506034677484709 
1.764370376470580 
3.972298960294992 
-0.9592275725392798 
2.447180405574251 
0.3846226216985271 
-5.752688496199269 
-1.953054913121828 
0 
0 
0.8984890081475102 
-1.324308780455776 
-3.717708068975785 
1.309272857328077 
-2.972355088920774 
2.480201061358580 
0.6162687872593292 
-1.327296274497041 
-0.2606622345767253 
1.645970093490543 
-1.309220106723014 
2.049427452807598 
2.373242912614940 
2.339629666521709 
0.8447787480053517 
0 
-0.4245089353092307 
4.126969687357149 
-3.795963304177708 
0 
2.269484396368585 
0.7665003872668410 
-3.418372978350466 
3.243137266850551 
-0.2274219228168300 
-1.623847295926607 
-4.553965284982261 
-3.164690792583558 
-0.4577726510026008 
0.3501935922778954 
0 
1.126568553807262 
-1.006802297872091 
2.007830347594878 
0.3062777880467866 
-0.7408794625150528 
0 
-4.977288892358101 
-3.004783427584506 
-3.286569412750846 
0.1584954422990861 
-1.568992890958739 
0.05723955806293524 
0 
1.480305778722953 
0.3608257830577731 
-1.522318128498611 
-0.4310828105527509 
3.560923381577805 
-0.4902441639211245 
9.186362775155294 
-0.5749071816829073 
0.7717653385243433 
0 
0.1270515988154787 
-0.5825650998752332 
0 
-0.1415218031110658 
-0.3976601810602223 
-3.073397949046330 
10.10471780483877 
3.027881336100139 
0.2129735005759014 
-0.8035575920855884 
3.259647264871209 
-2.272906528282288 
2.387997199111365 
0.007075013643912831 
-1.093772436693770 
4.063325027994018 
-0.3262239660446578 
4.161042657274652 
-2.047681854890242 
-2.608795841152816 
0 
-2.404289751633430 
0.4344353896825786 
0.009820575455779024 
-1.169267942248741 
-0.1707401155490365 
1.787388531599944 
-1.078433868210880 
0.6983097136526107 
1.338638595193529 
-1.576662092254568 
-0.03071752234065367 
-1.374068941207054 
0.1635180566497249 
2.187596690099823 
-0.1789123344088155 
0.1395766801625980 
-0.8901506386160978 
-3.440499634095854 
-1.472600843063994 
-0.3246096445098539 
0.9811953283475356 
-0.9811246948989399 
-1.485753609765097 
-0.4373741694693293 
1.530236379620627 
0 
0.1691230773549545 
0 
-0.1198640502307728 
2.479990831229488 
0.4358416670846578 
-1.899673050666562 
-1.251509454307836 
6.140279736738140 
11.42709047861474 
0.7611444135172544 
0.5258611037329799 
-2.509865795747845 
-0.3384482260357359 
0 
-2.209237989298392 
0.8276660067256092 
-1.997382079209386 
-1.004076171983384 
-0.1632923857478994 
0.6415282144765337 
0.5062600309897045 
-0.4457989860139152 
-2.280003457699769 
-0.3929228595512138 
0 
0 
-0.2514108599297165 
-5.293050782104777 
0.5677735341652643 
7.438959203070814 
-4.968881396218336 
0 
0.2711465176337301 
-0.5255544922261284 
-1.814304205041863 
0.3544775850695671 
1.418566948356271 
2.289231626371572 
1.013872304175863 
0 
2.447802473981882 
-3.169506264879054 
1.340840418724948 
8.242540740204422 
7.950770832649283 
-4.557475099412685 
-0.9603996080578067 
0 
-1.854310544554800 
1.853264697774257 
1.956207458487897 
1.748155989541834 
-0.3514646146313890 
-0.2156656923529401 
-0.1706801565609920 
0 
-1.261086968447039 
0 
-0.4266428575220984 
-3.075637463889247 
2.272595949703080 
2.769445698970460 
2.917176811838291 
-6.084518120555812 
6.341903013280911 
-1.576627766152944 
0.1243767775136581 
0.8701363259435387 
2.596698940495985 
1.134333257945573 
1.450945627413993 
0 
0.5133737967437484 
-0.2027742721738289 
0 
0.2997150198230693 
0.05062254120499815 
1.550137833620503 
-0.4103775764222259 
-4.308644697752440 
2.033833394735753 
2.239089863591506 
1.239522755137358 
-0.3319344234002312 
-1.189633318249517 
-1.454743642346005 
-0.1147754279911585 
-0.4997720100677814 
2.144633552092701 
1.457879242199354 
3.658543324987304 
2.441469155132044 
-0.4816741717169025 
2.426966913712120 
-0.2951824030256153 
-0.2340167441652260 
-1.352545246805484 
1.307801361928390 
-0.6481067563164761 
-1.495301431179225 
-1.677675698694803 
0 
-1.987905676853761 
-0.2425236458872994 
-1.456684810311669 
0 
-1.006702697332507 
-2.037148568114154 
-0.04330200977774057 
5.285301086776166 
-1.053518376250993 
0.7660768372521523 
0.7106886418510645 
2.101241326228872 
6.005411875566329 
-1.676548977323845 
-0.03558539817089573 
1.195875774180039 
-1.512978415610159 
-1.032815002537911 
0.2372214089274422 
0 
4.431875939324474 
2.786053541193944 
-2.121759743107222 
1.587110815871989 
0.2856905140598182 
0.4655594528014127 
0 
1.693810308293167 
4.622840836512733 
-2.853620764274419 
1.271820401861024 
1.486274451536295 
0.7611208154972298 
-0.3780049851153122 
3.082786962258404 
-0.8028482990226066 
0.4704181119727068 
0.9298828815089938 
0 
0 
-3.956217764352584 
-2.256026807122919 
0 
0.7406075404132342 
-4.900567905338055 
2.676313626078562 
0.3872717535916699 
1.151200561419311 
0.01310699732064265 
0.4737715723856699 
-0.7182474010148503 
-0.7798920118176230 
0.9772828457378191 
-0.3723655744641132 
0.2893420243519277 
0.2367442281217995 
0.3400607879443758 
0.9380186669260285 
-0.7243514004484988 
0.6938866909558481 
1.006811088100389 
0 
0 
2.307995353359500 
0 
0.01656429862802600 
-3.416076731592370 
1.228635669826972 
1.938764126181273 
2.849008503856700 
5.491656430099020 
0 
2.460531195174254 
-0.06681862744410160 
1.507177048031621 
-0.1574435109538297 
4.276215740693933 
-0.2126609526376344 
-2.499804136938748 
1.189145646565727 
1.222581674712785 
3.371466767665662 
2.023767170069005 
1.534832496865956 
0.01987648533915452 
2.412850455374751 
-0.9307011059997728 
-0.01124424885268585 
-1.179142959255795 
-1.735287930172662 
5.793700463710543 
-0.3015898845354464 
1.148455448997662 
0.1644477848312635 
-1.426022473202660 
2.904699184382286 
0.9199204381660377 
0 
-1.057303770824347 
-2.774086604577386 
0 
0.4232054166662471 
-3.156264006485990 
0.09914171697383112 
0 
-1.814647168182470 
3.797864543947997 
0.5284966980157647 
-2.538190377236893 
0.3167885197172414 
-0.04271731718388490 
-0.5903309396098355 
-1.291650737575668 
-1.057187797629471 
1.835207369553506 
0 
2.005367743524871 
-2.206252078543282 
0.3205292421329022 
2.112982958928285 
-0.09603109101168894 
5.121278254359035 
0.2513704681099647 
1.055523559462465 
0 
1.435949288017466 
0.03732915801624170 
-2.051716083062399 
0.1460868800853142 
1.293394845391586 
1.480748515712756 
0.6830652358578422 
-2.034685683514983 
1.127426813315786 
0 
0 
-1.221034438026781 
-1.426472635316628 
0 
1.782837894217296 
-0.3759641296107934 
-3.645696074288725 
0 
0.8579833115530664 
-1.593153307167944 
1.216477653728836 
0.6566311032626991 
-1.726727865618205 
0 
-2.177594031578080 
2.506569096441042 
0.3391740899102916 
-1.717508157056213 
0 
0.1258287031475858 
-0.6956441158663584 
0 
0.2861270569003190 
0.5577682009922661 
0 
1.054960340494010 
1.958699121735986 
0 
-2.072977162274545 
0 
3.170315061492462 
-5.013795641190433 
1.360432489298308 
0 
-2.363480706789224 
0.3357030903906891 
-0.4014620453307758 
-0.2857555132518469 
-0.7544310534514745 
2.576841285830424 
-0.4343714465827772 
-2.193003419642075 
0 
3.570053076144595 
-2.548644233899994 
-1.143434350702409 
0.6084263711825122 
1.531966839019142 
-0.5111551807374611 
1.280987661340495 
0.6187487771198592 
-0.2096638529910228 
-0.2878222700424481 
1.020977672151151 
-0.7168393207106230 
-2.610125340241193 
0 
0.2614152313817446 
-0.7959881544844467 
2.073807026698631 
-2.394841445895799 
1.175100318025947 
-0.4841111638729325 
0 
-3.395196330185425 
-2.013849962732598 
1.231568071206097 
-0.09938017923276636 
4.200129017414975 
-2.088266883154984 
-3.323423249812586 
1.116070537694444 
-0.7618019362087303 
5.260032578488664 
0.3275808998299450 
0.6284961113687981 
0.4076689363956110 
-1.969456526333599 
2.909166097969479 
0 
-0.007702179784613453 
2.600166692151612 
-1.836652664917654 
-1.445865051327047 
-0.4003357533184405 
0.1427338433901374 
5.707538140181887 
2.072729609072789 
0.6693451747844148 
0 
0.8369104535558867 
0 
3.977010159923880 
4.016985778965131 
-1.498112431711427 
0.1410030471917059 
0.5038159091307807 
1.476522330931571 
0.5048568604643056 
1.571644583648007 
-0.5156620846150202 
-0.8567055233020076 
-2.193262832893479 
-2.070153650639949 
-0.6336077077622461 
0.3261909590391187 
-2.892955973184543 
0 
3.460834022108821 
0 
1.066623367985768 
-1.738206192991868 
-0.5211509482934906 
-0.05902574370115110 
1.286306216679123 
0.1216257563563156 
-0.9484435102613629 
0.8269560240551019 
0 
-0.9013581248403012 
0.4803192987432869 
-0.8566805039257408 
0.8998556561568211 
-2.717303289201812 
0.1443676833003237 
0.9148981520110655 
-1.261405686063000 
-1.580837896133431 
-1.529866556265107 
-0.4537587048091564 
0 
-0.1706636333790250 
-2.056001295261385 
0 
-1.846075933543115 
2.739475487013630 
0 
1.525863773656525 
0.1682736466301728 
1.659057889649295 
3.273930011874471 
-1.094200433907785 
-0.1432405233094059 
-2.340292931188647 
-1.361681060823378 
-0.2037350455073168 
-2.431935213586252 
-1.312106092961607 
1.593171038625075 
0.08712839752826049 
1.125457459339188 
0 
0.2698132591211705 
-0.8040530066200642 
1.510609340013094 
2.026138149628867 
-0.2025778943581152 
0 
0.4139816280017687 
0.1456369833570830 
-0.05993138621570016 
0.8880989962334342 
7.273640586215331 
-0.6391940584451572 
2.461125618164993 
1.222245691874699 
0.1123795852125325 
-3.403842126030105 
2.293395877498753 
2.671235799419360 
2.406546496711041 
0 
0.8496657145046609 
-1.174299205072324 
0.3475119993678051 
0.1732257405149633 
1.876590256999447 
-2.864969651139732 
-0.3687570483906559 
1.559616551550639 
0.1175890918732930 
-0.7276279462275028 
-0.6934444811377455 
1.059179689073432 
2.077541266177025 
0.1688704011854852 
1.444882776574097 
-2.662496501544404 
0 
1.096673981651620 
2.032517986681024 
-1.070090837908917 
0.3796888773207536 
-1.469069696570640 
-0.2827413321487322 
1.994589560690503 
0.5950731031495535 
-0.2662610814883875 
0.4242317205692102 
0.5121036829743781 
2.442045333365094 
1.069200870327046 
-1.240604706809127 
-0.8157279544320930 
-0.9656610798320951 
2.666153286585147 
1.926337640032041 
-0.5814676435271415 
0.6245212521803514 
3.720506757990012 
-0.2472870200337968 
-1.000185215432801 
0.1622466225673234 
12.10856146059311 
0.4537035744006019 
0.04094880034474949 
-1.453348927099758 
-1.068425560986513 
0 
-0.5500344473084149 
0.2238230807217102 
-0.3453260235604480 
-1.295745877799618 
-2.422017766142583 
1.307339634508111 
-0.4329009600648787 
0.5520048828700201 
1.602993974075954 
0.2894967636467985 
-1.078587159682605 
0.3662360414814243 
0 
-1.174609282474977 
-0.6454396378893344 
1.060675566443570 
4.649638552685770 
0.1660622990098814 
8.150559992560202 
-2.357796666285505 
-0.6565108003836766 
0 
0.4925213059497883 
-2.253849642064471 
0 
-2.714588484522924 
0.4225058536113187 
0.4441930079776894 
-0.1558097733342267 
2.341928111241047 
-2.708636736737218 
-0.9514534002743145 
0.5249587436035228 
1.167980489067677 
0.8296683272560857 
0.9073047604007187 
-0.5931307037409537 
0.9979733199357778 
8.298229398244978 
1.559347405881661 
-0.9344442390561631 
1.690623979354496 
0.01262111389860054 
-2.334758181854010 
-2.741923004239363 
3.486860035361340 
-3.957237577351300 
0.1968962640105918 
-0.5899109945624547 
1.978530871141536 
0 
0 
-1.022965075826764 
0.8641399376525113 
0 
0 
-0.7432315858076664 
2.351229259339047 
-1.736785937276232 
-2.034019132177153 
1.026458338230712 
-3.134144978780264 
2.530942292268178 
2.281802920681853 
1.803588651103704 
4.785495772426091 
0 
0.4850250651964812 
-0.03830388278421382 
0.6470938655874097 
1.422909753165825 
1.905155307136222 
-0.1760638766121222 
-1.108836161531579 
5.176207364093984 
-0.2883429949982985 
-0.6784029147386879 
0.4071858158355954 
-1.090543694848489 
-3.189326060033306 
-11.85295559096290 
3.776912652620578 
-3.505575807733103 
0.6530554556807215 
2.793588125899301 
0.02508612172891176 
-3.841350022057003 
-0.2426464519356895 
0 
-0.4429867718395828 
0 
0.1314618413990828 
-1.657172406910630 
0.4141559049992064 
-0.1856740542367925 
-0.5858780639088460 
4.594418590922890 
-0.4097837278329618 
0 
2.703394418863520 
-0.6145143748433326 
0 
-0.3167449541629985 
-1.211056888347804 
-5.724315750458319 
0.2867422288428779 
0 
-0.07004636019291505 
1.811578805160128 
2.715781357023675 
1.369611591408758 
0.09475918133992656 
2.921428251778329 
-0.07526585905803018 
-1.161881840874882 
-0.1260362472570558 
-2.959366004065724 
-0.5104420033341276 
-1.180952951547401 
0.01802599610075105 
6.274064082991750 
-1.552677406324212 
-0.7520466610976830 
-1.060132368176804 
0 
0.04652733085004651 
0 
0.2418961065263006 
-0.5143516903524656 
-5.137818464169951 
-1.232482165407395 
-0.5915915093846857 
1.304093996616749 
0 
0 
-0.008958648056860419 
0 
0.5622246915908780 
0 
-1.544384731590082 
-2.586455862784644 
7.215225063155026 
0.3614415017076031 
-1.579873370718442 
-4.018759867461472 
1.303569622442480 
0.6291168733310852 
0 
-0.07875657186226204 
2.840224996209156 
0.01511790474744806 
1.657667790115896 
-0.1596865953361406 
-0.4969345518579529 
0 
0.5788229350602574 
-1.345083113814571 
7.162594345400760 
0.2565811519226912 
0.8361786374268274 
1.113169133554751 
0.6915146637930277 
0.7629047312162884 
0.7750335497160119 
0 
0.2528719578287434 
0 
-3.389600365275854 
-0.06706651219291274 
-2.387703765606033 
-0.07960376772661615 
-3.710846177101297 
-1.291940975846813 
0.05895583727165040 
3.562378431250409 
-0.2717248366236227 
-0.5162443117505668 
0 
1.597430809743956 
2.134546136563857 
0.9026560856970801 
-3.344239185712143 
0.01018993296806921 
-1.611262178839577 
0 
-1.482187983422331 
0.7334706062630467 
1.689847257670873 
3.302761681442491 
3.377947656593434 
0.09725058126551450 
-3.154290855256957 
1.750352797764907 
0 
3.034896572599818 
-3.460480070079226 
2.289303889737131 
-1.524639868797527 
0.2595175984403321 
-2.176257435171818 
0 
-1.842818223034852 
-0.8772087325979680 
1.624438593269217 
-0.4694222990879799 
-1.203958477709821 
-1.713890233013529 
-0.9002786904499750 
0.7106854182960667 
0 
0.2031806276925880 
-0.3951234365189975 
0.6247054456553692 
0.2013435025603994 
0.5346711168313901 
3.183560455045686 
2.752181763824166 
-3.049614575240625 
-1.935471360569534 
0.6741747910121734 
-1.555486690890408 
0 
0.4761534620319917 
-3.989463284696161 
-0.8198792044318326 
-3.157816645036605 
2.368342286564554 
0 
0 
2.405848128800559 
0 
1.211765184351421 
0.8093639900532478 
0.8337416883508424 
2.264900540237433 
-2.674114623702377 
0.2447825526486881 
-2.896472688085240 
2.847847295562832 
4.084093151182959 
-0.4319351818755984 
7.966228720095781 
-2.861385919168351 
3.105389840567634 
1.109389821782017 
-2.636844024908731 
13.33204942486416 
-0.2573725436674121 
-2.276692229646427 
-0.2545468696985473 
4.777284723296464 
-0.6548622471743080 
-0.2359959038735879 
1.392756036222360 
0.5263533355480727 
2.339894090804790 
9.765372286682595 
-2.437375190032304 
-0.9083083720968128 
-0.9503102066557726 
0.06193596732086268 
-0.2920493846470995 
-1.599221693524635 
0.6281758223905622 
0.9789209609267622 
-1.809934880951769 
-1.455743918415546 
-0.8786709687867661 
-0.9019569263214955 
0.4123854159732994 
2.473996147285186 
2.091606021013802 
0.9594123865048261 
-0.3148367767566349 
2.211290578120697 
0.7844597393551016 
-1.741245782181001 
-0.2809391907282498 
0 
2.094160586664712 
0 
1.201604362802204 
2.375145808134581 
0.2912969432238804 
2.038073139223108 
0 
4.082879875691595 
-0.1368156538630075 
0.1951938177584529 
3.012254738700761 
-5.442873838388044 
8.389301587118520 
0 
-1.423717880726115 
5.191888886391711 
2.622440134555997 
0 
5.604251573026168 
-0.9896426295222567 
1.936481340680262 
-1.138626822269070 
0.08759478204328386 
0.4882937542384820 
-2.056748734537578 
-0.1975522081276860 
6.574113317770955 
-1.678852601183135 
-0.6705714417637103 
1.114110475844020 
0.01249980359836034 
0 
-0.9253042065009576 
-0.3146258729193555 
-1.742512629123044 
3.035955702769396 
2.701626404231907 
-1.299178305941031 
-0.4040931439375874 
0.7265943930511665 
0.1358870816287396 
-4.075132855713352 
0.3989382310745434 
1.603138500377372 
2.051513252495638 
-1.320768036884442 
0.4025097682467628 
-1.012289186873810 
-1.310762986630206 
-0.6111504294747410 
1.420626888009298 
-2.983250246017038 
2.050632473595122 
0.4033186136138165 
1.374058661324651 
0.4661174329389428 
1.191398810022883 
-0.1702739557599395 
2.454785840764925 
0 
-3.917433827032685 
2.123757056970514 
0.8174478801434275 
0.2962246870259801 
-0.1844774658830584 
-0.7126844016217184 
0.6935628343049810 
0.4456619331473871 
-0.2932144240216265 
2.833664465655107 
0.9252689919600535 
0 
-2.375553552094320 
1.039291869682255 
0.7608220981015990 
0 
-0.03338908745630341 
0 
-0.8741622694230795 
4.135812175416747 
0.8985269436278351 
0 
0.8732050251141344 
-0.09140193424910947 
-4.260614849043243 
0 
-0.6940817220993984 
2.590442949834259 
1.201236067348337 
0.4244980299554781 
1.039164852654772 
0.2962923615804400 
-3.523050578823626 
-2.191878090492695 
-3.779521052426418 
-0.5166372920096326 
-0.7865400419000249 
-0.9332013748343703 
-0.3035312123741342 
5.142725284104234 
2.455170996500822 
0.2437794743326016 
1.143597736111640 
1.117821282057102 
0.6565305679086975 
0 
-0.2027925933593536 
0 
4.605406480545808 
-0.6701188034938683 
1.436742836604299 
0 
0.2648946034457505 
-1.919401677696861 
-0.4585657206909122 
-3.611350851642807 
0 
0.2942687065813500 
0 
1.312175329648139 
2.203048628121350 
-0.4231015562744658 
-0.3823245829380302 
5.822350030533105 
0.3323121118999723 
1.217938162360966 
3.450963660898717 
-0.2488646879816009 
-5.704999073343855 
-0.08132452911410593 
-2.819233059887936 
-2.477391875898496 
2.652313461941371 
0 
4.795027145886670 
3.919870619682915 
3.409275495084151 
0 
0.5140428011741511 
-2.641050544264252 
0.7649364904967162 
-0.9536115289748665 
-0.3140828182506961 
0 
-0.2403067172763503 
0 
0 
2.154421354231281 
0 
-3.235923330963638 
0.3638204083814332 
0 
8.448496692215944 
-2.722682620206093 
-1.088129251870639 
1.857164567379355 
2.009039509858761 
0.7336818799241740 
-4.110315824763282 
0 
1.824668706313381 
-0.9771109030972068 
1.690235584244934 
5.206542892296373 
3.123065045638504 
-4.801591683428545 
2.193264647345522 
9.243496275811673 
0.1000047194905579 
-1.411106360394607 
-1.971464341060872 
0.2833371332358348 
0 
2.191682330516084 
0 
-1.296843402420003 
-0.2419086231756831 
-2.359583083668161 
-0.5813762872980311 
0 
0 
0 
-1.628203863214268 
0 
0 
1.154838457651050 
-1.853938356676251 
0.3350592151232975 
1.178532148923111 
2.695924947437267 
1.068333366491670 
2.040783530592160 
0.6560049701706034 
1.469281379019636 
0 
3.022070453419679 
-2.117432477847852 
2.591435483085163 
1.503178678717138 
0.1071924816890948 
2.405114068856821 
0.9020022828913291 
-0.6928020143320618 
-0.8441053790526603 
0 
2.546134583149567 
1.221916781183225 
1.695163940730217 
2.854552114699287 
0 
1.577243575395894 
1.819486287489295 
0 
0.7632855553532735 
3.518362578775054 
0 
0.3161046301579228 
-2.760112661475325 
0 
1.008851193329933 
0 
-0.3405634379290768 
0.6159188838321037 
0 
-6.471816829245221 
9.426081647905495 
3.950534227186638 
1.256312817884169 
0 
0.5720484289238565 
-2.584527818262357 
-0.3191956150900989 
-1.419181919453115 
-0.6125594620739219 
3.221387813321600 
0.7864659358101905 
-3.336502408406688 
2.560433228368699 
1.237504461622073 
0.2745389393858116 
-1.383964476602798 
5.878037349292882 
1.523818373494379 
4.697167108707882 
0 
0.3604799094827985 
-0.4389166214714362 
-1.971047617939078 
-0.7018100118151523 
1.640750521322514 
-0.6512878513801483 
-1.005787468235561 
0.7140225196921812 
0 
0.7554590375776752 
-4.550888576861772 
0 
2.045522781133023 
-0.7717752381814650 
0 
0.2640294858042298 
0.7915938113733083 
-0.2166763149283991 
4.108100277936048 
0 
0 
-0.2951952843845303 
0 
-1.933439697659989 
-1.510951500255519 
-0.5165001658454534 
0 
0 
0.7085955860588252 
-2.077120513398007 
0.08701028952969425 
1.976528268800457 
-1.572525468880543 
-1.697627260138135 
-0.5020399394262975 
-4.941182023521515 
2.199015190182692 
-0.8803356176721810 
0.4804284584702552 
-4.874686662181272 
3.040437955532665 
0 
-0.3623279918793223 
8.714604709486140 
-2.945095845164907 
0 
0.2285575201118010 
6.058536380599723 
0.5206990137238073 
4.543770636568512 
1.309324579381602 
-2.847394837213340 
1.323563284680287 
4.129341436508836 
0.8939704426117590 
0 
-1.391126797479666 
1.805391109251646 
4.010493389114047 
-4.605465905139086 
-0.1995199216178744 
1.083255417483198 
0 
0.4867191863011914 
1.358186067265665 
0.4086471702703801 
-2.002702713598824 
0 
1.968645976874524 
0 
0 
-0.3264217580962902 
-0.7112522572399902 
-0.5460452130961125 
1.428042147152142 
-0.5669165462118478 
2.251826326371420 
-2.513068080805156 
-1.232634607060529 
1.871735739296671 
-1.894396583479760 
2.314893178472046 
2.245797202298699 
0.1854301084945325 
0.9891382040991806 
-0.8255064321010235 
-0.2089443987311068 
-0.2031082332435903 
-2.564759084481064 
1.545630800834667 
-2.823502158173473 
-2.134613411302838 
0.9428345518907140 
0.4945626295149670 
0.4861157613578654 
-1.028351680872345 
-1.746244644535572 
17.17944025944597 
-1.903998391373249 
0.3832627550459596 
0.9138134533150548 
-0.5880301720588389 
8.879619231638001 
-5.028453811614035 
1.056334839020273 
0 
-0.1094216973417514 
1.216047160972547 
1.276304118504601 
-0.3831523259976657 
-1.012158866721319 
1.642728014183290 
-3.319300651617855 
-2.420754475383106 
-0.4090286415815179 
-2.299817911672536 
1.641474362209362 
0 
-8.078173351142683 
0 
-3.688851407984164 
-9.378467137949597 
0 
-2.806314851376788 
0 
0 
0 
-3.730224156684655 
-0.9708346777392824 
-3.040576997880253 
1.199649858906039 
0 
-0.5548752112529617 
-1.456987876762171 
-3.447128368592911 
0.1749053052982429 
0.3621297412646736 
0 
2.005515539666280 
-0.2449771628862549 
-0.9312377407594531 
0 
-4.494917894983034 
-0.7440953592951540 
-0.09038817210708178 
0.5468107642739590 
1.918562906121708 
-0.3074974483888474 
-0.9669045014266033 
-0.8798612252855678 
-0.8190188487747984 
-3.578507527756971 
-1.021517982547022 
0 
-0.9997675773834424 
-0.3325358769307101 
1.664076571346886 
1.621127377682289 
3.284265648065428 
1.339742267581807 
-1.545535041562541 
2.040678314017214 
5.166483159241784 
0 
1.734856957734261 
-0.3938338993846314 
-3.079476313066334 
1.789931498666074 
2.808081314129967 
3.143606258366984 
2.153948382849046 
2.564458456682823 
-0.08961399900131546 
0 
-0.2374389562838425 
0.9250487437074758 
0 
2.486314007583778 
0 
-2.312183916778081 
-1.402996674573418 
0.2149018440162685 
-0.9693974883280828 
4.797196385807206 
2.102135680714887 
-0.2421396079596530 
-1.946562532088755 
-1.682886681442108 
1.319160705242844 
0 
0.8465974042467718 
-1.586868615675298 
-0.1874197265531404 
-2.270623566177622 
-2.170343934658976 
0.7683801489256145 
4.798988949961445 
-1.895538209933847 
2.106170122869889 
-3.382752217143326 
0.2847523459926410 
-0.2533258997809565 
1.146025703795687 
-1.075536616080626 
-3.580096007662068 
4.762766977745800 
6.393642718459558 
-1.545460690118452 
-4.777443184379274 
7.644149424106246 
-1.642261664020137 
0.1651550289276660 
0 
0 
0.009123194367682940 
-0.05110915792758181 
-0.5131788529878680 
0.6883020769443181 
-1.384376232220438 
1.147970710342387 
-4.874398454364314 
8.044985138647128 
-3.479907014149912 
-1.504616883822251 
0.7190277722119440 
1.492835399713243 
0.07357649737312852 
0 
0 
0 
-1.720716866956277 
0.3178891981390601 
0 
1.344854160431446 
0 
0.9609570410336465 
-0.2829487645204079 
0.3006868558088562 
-0.3878725851062357 
0.9410640338276470 
0.9444455127372313 
0 
-1.002018018782832 
1.301228207591117 
1.320078015316884 
-3.588029463550410 
-1.999516543375447 
-1.890924897711040 
-3.680937951787611 
1.013078534379583 
1.896240193589557 
0 
0.6006032331901399 
0.2726905913964003 
8.204006310995630 
-0.3942380526687923 
9.410256141828354 
-0.2164902529029701 
-0.7108960178872505 
0 
1.335836586598373 
0.7573407856680909 
-1.843273366130503 
0 
1.819986509083198 
4.002686888803196 
-1.464860653676843 
-0.4977428655114906 
0.9815298164729023 
0.9895317691403116 
-1.326179706740308 
3.164654299077324 
1.651604625238580 
0 
4.782079029281404 
-5.665743124258342 
-0.3305007650386206 
0.009212797509797421 
-2.044676671901732 
0 
2.367516499264509 
0.9046624551911855 
-2.364505842367299 
-0.5900746533045209 
0.03876087500094623 
-0.08287569126794558 
-0.1816287627925542 
2.055338718411419 
-1.338649634519367 
-0.8517632703377430 
0 
-1.129115072041499 
4.507478310405505 
0.7478803403778169 
0.1993979101560104 
0.08170861627160430 
-0.2916909574001978 
0.2568379198589419 
0.6575884647967102 
0.4197509052307178 
-0.3442604790150854 
-0.6675270595331235 
0 
2.139898233652076 
0.03238271367322509 
-3.168579991197577 
0 
-3.554723527206152 
0.7026354581616101 
0.9258707959318787 
0.7228858000069183 
-1.204376607162733 
-2.264773189112764 
1.944972371085643 
0.9985427341396146 
0.8486057797449552 
2.442077825504219 
0 
-0.4152963479345620 
2.070727511033477 
-0.5149162385277744 
2.652446334178958 
0.3877516701691218 
0 
-4.799337818307317 
5.690527625325552 
-0.6591044666988712 
-0.03317056628353222 
-0.9812956788440774 
-3.644085857969494 
0.6825258420840649 
0 
0 
-1.747490795160711 
-0.8621171960640973 
-1.472487072789583 
-1.563069575787402 
0.09825242487523070 
2.553031081782455 
0.9199755706295977 
0.03187888063612115 
0 
1.514777166493694 
1.798410032596361 
-0.2843837738579192 
3.162418494704095 
-3.215725367328344 
-0.1641673391881798 
-5.205627745626321 
-0.2963048204586825 
-0.1368563864964918 
0.2731653918602552 
-4.467694775075449 
-1.841477671840817 
-6.320883953397880 
1.289456745210528 
-1.708171481256270 
0 
0.02962302253887711 
-0.1085717391655257 
-1.872483232803905 
-0.1422870229406275 
0.3916276573803146 
0 
0.02853591282793521 
2.193817210737899 
0 
0 
-0.3221220249612081 
2.501272257021416 
-4.154978332298743 
-4.678245129197983 
1.180119155355921 
-5.273723361903806 
-4.276845042660256 
-3.869926738596410 
0 
-0.1115313934012616 
0.6335259301686742 
1.265880610329754 
0 
-0.2831745705593564 
-2.812551973852960 
0.3739700391512730 
2.172727434529685 
0 
0.07656052149485076 
2.349943559229878 
-1.144807387681248 
-2.915247242554123 
4.043417533545005 
1.504978634960316 
2.253655209100383 
-0.4341932622362340 
0.9138915591900831 
0 
-0.3593828157130395 
0 
1.571687016831031 
-1.392776132465228 
0.2788232210888031 
0 
4.282605820341528 
-0.2982680280172799 
-1.107687866881713 
-1.605941299392243 
-2.695463066701573 
-0.7587503536547033 
0 
-3.235582599878152 
3.228768901317144 
1.325522191148252 
0.8370577385779603 
-0.5379502296533724 
-1.755216970938257 
-2.505248951924288 
-1.840785042820899 
-3.266965476867864 
-2.888868454577197 
-0.5647754286120420 
1.786552826276216 
-5.515122415426831 
-0.8043265480969954 
5.861303018573021 
1.149977347049142 
3.389478917827282 
5.099070196968517 
3.572823142631662 
0.3479841888404140 
0.8214011503988920 
-0.01699294218296019 
2.549040106355346 
-2.088189918273301 
0 
1.333548344286567 
-3.200188233599537 
-1.679002858776796 
3.264862090183851 
0.5485058081990348 
0.5780005458457607 
-1.816714724676546 
0.3821288245712544 
4.377879689020115 
0 
1.104049607497080 
4.395072106415839 
1.122872120495399 
0 
0.1748081235443418 
4.561240116905268 
-2.262350394915093 
4.382903359907407 
1.181089359194536 
0.1410787987362860 
4.505276701458921 
0 
-2.086308966104143 
0.4150700594476968 
-0.4040322451226086 
0.7181150076895868 
-2.422240445035608 
0.4986565617496838 
-1.600149869293036 
-2.229970364909847 
0.5509227343245148 
-3.257683572658789 
-0.5619629871477434 
0.01464991167622931 
2.463181391337345 
1.689206197962005 
1.016549887691268 
-4.701591505794441 
0.8950691136177407 
-0.7334898874192969 
1.019221490094155 
6.469016062310024 
-0.8010673093426401 
-0.9918010590061292 
0 
-10.83862806678075 
0 
0.7745689550914308 
-6.574135401662198 
-0.07823891452108225 
-0.4150815906817431 
0.3195193727748141 
0.2817714016580326 
-0.4771792571448534 
-1.928702041460611 
-3.834293716684602 
1.197706602281328 
-0.6806021097987015 
0.9392049744800064 
1.695947866784475 
-0.5474329600140819 
1.189614732077958 
0.6825204277549254 
-0.1040710939224065 
2.153820991120923 
2.056552424449990 
-1.718275952759362 
1.479666204958960 
-0.7307759885036282 
2.063262388156014 
0 
0.7681908712959316 
0.3732441112110511 
1.016268609709577 
-1.509392059697382 
0.3015755797450468 
0 
-2.042152403295751 
0.4127341769357985 
0.7000275775035577 
0.4693539585862456 
-2.032088829514606 
-0.9631254751650653 
0.7504352666730497 
0 
-1.813355471978433 
-0.1686904501590172 
2.811536432761034 
2.980735365468703 
0 
3.371636765675217 
2.049245281550457 
1.376577893225353 
1.200776608119703 
2.267651840023317 
-1.178394907305408 
14.55148471012120 
-1.243940190019821 
0 
-1.224443087755256 
-1.053809117959724 
0 
-0.4891970600318583 
-0.7133821597717166 
0.3949249227715951 
0.7944800926976571 
-4.655242668407398 
-1.846041277338908 
-2.716813002750786 
0 
-0.5988431731782580 
0 
-1.638832333049755 
0.4189419754122634 
-0.9927535575016490 
-2.306783487455361 
0 
0 
-1.788569141282112 
2.512728244452722 
0 
-2.733958825872858 
-0.6597525090133138 
-1.158108056350944 
2.114287153916296 
4.683240674963956 
-0.1081831415075620 
-0.2926233720214052 
1.391193388838026 
-0.7988852571502056 
0.2339852208398863 
1.239659619014935 
-1.392277599211108 
-1.377312412629873 
0.3413521606308375 
-2.583064932735517 
0.1358312414010683 
-0.8822283788661008 
0.1790764696017381 
-0.3444907313902613 
-1.345866010797846 
-0.7580863319965356 
2.543271334109264 
1.135474649917962 
0 
0 
-0.7200832739823414 
1.630386913981001 
-4.553364772713287 
5.764655471574777 
0 
0 
-4.011075958837797 
-2.325306427773929 
-0.3901486823170219 
0 
2.334190530330319 
0.7422611250410491 
0 
0 
-0.3418040297880357 
-2.417067381403609 
-1.350749562387810 
0.4427688035128366 
1.127435165790012 
0 
1.621128682932136 
1.987357355907094 
-0.9688572626754832 
-2.832625173402084 
4.461427114138060 
-0.8776495595603404 
-2.241228742939842 
0 
0 
0.02524374092346204 
0.01277604871554672 
-3.502952669430642 
-2.661212930499727 
0 
0.8181667684288927 
-1.268422299136183 
0 
0 
1.322936444565467 
-0.5600384082210241 
-1.940674882617695 
0.1973912883026692 
0 
0.03919751155879327 
0.8708466645962515 
-3.705019628217642 
0.2722662709561494 
-1.583611663521870 
-3.038937900017515 
-1.841525767802064 
2.207211598291869 
-2.265304832448312 
0 
0.2510570012969785 
0 
0.08968375109931423 
-1.807843266862439 
-0.2543699162342800 
-0.8990414236224407 
0.9738525892355104 
-0.6024521235893576 
-1.482578413755705 
2.475728989722207 
0.9323306705503057 
0.6975799730582660 
0.2382667535247787 
-2.676966851484250 
-1.877062021722180 
0.4069756071804334 
-0.6214394469238340 
-2.199283148789376 
0 
3.479808954144565 
0 
-2.697805620575025 
3.221262100194031 
0 
2.060173186080632 
1.169575100070179 
6.653306561513037 
-0.1133665831104058 
1.986511712064437 
-2.507997747340271 
0.04782524369190871 
-1.961191825448886 
0.7104429813594440 
-0.2068350123729781 
0.4126700200487765 
4.422161003796720 
2.213102322546040 
0 
-0.02378646707150400 
0.1373911794992564 
0.7958008924220462 
0.7555847800264612 
-1.224379454129359 
-1.871112608737451 
0.4488088097675416 
0.1783885339762100 
0 
0 
-3.188404054307936 
-1.648115849336554 
1.752741923460382 
-2.463489249045338 
0 
0 
0.8607689827251666 
0.6344370040552434 
0 
-0.7738006111336044 
-0.1650570223416258 
0.3539209867661564 
-0.2967582556749562 
0 
0.06312494244198669 
1.938709923020400 
-3.126315383247234 
1.169752773231861 
0.3109402387653812 
2.656555641713696 
3.342707335583640 
0.6574569070768790 
0.5704428223408258 
0 
0 
-0.8211156448567279 
1.411740986559225 
0.5877231830005989 
1.483680645472651 
-5.222794590236735 
-0.2085618328527818 
-1.284161657594302 
-1.065957310984338 
1.967103094457664 
3.450000760925150 
-0.9237803153156054 
-1.635502363258815 
1.479316177159288 
2.210581389000379 
1.156652704717575 
0.7200837610934776 
0 
1.140305097726782 
-2.069571369805882 
-2.960299592557215 
0 
0 
0.1566486827819540 
-1.724666975321581 
-2.560764760756459 
1.437794849940076 
2.247559697739616 
-0.4280039355637623 
0.7858573188110427 
2.157495736042584 
0.6893120281621564 
-0.7227206424844348 
-3.308491451475170 
0.8145774140898736 
1.000651064889088 
0.8238172788660674 
-4.338603348354319 
-1.627359150973812 
0 
-5.420845551818901 
-0.3452275164212324 
0.4807049608582309 
1.193477021226309 
-3.085604830146032 
6.877397686735939 
-0.4633921055432123 
-0.06104727065479468 
-0.1344232876094289 
-1.355792207296836 
0 
-1.847691283693494 
0.6570137090829985 
-2.500183432996705 
-3.007509159287895 
1.973106599183178 
-0.1387371331703672 
-0.7879842845896394 
0 
0.8966266394950366 
-1.309045401721226 
2.061517929814284 
0.4265918385237265 
0.3374403628742094 
5.950444703434344 
-0.6727831498436003 
-2.051902345036669 
2.757233051593959 
-0.06663770513898964 
-1.728368141925205 
0.1747519939488603 
0.1701167009412357 
-0.04118778714558447 
0 
0.3902590499792444 
0 
-0.2232861286606892 
0.05722496117981746 
0.5466383781054583 
1.678428483561270 
0.03037297425108398 
-1.132063256354185 
-0.9123522856915295 
0 
-0.4102610945923496 
1.626271144814277 
2.646409201698494 
0.6259517253542886 
-0.9868713989252491 
-4.297555191939251 
-0.7309565601906465 
-1.380034286211382 
0 
0.7361739219961907 
0 
1.732451965742095 
1.019955736048824 
0.04761960039674812 
1.952542746459148 
-0.7502519875739062 
-1.969767917060233 
2.260450923157493 
-8.792456209615835 
0.06956779212907649 
1.349506990319717 
0 
0 
-1.378845557770566 
-1.097408880830280 
-0.08444668361706188 
-0.4675048945958380 
-6.524741651829753 
0.3010048359338637 
0.6236644102607666 
-0.5955386219591146 
0.5784576176440694 
0 
0 
0.7571904386878787 
-0.6759924917141122 
1.125557405131966 
1.507138919458948 
0.7943440461481953 
0 
0 
0.7741565441147662 
0 
-0.8988393283350631 
-2.506532588158652 
-1.143805872803114 
1.635302701037228 
-7.011293588780625 
0.3772016848779683 
-1.333836230825698 
1.784679034688137 
0.6345704438152469 
0.4190796192590366 
0 
2.932032248805534 
-5.249983168347760 
-0.06685024516541746 
1.280322222814796 
0.02038801506355346 
3.943666404616194 
-1.754220488482823 
3.739357726059462 
3.052934808827017 
1.301102571065081 
-3.372744569091234 
-0.4962522601979634 
0.8415830387175646 
0.4216195475308158 
-0.6662598243821669 
-2.011338236682494 
3.373433586138360 
-2.744085389496455 
-1.478408129908436 
2.061120146612007 
-0.5103609341189753 
0.3742802600529746 
-0.5595226814564618 
0.5244900215116944 
0.2306088803699742 
-1.080682222739115 
2.393604476162434 
-1.280835456793729 
-2.224687102740147 
-0.3079926634945429 
-0.04267781245795432 
5.218536039124485 
1.033898242495893 
-2.164870043927094 
3.588441382034336 
0.9569942319635166 
-3.438929071437334 
2.376344340873767 
0.9901323555473467 
-2.467647164514061 
2.162894651743765 
0.8938979654421618 
0.2510363634433299 
0.6722355331818136 
-1.177123326304092 
-2.609617898038812 
0 
3.638285674227064 
2.696079649639497 
-1.823574663498470 
0.6876904677326205 
-1.602601796901861 
0.3510213149952327 
0.4455406384326889 
-3.014755734914867 
1.265472626482441 
2.163512520578497 
0 
0 
1.475103495833593 
0.3634434939124068 
0 
0 
1.140686142668991 
0 
1.576346664229913 
0.5673528741320736 
0.5610630280214650 
-1.376021830165472 
0.3460530968938020 
0.6751975557747196 
-0.9502699571532569 
7.476595879983957 
-4.285593618056522 
-0.6809851916957771 
-0.3415105915880282 
0.3292317247384181 
2.257662675031849 
2.449524178555829 
1.195795060799415 
0.04865787721451513 
-0.4087924130666461 
2.223546016718131 
4.038899990610748 
0.8035010713753374 
1.699841860348289 
-0.3093572794314319 
1.219204742638387 
1.095432585320003 
1.529481698749968 
6.379212786407082 
2.747876486788124 
0.8939768188256523 
0 
-0.2712692529335510 
2.816968263494459 
2.523384498645440 
1.354404163598272 
2.648863993117223 
4.695512525123352 
1.629242232202263 
0 
-0.5993266906657303 
-3.034043178648541 
0.4435250843824864 
0.7894031917409966 
0 
-0.7686918926403976 
-0.05820390568760887 
1.495018882785702 
0 
1.439280209150211 
-0.1982957147913581 
-0.4337860833521787 
0.009414399051515032 
0 
1.271188450832243 
2.580825404391132 
1.708769250059043 
7.733312628708654 
-0.4573029728095918 
-2.056726532924100 
3.324128860229795 
-0.3909935477254640 
2.893716802187478 
-0.3131768534198771 
0 
0.9187835907458924 
1.689024990253572 
0.1427459175272981 
0 
0 
-0.9989390288132598 
0 
0.1384197838510987 
2.188388399011909 
-1.927807636324101 
-0.1783171227861839 
0 
2.994552214806808 
-0.5235924325070346 
-1.688436994275427 
2.307512174593290 
-1.588933920420468 
0 
0.7220664188620891 
0 
-0.2414394976497969 
-1.090548482925521 
0 
-0.3183937152066879 
-1.961338619282173 
-0.0001719461836434122 
-2.255588682085911 
-1.264098411600295 
0 
2.049940307662697 
2.167877787108244 
-2.175052956323501 
0 
-0.2435336039515094 
-0.1153711462351016 
5.963248858236121 
-2.116771757148739 
-0.2713817191471128 
1.851245184767135 
-2.891780289073440 
-1.437652893581157 
0 
-1.642635455832871 
-0.5615697646037199 
-1.985766217138888 
-1.300723549225415 
1.884186997592329 
0.5270678269160528 
0 
1.463426673953668 
-1.716207617425362 
-0.2303812538039595 
0 
1.768024330777216 
-1.517872134099292 
0.2955634169102431 
0.7678202663956336 
-0.2210391518113234 
2.227040165467352 
-2.874275912346949 
0 
1.909786289601510 
-1.030302509940965 
-2.729083783124301 
-3.460185431436079 
0.3959823014417703 
0 
-7.618388004526098 
-0.6608926828009569 
-1.645403953779969 
0 
10.04636150035422 
0.9118933658615994 
0.3615473991879071 
-4.960293050834800 
9.611916834261110 
5.103538853205384 
0 
6.123880581900930 
0.2902679222568794 
-1.484171490590078 
0 
-1.102395958971717 
0 
-0.4865866927659329 
0.1071566602972996 
0.4402156299303651 
0.1218237730238308 
-2.345234232338298 
-4.198043900123359 
-0.8100783491152904 
0.8465038172899308 
-1.223954345099354 
8.926875859562914 
4.747698766923251 
-0.8513850342291113 
-2.778300837859869 
-0.01972357009350508 
-2.671802412297232 
-2.241523475637444 
4.472243757411942 
-0.6078799412178062 
0.6411030311453043 
4.062180274670785 
0 
1.601769122513071 
0 
-0.03960920671561863 
0 
0 
0 
3.860482870698240 
0.2356781157023650 
-0.2353893149140457 
1.787828945715128 
0.2467819372704123 
-0.1397761899682277 
1.375733857013117 
-0.6163899323108641 
2.005355430325391 
-1.973034409817728 
2.110732424640123 
0.9133582392544736 
-1.215537123120562 
0.09150429413763755 
3.896739076655496 
2.282575343971646 
-0.7780791819089947 
-3.624107010130057 
-2.657626006947811 
2.749016772700451 
-1.653603013648156 
-0.1313565377737078 
-1.303569808834695 
-1.289724359754691 
-0.8677315677132508 
1.193691680726745 
0.4228747471495674 
3.263241730366634 
2.446722057538763 
0.3914512320129256 
-2.309358567767059 
0.4922416039807959 
0 
-0.8405492577430185 
-1.758774168500533 
0.4727165702779992 
3.070021896388328 
-1.988613174166118 
-0.1377310705801597 
1.009097437736765 
-2.765421630459550 
0.3283821155968132 
-1.931792044348152 
0.2341647964351816 
-1.606857795665922 
3.077302942612490 
0.5325465743886393 
0 
0.1221658966111577 
-0.4232891775161458 
0 
0.4338899469190551 
-1.115160595618954 
0 
8.030864958003406 
-0.8613108838672028 
-0.5837332235507946 
0.4421082793511847 
0 
0.02028307806516708 
2.007529178037279 
2.427308362496620 
-1.429144286644733 
1.126240276871330 
5.130131730887980 
-1.715574129875569 
2.291963177467842 
0 
-2.211122068388595 
-1.073946743052576 
0 
0 
-0.4356017955655239 
4.947844971391914 
-3.539165179667735 
0.01827708233201881 
-0.6742777532001618 
-1.141967464403912 
-1.578281127814536 
0 
-1.584489277942701 
0.05227765848998028 
0 
0.2877703905961359 
-0.8996002374326728 
-1.087600118432267 
3.906414284076449 
-1.521744394758623 
-1.901447828102000 
5.977365774639472 
-0.3059534143854418 
0.5822527949818139 
-0.1076964833840508 
0.8165527555949718 
-0.9959239847486456 
0.09281777851911477 
1.647477149881561 
4.933620802143273 
-2.198741906751363 
-0.07530537664723702 
2.915202613106593 
1.225902240319012 
-2.434828642554212 
-0.6073515202747888 
-0.5271432758792546 
-1.490263701145103 
0 
-0.9236762953994634 
1.885966594830555 
2.376883879490097 
0 
-0.4479945441078525 
1.207547274154040 
0.01676385256199492 
-3.668522368564865 
-0.1286342179346955 
-1.586366044033004 
1.944022155311164 
-0.6567169014320109 
0.5878950990113249 
0 
0 
3.503469118933707 
-0.1480181668936654 
3.265609674539218 
-0.008594506312133487 
0.9923265527494618 
0 
-2.368403597832896 
5.475812813455695 
-2.386114948824996 
-0.2409696205374164 
-5.848344269509479 
0 
-1.713115796276848 
-0.5428774481802856 
2.356425280520660 
-0.8020109166892859 
0.8670101180481690 
-0.1658480789007756 
0 
1.342180875409362 
0 
-0.1319384053029892 
1.244260336085284 
0.07161596303257323 
0.9221247052778688 
-0.2556940109014158 
0 
-3.715808144690701 
2.595864408392361 
0 
1.835752674571224 
0 
0.2744023349334788 
-0.9211543314097221 
-0.5917052198152432 
0.9384904020275936 
-0.5657392666353778 
-4.622567037251072 
0.3058003147737606 
1.037360405950322 
-0.2348912820211975 
0 
-2.967459620493260 
0 
0.8405777271948965 
2.018253162558109 
0.1540481827165832 
0.7604442589624795 
2.903333907385920 
2.764675325958172 
-0.04261384789643558 
0.5063673412255324 
1.112231604415094 
-1.200656720599195 
-2.512534694198501 
0.9968689807078207 
0 
0.2689709042048397 
1.087615347503245 
3.109401862992049 
1.204877097653351 
8.979966631458460 
0.3535497587089053 
0 
0 
-0.7936757197197758 
-1.583175144078150 
-1.358658018033792 
0 
1.151632114226600 
-0.07571662508423004 
0.4061744171254709 
-2.091347213881323 
1.024959597014203 
-1.663819808953483 
-2.915196863104069 
-1.245788325191439 
1.849292528891206 
1.911326578717278 
-1.155167830605077 
0 
0.01902284664382506 
-4.038174773328015 
-1.599148368458440 
0 
-1.026928323999044 
-1.254171326051295 
-1.956341340031156 
